<?xml version="1.0"?>
<opencv_storage>
<my_svm type_id="opencv-ml-svm">
  <svm_type>C_SVC</svm_type>
  <kernel><type>LINEAR</type></kernel>
  <C>25.</C>
  <term_criteria><epsilon>2.2204460492503131e-016</epsilon>
    <iterations>1000000</iterations></term_criteria>
  <var_all>12</var_all>
  <var_count>12</var_count>
  <class_count>44</class_count>
  <class_labels type_id="opencv-matrix">
    <rows>1</rows>
    <cols>44</cols>
    <dt>i</dt>
    <data>
      1 2 3 4 5 6 7 8 9 10 11 12 13 14 15 16 17 18 19 20 21 22 23 24 25
      26 27 28 29 30 31 32 33 34 35 36 37 38 39 40 41 42 43 44</data></class_labels>
  <sv_total>946</sv_total>
  <support_vectors>
    <_>
      7.32272387e-001 9.08527792e-001 -1.46720493e+000 2.51866770e+000
      1.73479712e+000 1.68916273e+000 -2.24132818e-004 4.56253737e-002
      -1.91781461e-001 -2.68853992e-001 1.99471653e-001 3.52304161e-001</_>
    <_>
      2.36223519e-001 -4.16754514e-001 1.19821623e-001 -2.18744963e-001
      -2.05360845e-001 -8.37709010e-002 -1.32955276e-004
      -8.46402906e-003 -8.51453561e-003 -6.58504432e-003 1.57953352e-002
      1.21197157e-001</_>
    <_>
      -3.71552445e-002 -1.44091979e-001 -3.94281819e-002
      -8.45182911e-002 -9.68435663e-004 1.84251089e-002 -1.53105328e-004
      5.18802032e-002 -2.10649753e-003 -1.88384519e-003 1.57555807e-002
      -3.61045271e-001</_>
    <_>
      6.18890584e-001 -2.21428990e+000 -8.41823041e-001 -6.33382201e-001
      -1.31320310e+000 1.53517231e-001 -4.27909149e-003 7.68396631e-003
      -1.55161589e-001 -1.43827349e-001 5.51330447e-001 2.18248025e-001</_>
    <_>
      -1.55742012e-003 -1.85969970e-004 1.13202771e-003 1.83925126e-003
      1.35014910e-004 1.74387707e-003 3.93513005e-007 -5.14160562e-003
      2.30395344e-005 3.85977692e-005 -9.00462401e-005 -5.18474914e-002</_>
    <_>
      -3.25003843e-004 3.53882468e-004 -2.08331912e-004 2.21493683e-005
      7.50010440e-006 1.09358858e-004 -4.06209665e-007 9.54111945e-003
      -3.37829842e-005 -3.56525816e-005 5.94575613e-005 -1.96134783e-002</_>
    <_>
      -2.19545458e-004 5.69357187e-004 -2.09551290e-004 2.18838017e-004
      2.76803912e-004 6.52025512e-004 -2.81777233e-007 4.35333792e-003
      -5.57288986e-005 -5.41780537e-005 7.37653972e-005 -3.19893546e-002</_>
    <_>
      8.73168829e-005 7.17208241e-005 -1.01353573e-004 1.24484563e-004
      5.33030361e-005 -2.36148426e-005 -7.69705437e-008 1.08467890e-002
      -6.89513990e-006 -8.28093107e-006 2.15074269e-005 -1.05831679e-002</_>
    <_>
      -8.50793123e-002 1.56506136e-001 6.35046337e-004 -1.09713279e-001
      -1.73648030e-001 5.65733612e-002 -2.25758369e-004 6.25842884e-002
      -8.49462952e-003 -7.70389615e-003 2.70349905e-002 -3.55517268e-001</_>
    <_>
      6.35584652e-001 3.15841317e-001 -9.93808657e-002 7.27446139e-001
      -1.76448286e-001 -1.37843788e-001 -9.71606597e-002
      -9.67015419e-003 -2.71142220e+000 -2.22599530e+000 1.08201694e+001
      1.66462719e-001</_>
    <_>
      2.71222115e-001 2.53125578e-002 2.59263404e-002 -2.30486095e-001
      -4.98766124e-001 3.39035168e-002 -6.46173663e-004 -2.07565781e-002
      -1.44201200e-002 -6.13637827e-003 6.50687143e-002 1.65528595e-001</_>
    <_>
      6.60402998e-002 8.64383653e-002 3.45238596e-002 -1.28443837e-001
      -2.00495467e-001 -4.02377211e-002 -1.48825900e-004
      -1.36738038e-003 -6.34137448e-003 -5.23216045e-003 2.00719032e-002
      3.26485693e-001</_>
    <_>
      9.32311416e-002 -9.91697460e-002 -5.87229393e-002 -5.89850098e-002
      -1.66835457e-001 2.55819857e-001 -4.82405610e-002 -1.71147776e-003
      -1.66518915e+000 -1.53070128e+000 5.74906540e+000 2.67708562e-002</_>
    <_>
      -2.87428647e-001 -1.03763051e-001 -5.73740378e-002
      -5.60422838e-001 -4.63583678e-001 1.07174799e-001 -4.52570952e-002
      -2.62029236e-003 -9.48615968e-001 -6.24101818e-001 4.39777899e+000
      1.30291224e-001</_>
    <_>
      3.38434070e-001 5.24282195e-002 6.67800009e-001 -1.27951217e+000
      9.65892226e-002 -3.22943091e-001 -6.86612725e-002 -1.57428421e-002
      -2.30396962e+000 -2.58872390e+000 9.37187195e+000 2.06759036e-001</_>
    <_>
      -5.67821920e-001 -8.24071825e-001 1.74355612e-003 -1.06434226e+000
      -3.71359438e-001 4.75077093e-001 -3.85231385e-003 1.38098113e-002
      -9.42793936e-002 -6.92561045e-002 4.30851966e-001 3.15336376e-001</_>
    <_>
      -1.64982274e-001 1.17156506e+000 -2.75378942e-001 7.43541181e-001
      -1.94204402e+000 1.50374949e+000 -2.82722842e-002 7.49263912e-002
      -5.63830376e-001 -6.40610635e-001 3.03177071e+000 -6.29239321e-001</_>
    <_>
      -1.98296994e-001 1.90499220e-002 -4.40898240e-001 -1.04686880e+000
      1.40193924e-001 -5.95375240e-001 -7.76210278e-002 -9.65235289e-004
      -2.49038172e+000 -1.76169431e+000 1.12097635e+001 -1.01298548e-003</_>
    <_>
      -1.01774149e-002 5.03670238e-003 2.14572693e-003 -2.23346837e-002
      -1.73503775e-002 1.64951961e-002 -3.65033011e-005 3.48490030e-002
      -1.70738460e-003 -2.00800179e-003 5.88546600e-003 -2.23667532e-001</_>
    <_>
      -2.57285021e-004 2.76225212e-004 -6.40237849e-005 3.46830289e-004
      3.19624560e-005 -1.13962975e-004 -9.31020736e-007 3.94235365e-003
      -4.80882627e-005 -4.93311672e-005 9.02460379e-005 -2.29895450e-002</_>
    <_>
      -9.24392720e-004 1.02075413e-004 -9.22795225e-005 8.74953475e-005
      3.57551908e-004 1.17915399e-004 -4.15820239e-007 7.24975951e-003
      -3.99669734e-005 -4.60925694e-005 7.63264907e-005 -2.08530594e-002</_>
    <_>
      -1.53132161e-004 3.57132609e-004 4.85810342e-005 6.21339723e-007
      1.73928966e-005 2.18727815e-004 -4.58706637e-007 6.90541603e-003
      -2.91507949e-005 -3.24528046e-005 5.22449773e-005 -2.25348994e-002</_>
    <_>
      -3.26524489e-003 1.19020010e-003 3.49863258e-004 1.43367250e-003
      -6.61743572e-004 -9.38432931e-004 -1.41926125e-006 6.08437648e-003
      -1.84145145e-004 -1.92056468e-004 2.96215585e-004 -4.47185859e-002</_>
    <_>
      -2.55122897e-003 1.93340145e-003 6.75098971e-004 -8.55338934e-004
      -9.76270530e-004 2.45082937e-003 -1.32867865e-006 -8.29890836e-004
      -1.55891146e-004 -1.48965672e-004 2.49985053e-004 -4.12148871e-002</_>
    <_>
      -4.43146972e-004 -3.59194557e-004 -3.86892236e-004
      -1.12696449e-004 1.97173242e-004 -1.53477667e-005 -6.45215891e-007
      2.07051402e-003 -3.02671106e-005 -3.21243097e-005 1.04216342e-004
      -2.26466283e-002</_>
    <_>
      2.25544456e-004 -1.97630477e-004 -1.55231843e-004 2.90573225e-004
      -6.96018033e-005 -2.20657821e-004 -1.83564552e-007 3.10539361e-003
      -2.54865499e-005 -2.32386137e-005 4.28016137e-005 -2.28337776e-002</_>
    <_>
      -3.61048966e-004 1.98417692e-004 5.02816634e-004 1.37190230e-003
      -7.25420477e-006 -1.18574081e-003 -3.83365943e-007 2.19537318e-003
      -6.15756580e-005 -5.36802254e-005 9.97257521e-005 -3.17534506e-002</_>
    <_>
      7.79271009e-004 4.06205363e-004 2.40761510e-004 1.03955599e-003
      -8.35794053e-005 -1.34370115e-004 -4.19757527e-007 2.93414132e-003
      -4.49483232e-005 -4.15477116e-005 9.55871583e-005 -2.98442431e-002</_>
    <_>
      1.34101292e-005 -3.86215870e-005 -4.50195830e-006 3.80558777e-006
      -1.35329992e-005 1.45931926e-005 5.25469490e-009 -3.48759117e-003
      2.87566849e-007 2.14675495e-007 -1.09493362e-006 1.74674671e-004</_>
    <_>
      1.01790885e-002 -8.97537800e-004 -4.15730942e-003 -1.46232580e-003
      -4.37338511e-003 -8.84336419e-004 -2.62809272e-006
      -3.75257358e-002 -1.59998686e-004 -1.18684700e-004 3.88407789e-004
      4.12306637e-002</_>
    <_>
      -3.26336086e-001 -3.61995101e-001 -3.25276963e-002 5.65043464e-002
      -2.41164759e-001 7.08508044e-002 -3.54947348e-004 -1.68716609e-002
      -2.98620407e-002 -2.78191883e-002 5.78834489e-002 2.05097243e-001</_>
    <_>
      -8.38652998e-002 -1.30618751e-001 -1.25872046e-001 2.32267678e-002
      -3.59249823e-002 2.55374592e-002 -4.52366876e-005 1.68117724e-004
      -3.09298094e-003 -3.08168633e-003 7.46163493e-003 2.94492394e-001</_>
    <_>
      5.35160711e-004 -1.58894993e-003 2.57828448e-004 5.55769075e-004
      -1.26240455e-004 5.76595718e-004 -3.07835791e-007 -1.82064679e-002
      -2.87776929e-005 -2.84953567e-005 4.81368807e-005 1.21727772e-003</_>
    <_>
      9.73162279e-002 -5.29560030e-001 -1.07250378e-001 2.78386590e-003
      -1.39617980e-001 -3.82417172e-001 -6.72981434e-004
      -7.53998291e-003 -4.06016782e-002 -3.43222879e-002 1.03539355e-001
      3.35954130e-001</_>
    <_>
      3.65936867e-004 -5.96250640e-004 7.94724619e-005 5.53124628e-005
      -2.05416349e-004 6.09825547e-005 -1.01419054e-007 -1.07219517e-002
      -7.80531809e-006 -6.74577086e-006 1.67367489e-005 4.91116603e-004</_>
    <_>
      -1.27641717e-002 -3.46286833e-001 -1.86177894e-001 8.57760534e-002
      -1.09329470e-001 -1.72936991e-001 -1.92727923e-004
      -2.34356918e-003 -1.83431953e-002 -1.53779406e-002 3.90651226e-002
      3.11260998e-001</_>
    <_>
      3.05706821e-003 -5.70363970e-003 -2.53589940e-004 1.99996447e-003
      -2.42456584e-003 1.34657195e-003 -4.82303664e-009 -3.15704532e-002
      -4.80255403e-005 -3.28604037e-005 2.97810893e-005 1.58887904e-003</_>
    <_>
      -4.54754710e-001 -3.54255587e-001 -1.83635712e-001 3.33746910e-001
      -2.02567354e-001 -2.09816948e-001 -6.30978728e-004
      -2.00191680e-002 -5.38143814e-002 -5.13002276e-002 1.05335198e-001
      2.61871547e-001</_>
    <_>
      -1.27918711e-002 -7.55300280e-003 -1.86451027e-004
      -1.78701035e-003 -8.76976585e-004 7.18836731e-004 4.99236876e-007
      6.86920853e-003 -1.05115148e-004 -8.86877315e-005 -2.99432668e-005
      -4.91348468e-002</_>
    <_>
      -5.46777679e-004 3.40655772e-003 1.21237407e-003 3.32654658e-004
      1.06396561e-003 3.60831688e-003 -2.81607271e-007 -2.18486227e-003
      -1.00469493e-004 -6.91131718e-005 1.04863691e-004 -5.05668744e-002</_>
    <_>
      -1.53855490e-005 5.18554152e-005 1.30941451e-004 -1.37860567e-004
      -4.40476688e-005 2.11436331e-004 -1.63873661e-008 -7.70934345e-003
      -2.99857038e-006 -3.63085746e-006 4.21162713e-006 -2.78228545e-003</_>
    <_>
      -8.49128235e-003 -4.98720817e-003 -1.01757971e-004
      -1.12640939e-003 -6.33115880e-004 -6.39946607e-004
      -1.96108340e-006 -2.31887607e-004 -1.31977125e-004
      -1.22085548e-004 3.02938744e-004 -3.98037061e-002</_>
    <_>
      -1.34395983e-003 -2.17220804e-004 1.19008626e-004 -3.21593398e-004
      -6.92761503e-004 -8.32129037e-004 -2.63964807e-007
      -1.53667266e-002 -2.15800410e-005 -2.31678223e-005 4.43193494e-005
      -1.17063625e-002</_>
    <_>
      4.41031829e-002 -1.07489757e-001 -7.77323497e-003 -9.78115276e-002
      -3.18903364e-002 -2.58130543e-002 -6.08485425e-006
      -2.39639934e-002 6.12474745e-004 4.73059859e-004 -7.72014842e-004
      2.18806654e-001</_>
    <_>
      -3.64681929e-001 -9.00020599e-001 1.43345773e-001 -9.04881477e-001
      -1.19503570e+000 -3.01383734e-001 -2.05714907e-003 3.16423252e-002
      5.81804737e-002 1.13839969e-001 1.37777790e-001 -6.61707520e-001</_>
    <_>
      -2.66065188e-002 -7.11656094e-001 -4.48191911e-001
      -5.60359299e-001 -4.08268303e-001 -7.09841102e-002
      -4.61356074e-004 -1.89157892e-002 -3.01834574e-004 9.59547935e-004
      2.60898992e-002 4.04668599e-002</_>
    <_>
      -1.74504193e-003 -8.75930651e-004 2.16235188e-004 -1.80954565e-004
      3.33685966e-005 1.48868439e-005 4.19368263e-007 -3.53548396e-003
      2.10205799e-005 2.63671118e-005 -9.92340720e-005 -3.55501808e-002</_>
    <_>
      -7.49907922e-004 1.30264531e-003 -6.23910339e-004 -9.22382518e-004
      -8.61686887e-004 2.86067894e-004 -2.13389924e-007 1.62384454e-002
      -4.04233688e-005 -3.45855842e-005 1.66133395e-005 -3.33850048e-002</_>
    <_>
      -1.71003526e-003 2.13665626e-004 2.94913316e-005 -7.54925131e-004
      -7.45307771e-005 -4.83069249e-004 -4.96980704e-007
      -1.43161800e-003 -6.02787295e-005 -6.66412743e-005 1.15222560e-004
      -3.66227813e-002</_>
    <_>
      4.92797299e-005 3.56310949e-004 -3.05783469e-004 2.23686147e-004
      -3.78557685e-004 -1.42572520e-004 -1.61759157e-008 4.96126525e-003
      -1.18767150e-006 2.95008340e-006 1.18977723e-005 -2.20085289e-002</_>
    <_>
      -7.78497696e-001 5.21991611e-001 3.06052864e-001 -9.36471105e-001
      -4.23772305e-001 -2.41879046e-001 -1.37408939e-003 2.53167897e-002
      -3.04615404e-002 -1.77401174e-002 1.53292820e-001 -1.66051999e-001</_>
    <_>
      -4.38364178e-001 -4.28105235e-001 -1.27747253e-001
      -4.50848401e-001 -1.76327407e+000 -2.09921107e-001
      -2.04355107e-003 -1.98881067e-002 9.87066049e-003 1.05489353e-002
      1.57120377e-001 1.74387276e-001</_>
    <_>
      -4.07866808e-003 -3.86840221e-003 -2.96991598e-003
      -4.14149044e-003 -8.68745800e-003 -2.57096672e-003
      -4.45393971e-006 -6.92920014e-002 -1.17890027e-004
      -1.41586293e-004 5.72664372e-004 3.94257344e-002</_>
    <_>
      -8.72274116e-003 3.39255994e-003 -1.79076893e-003 -2.03490667e-002
      -3.06468885e-002 -9.73996148e-003 -1.08509812e-005
      -1.13994144e-001 -2.78878346e-004 -2.61909765e-004 1.28294050e-003
      3.86998728e-002</_>
    <_>
      -6.11419976e-001 -2.74283975e-001 6.43827617e-002 -4.13887352e-001
      -1.36442900e-001 -1.20164659e-002 -1.24462997e-003
      -3.43054309e-002 -1.82745773e-002 -1.52277993e-002 1.04221381e-001
      -1.34298280e-002</_>
    <_>
      -4.92901027e-001 2.38935173e-001 4.17077951e-002 -4.58129287e-001
      -2.84441143e-001 5.86936250e-002 -1.29287911e-003 -1.92660503e-002
      -1.69330630e-002 -1.33738387e-002 1.07673638e-001 2.36489803e-001</_>
    <_>
      -2.16470689e-001 -6.55860230e-002 1.47199094e-001 -1.00590873e+000
      -6.28162444e-001 -4.54894066e-001 -1.66172453e-003
      -1.52719151e-002 -2.17757653e-002 -1.65094603e-002 1.33786887e-001
      7.00886175e-002</_>
    <_>
      -1.73344240e-001 -3.06001663e-001 -2.75817156e-001
      -4.58113194e-001 -2.14809969e-001 1.40415113e-002 -6.39731414e-004
      -2.05183830e-002 -9.27936751e-003 -6.94027869e-003 6.40280843e-002
      1.73367888e-001</_>
    <_>
      -1.89489269e+000 5.97197711e-001 2.46461701e+000 -7.61258781e-001
      -2.52453399e+000 1.38053644e+000 -3.54926102e-002 -3.66084278e-002
      -3.09671015e-001 -5.38999513e-002 3.44260550e+000 -7.68312693e-001</_>
    <_>
      -6.51542544e-001 2.89658718e-002 -4.51033443e-001 -3.33140761e-001
      -1.12129726e-001 -4.78083342e-001 -7.02976191e-004
      -2.53573060e-002 -4.10229899e-003 1.75011053e-003 7.22143278e-002
      2.54771281e-002</_>
    <_>
      -1.27382040e+000 5.08302569e-001 -1.41284615e-001 -1.21153581e+000
      -1.18776166e+000 -4.11677718e-001 -5.18264808e-003 7.35449046e-002
      -7.65107200e-002 -6.74900934e-002 6.34534717e-001 -4.83904511e-001</_>
    <_>
      -3.70528462e-004 1.05636835e-003 -1.74153160e-004 4.08189604e-004
      -5.91953052e-004 -2.03999793e-004 -2.83385077e-007 5.00596920e-003
      -5.05167445e-005 -4.24749996e-005 4.60391020e-005 -2.91978940e-002</_>
    <_>
      -1.06541044e-003 1.26975088e-003 -2.70356832e-004 2.50926023e-005
      -1.18720275e-003 -2.49163975e-004 -5.47066577e-007 1.02555407e-002
      -5.51222947e-005 -5.17475237e-005 8.38135966e-005 -3.08559500e-002</_>
    <_>
      -5.98991639e-004 1.48839247e-003 -1.51104206e-004 2.89346899e-005
      -9.93523397e-004 7.92072460e-005 -2.52405187e-007 1.01814438e-002
      -4.75990710e-005 -3.45548688e-005 3.03304114e-005 -3.32347751e-002</_>
    <_>
      -3.12145450e-003 7.56876616e-005 5.17307199e-004 -1.38765748e-003
      -8.01799179e-004 6.40611397e-004 -7.06757930e-007 1.99633115e-003
      -9.60989782e-005 -9.72100243e-005 1.59507137e-004 -4.65102233e-002</_>
    <_>
      -2.80148513e-003 6.26333582e-004 3.75797797e-004 -1.70646631e-003
      -7.47621118e-004 9.65426036e-004 -5.76958485e-007 -1.95184152e-003
      -5.73607067e-005 -6.03607186e-005 8.13239749e-005 -3.20883878e-002</_>
    <_>
      -1.19678117e-003 3.17149272e-004 -3.54975287e-004 4.20205790e-004
      -5.50171419e-004 -4.66206635e-004 -2.16836924e-007 1.30007789e-003
      -2.02027386e-005 -1.54901918e-005 3.77834731e-005 -2.46491339e-002</_>
    <_>
      -1.29565271e-003 -3.97883472e-004 -1.62192628e-005 4.21234690e-005
      -2.41690199e-004 -5.79948945e-004 -2.78560663e-007 1.33248651e-003
      -1.55768012e-005 -1.44105279e-005 4.60976116e-005 -2.63973754e-002</_>
    <_>
      -1.84755045e-004 7.93705345e-004 3.79505072e-004 -3.17456026e-004
      3.43372492e-004 -7.02299993e-004 -5.50597541e-008 -1.78150414e-003
      -1.73449062e-005 -6.92051617e-006 1.95200773e-005 -2.97815837e-002</_>
    <_>
      -1.56765134e-004 -6.76933327e-004 -4.54796129e-004 6.07400900e-004
      2.00774230e-004 -2.70780030e-004 -1.18418676e-007 -1.01900994e-004
      -1.16080591e-005 -2.19047233e-005 2.40343725e-005 -3.20912786e-002</_>
    <_>
      -4.84438260e-006 -3.63355321e-005 -7.14784210e-006
      -2.90273897e-006 -1.07113319e-005 8.70843542e-006 3.86739307e-009
      -2.99193989e-003 4.18012860e-007 3.78881737e-007 -1.04950732e-006
      1.32008136e-004</_>
    <_>
      4.05747851e-004 -3.15701793e-004 -4.64432087e-004 -2.95447011e-004
      -3.89072899e-004 -1.35498878e-004 -2.19928822e-007
      -1.60882547e-002 -7.12716655e-006 -3.22921210e-006 2.51052825e-005
      3.55842686e-003</_>
    <_>
      -1.37034371e-001 -9.48373452e-002 -5.86128421e-003 1.26403393e-002
      -3.30062844e-002 -2.22307760e-002 -4.57734059e-005
      -1.02035180e-002 -2.14993325e-003 -2.06952984e-003 5.52409329e-003
      7.27609619e-002</_>
    <_>
      -1.85803205e-001 -1.14233300e-001 -5.26024960e-002 4.16330174e-002
      -6.12047017e-002 -1.96428318e-002 -3.15579418e-005
      -1.22736460e-002 -2.48196349e-003 -1.80380710e-003 3.36222094e-003
      1.04838625e-001</_>
    <_>
      -4.73562659e-006 -5.39698231e-004 3.25948458e-005 9.78183525e-005
      -4.42445453e-005 1.43232392e-004 -8.80513866e-008 -9.78786685e-003
      -6.01755937e-006 -5.78133086e-006 1.11525869e-005 3.86119558e-004</_>
    <_>
      -2.29717553e-001 -1.25262246e-001 -7.39034638e-002
      -6.46651313e-002 -1.49734631e-001 -1.24917418e-001
      -7.91194325e-005 -1.23066781e-002 -6.20190427e-003
      -4.75395331e-003 1.14638964e-002 1.20317511e-001</_>
    <_>
      7.71877822e-005 -3.06074216e-004 1.31328625e-005 -8.00005091e-006
      -9.42867919e-005 1.52686061e-005 -4.44254376e-008 -7.10998662e-003
      -2.25261556e-006 -1.70647070e-006 5.95329993e-006 2.35123924e-004</_>
    <_>
      -1.52693212e-001 -1.64589897e-001 -4.71690744e-002
      -4.79568988e-002 -7.89170712e-002 -2.38713697e-002
      -6.87164284e-005 -1.91237256e-002 -4.30989591e-003
      -3.47392098e-003 9.65892337e-003 1.54209659e-001</_>
    <_>
      2.08349797e-004 -1.03859254e-003 -1.10191519e-004 2.08336904e-004
      -3.93489725e-004 1.73594060e-004 -7.12972070e-010 -1.27815502e-002
      -3.72454087e-006 -1.08422353e-006 1.76783303e-007 3.13531084e-004</_>
    <_>
      -8.77957717e-002 -8.94471034e-002 -3.71781178e-002 3.91418040e-002
      -1.37844142e-002 2.82246824e-002 -2.27825276e-005 -1.74059067e-002
      -1.51267101e-003 -1.31080661e-003 3.33539187e-003 6.95278198e-002</_>
    <_>
      -1.49817392e-002 -7.11699761e-003 -2.59719184e-003
      -4.70047724e-003 -1.73539354e-003 1.78621546e-003 8.42133147e-007
      2.85218563e-003 -1.33254347e-004 -8.13861261e-005 -6.32710580e-005
      -6.43970147e-002</_>
    <_>
      -1.34447287e-003 8.30670702e-004 3.54604126e-004 -9.49718989e-004
      1.84937395e-004 1.04817224e-003 1.98563512e-007 -8.43476597e-003
      -7.80349546e-006 4.55709596e-006 -3.34275574e-005 -3.50579955e-002</_>
    <_>
      -6.67204658e-005 -4.02573505e-006 5.42495654e-005 -9.58942619e-005
      -2.64005539e-005 1.04195977e-004 -8.69156480e-009 -5.79157053e-003
      -7.70035513e-007 -1.04808100e-006 1.26427733e-006 -1.46318704e-003</_>
    <_>
      -5.60547225e-003 -2.81613972e-003 -4.56369511e-004
      -2.71534361e-003 -3.06556962e-004 -1.17814343e-003
      -7.20152457e-007 -2.04698206e-003 -3.26397530e-005
      -2.82579167e-005 9.38772646e-005 -3.10531277e-002</_>
    <_>
      -5.92294848e-004 -1.66054291e-004 -1.26643044e-005
      -1.69382023e-004 -2.18835965e-004 -2.77003652e-004
      -7.96993760e-008 -1.00471349e-002 -3.90168179e-006
      -4.19773278e-006 1.02930544e-005 -3.49113671e-003</_>
    <_>
      -4.86150477e-003 1.34813727e-003 5.43845817e-004 1.93224160e-003
      8.08929501e-004 4.83468262e-004 -2.81842381e-006 4.92137820e-002
      -2.96024537e-005 9.61860860e-006 3.12728487e-004 -3.52883898e-002</_>
    <_>
      3.82206619e-001 7.32534349e-001 -8.40835273e-001 5.53873301e-001
      1.19939819e-002 1.52269468e-001 1.30896997e-002 1.06459083e-002
      2.36694789e+000 2.41127062e+000 5.91512859e-001 -3.45533580e-001</_>
    <_>
      -2.09491956e-003 2.66220723e-003 1.80513505e-003 2.48223986e-003
      7.01007200e-004 1.53189816e-003 8.56230884e-007 -3.59831774e-003
      1.15861942e-004 1.00924757e-004 -1.58450537e-004 -4.07664701e-002</_>
    <_>
      -5.13882085e-004 5.71417448e-004 -4.55560039e-005 4.22746030e-004
      1.81942796e-005 1.29772443e-005 -2.68126144e-007 9.83512681e-003
      -2.12056366e-005 -1.93209562e-005 3.92192269e-005 -1.40847079e-002</_>
    <_>
      -9.99290030e-004 1.19339593e-003 6.17873957e-005 8.64383997e-004
      1.53917877e-004 4.31618973e-004 -1.75056712e-007 4.14483296e-003
      -3.56148994e-005 -2.85519545e-005 4.55652371e-005 -2.63384841e-002</_>
    <_>
      -8.56792540e-005 2.12958243e-004 -1.86672205e-005 2.62298650e-004
      5.03689625e-005 -3.75091950e-005 -4.48524879e-008 9.66081303e-003
      -4.06067693e-006 -3.61643288e-006 1.34974080e-005 -7.22579518e-003</_>
    <_>
      -5.88358147e-003 7.96507951e-003 1.76902732e-003 2.13218643e-003
      -2.30927928e-003 1.07458059e-003 -4.69928955e-006 5.05824871e-002
      -1.56935406e-004 -1.04920793e-004 5.77928906e-004 -3.60713974e-002</_>
    <_>
      5.30483246e-001 3.37404227e+000 2.97940224e-001 1.57481384e+000
      -9.72838581e-001 1.23529613e+000 -1.12459296e-002 3.51641066e-002
      -3.20842057e-001 -3.40772688e-001 1.27879465e+000 -1.81707606e-001</_>
    <_>
      -3.16521525e-001 6.34625614e-001 1.96996555e-001 4.64853317e-001
      -3.52785766e-001 -5.59912398e-002 -1.08147494e-003
      -1.70164760e-002 -2.64886376e-002 -3.15945819e-002 1.25051558e-001
      3.45173255e-002</_>
    <_>
      -6.58437788e-001 6.30175531e-001 -1.05142079e-001 8.20585191e-002
      -1.21537887e-001 -1.14528015e-001 -7.93482119e-004
      -1.35303205e-002 -2.94872094e-002 -3.33920494e-002 1.07269824e-001
      8.22099224e-002</_>
    <_>
      -3.54094416e-001 5.49367964e-001 5.94313033e-002 1.28213033e-001
      1.52617306e-001 1.74964413e-001 -7.72110769e-004 6.56116055e-003
      -1.43846329e-002 -1.44694606e-002 9.07513797e-002 -1.31343529e-001</_>
    <_>
      -4.40082252e-001 1.02549875e+000 3.01039696e-001 4.19441611e-001
      -8.31967518e-002 3.30678016e-001 -2.33507948e-003 -3.96601669e-003
      -4.47470360e-002 -4.04014923e-002 2.38655806e-001 1.26754295e-003</_>
    <_>
      -8.98148775e-001 2.16031551e+000 2.13921666e-001 6.26270652e-001
      3.11775446e-001 -1.62867594e+000 -8.31377343e-004 -2.43678428e-002
      -5.00167869e-002 -3.25693414e-002 1.57962590e-001 -3.40872645e-001</_>
    <_>
      -2.15764666e+000 2.58772135e+000 6.42866313e-001 3.73623705e+000
      1.88474452e+000 -1.11414647e+000 -4.03811745e-002 9.38045457e-002
      -1.01501751e+000 -8.31716597e-001 4.85830736e+000 -9.33461130e-001</_>
    <_>
      -2.33392213e-002 4.84932810e-002 -4.35816171e-003 3.33680473e-002
      -1.86706297e-002 -7.81773124e-003 -4.19499338e-005 2.01733336e-002
      -8.04388546e-004 -9.73240181e-004 4.93124593e-003 -1.82534084e-001</_>
    <_>
      -5.94243765e-001 5.12676239e-001 2.54190229e-002 1.53117016e-001
      2.17497498e-001 -1.84691213e-002 -3.13685043e-004 5.97140461e-004
      -2.26910016e-003 -2.14848458e-003 5.10775857e-002 -1.86316907e-001</_>
    <_>
      -1.21021848e-002 1.01880319e-002 2.73537613e-003 7.60458270e-003
      1.78611124e-004 1.90497050e-003 -6.17383103e-006 1.40302135e-002
      -2.47972901e-004 -2.31762286e-004 9.96119110e-004 -8.83397833e-002</_>
    <_>
      -6.52549090e-004 6.10205170e-004 6.33793461e-005 7.83459225e-004
      2.06166478e-005 -1.79032388e-004 -9.02922011e-007 3.40030203e-003
      -3.56257697e-005 -3.23136446e-005 7.56238951e-005 -1.98174603e-002</_>
    <_>
      -1.00551348e-003 4.09188768e-004 -6.29871793e-005 4.60190466e-004
      2.10177124e-004 -7.12869951e-005 -5.09589654e-007 6.89177820e-003
      -2.64265327e-005 -2.54619736e-005 6.12156218e-005 -1.64812841e-002</_>
    <_>
      -4.82036412e-004 6.40329614e-004 1.61220873e-004 4.52652515e-004
      3.17220474e-005 1.18405260e-004 -3.60018703e-007 5.68553898e-003
      -1.63114873e-005 -1.55993675e-005 3.49146794e-005 -1.85644645e-002</_>
    <_>
      -3.67855676e-003 1.97808165e-003 -5.19995738e-005 1.25444401e-003
      1.98220205e-005 -7.86602381e-004 -5.18253444e-007 3.72620183e-003
      -8.07771576e-005 -8.95041521e-005 1.30363303e-004 -3.40436138e-002</_>
    <_>
      -3.37417633e-003 2.49588536e-003 -6.27840855e-005 -6.43116189e-004
      -1.26525765e-005 1.23295223e-003 -4.60803307e-007 -6.69335655e-004
      -6.46921180e-005 -6.94523187e-005 1.11781723e-004 -3.26028392e-002</_>
    <_>
      -9.88337095e-004 1.46179518e-004 -4.70568746e-004 -1.54872119e-004
      3.69632937e-004 -1.02174570e-004 -3.61913663e-007 2.13061366e-003
      -1.02547301e-005 -1.54489207e-005 6.20314386e-005 -1.94669310e-002</_>
    <_>
      -2.47051270e-004 2.85229064e-004 -2.88690462e-005 6.62599050e-004
      -1.34422107e-005 -2.19560839e-004 -1.06580764e-007 6.04356825e-003
      -1.68725746e-005 -1.23294531e-005 2.79724518e-005 -1.89472903e-002</_>
    <_>
      -1.50567223e-003 8.71318625e-004 6.40153521e-005 8.74407822e-004
      3.32375290e-004 -1.10141071e-003 -2.39882194e-008 1.80723844e-003
      -1.95646680e-005 -2.14519969e-005 3.77134020e-005 -2.60030758e-002</_>
    <_>
      -5.49367745e-004 1.01425627e-003 -5.60778972e-005 6.37999445e-004
      2.65753479e-004 -2.68778356e-004 -8.63915801e-008 2.42812163e-003
      -1.14374943e-005 -1.40678276e-005 4.00705212e-005 -2.46398989e-002</_>
    <_>
      -8.87288661e-006 -2.31975482e-005 9.22567597e-006 2.90179341e-005
      -1.42574327e-005 2.62489721e-005 7.55477902e-009 -4.08942392e-003
      5.92135848e-007 3.03436167e-007 -1.50330618e-006 1.67022285e-004</_>
    <_>
      -3.14632757e-003 -5.21800667e-003 5.75288720e-002 5.17334715e-002
      -5.24845161e-002 -2.04641372e-002 -2.86260238e-005
      -1.78713668e-002 -1.54755637e-003 -1.81479903e-003 4.34807595e-003
      1.76491484e-001</_>
    <_>
      -6.30201101e-001 4.95514512e-001 1.99266121e-001 1.12918007e+000
      3.44286084e-001 -1.63337386e+000 -9.10585746e-003 -2.64999010e-002
      -5.41230023e-001 -5.34541070e-001 1.33023083e+000 7.33153075e-002</_>
    <_>
      -2.06999564e+000 2.13835549e+000 1.00546038e+000 1.10945272e+000
      2.04162642e-001 -1.07060897e+000 -2.73661502e-003 -4.87214662e-002
      -2.31348127e-001 -3.19632322e-001 6.62077367e-001 3.88441592e-001</_>
    <_>
      -2.20946589e-004 -1.67527013e-002 9.60757490e-003 1.75033212e-002
      -6.64022868e-004 1.18738385e-002 -5.09865231e-006 -6.97050616e-002
      -4.20296506e-004 -4.79652139e-004 8.15453473e-004 -4.19188244e-003</_>
    <_>
      -5.08717954e-001 8.63051355e-001 1.13753833e-001 8.96577835e-001
      -3.81677449e-002 -9.31444883e-001 -2.41270754e-003
      -2.04630457e-002 -1.40990555e-001 -1.40969515e-001 4.14075345e-001
      -1.97701249e-002</_>
    <_>
      5.89479052e-004 -1.29608018e-003 6.17960875e-004 7.30080239e-004
      -5.83210669e-004 3.45082401e-004 -3.29344999e-007 -1.95263550e-002
      -2.14153970e-005 -2.22237104e-005 5.56436316e-005 -4.23551792e-005</_>
    <_>
      -2.26971418e-001 6.32473409e-001 2.17132047e-001 8.11936796e-001
      3.47171754e-001 -2.22774789e-001 -2.69078016e-002 -5.72381075e-003
      -3.75274730e+000 -3.70058298e+000 7.42775154e+000 -6.98434236e-003</_>
    <_>
      4.02318537e-002 -1.16669588e-001 1.02002034e-002 9.61917341e-002
      -6.06295057e-002 5.41599169e-002 -2.07298149e-006 -2.55153552e-002
      -1.37592875e-003 -1.47787842e-003 1.25369907e-003 -1.01339243e-001</_>
    <_>
      -3.36462349e-001 3.02543819e-001 7.45237153e-003 3.38363469e-001
      -1.42704025e-001 -5.64468615e-002 -2.63129390e-004
      -7.94148538e-003 -2.40859054e-002 -2.48128269e-002 4.92908359e-002
      2.58890148e-002</_>
    <_>
      -7.32738618e-003 -1.49722036e-003 3.36386263e-004 5.38525230e-004
      -6.27871254e-004 4.85332770e-004 1.50108406e-007 9.25146975e-003
      -5.55735169e-005 -3.69783884e-005 3.36743915e-006 -3.49454843e-002</_>
    <_>
      -3.04454309e-003 3.66448029e-003 3.74363553e-005 -3.99449073e-006
      1.49207900e-003 1.74410606e-003 3.19917689e-007 -1.64704525e-003
      -1.33374733e-005 -9.93768754e-006 2.98661718e-007 -3.84951606e-002</_>
    <_>
      -2.50623765e-004 3.44402419e-004 3.86687578e-004 -8.49370190e-005
      -5.34516184e-005 4.73984634e-004 -3.01579064e-008 -9.81296878e-003
      -4.42681858e-006 -7.21319066e-006 8.45328577e-006 -6.16725255e-003</_>
    <_>
      -7.24134268e-003 -1.98679208e-003 -6.23405562e-004
      -9.68507258e-004 2.06862445e-004 -8.06770578e-004 -8.91414345e-007
      -1.85417332e-004 -5.11554499e-005 -5.40440597e-005 1.47776198e-004
      -3.16684656e-002</_>
    <_>
      -6.31151535e-003 -2.91140238e-003 1.53839169e-003 1.56246021e-003
      -1.52109808e-003 -6.95394527e-004 -6.78281594e-007
      -7.23032048e-003 -5.99776540e-005 -6.72430906e-005 1.21586338e-004
      -3.15153003e-002</_>
    <_>
      8.16520974e-002 -5.34365475e-002 -3.59851532e-002 6.23442829e-002
      -2.13057385e-003 3.10073029e-002 3.65285414e-005 -2.18158141e-001
      -6.15584722e-004 -1.10984792e-003 -4.05404437e-003 2.41832867e-001</_>
    <_>
      -1.05712726e-003 7.83266325e-004 8.15905223e-005 6.63394399e-004
      1.99418238e-004 3.31489602e-004 1.41070973e-006 -3.34792375e-003
      -1.22484635e-005 -1.54867012e-005 -1.63142991e-004
      -3.36752534e-002</_>
    <_>
      8.20052926e-004 1.14048307e-003 -4.40678356e-004 -4.06906620e-004
      6.79115998e-004 1.35264557e-003 2.89572517e-006 1.59785263e-002
      -5.44586146e-005 -6.80871599e-005 -2.03343428e-004
      -4.01837304e-002</_>
    <_>
      -5.21094829e-004 9.07486305e-004 -2.98697589e-004 2.54538405e-004
      1.50725449e-004 1.69048013e-004 1.02322451e-006 -2.29685730e-003
      -4.64214500e-005 -4.48906139e-005 -5.36903754e-005
      -3.65857780e-002</_>
    <_>
      5.91739255e-004 2.17162276e-004 -2.25559081e-004 5.35616768e-004
      1.21489684e-004 1.26010651e-004 9.29100793e-007 2.28372985e-003
      -1.90392143e-006 -3.52785219e-006 -5.31727856e-005
      -2.37249117e-002</_>
    <_>
      -8.96124005e-001 1.63709676e+000 3.99966598e-001 -1.98184401e-001
      -3.43854539e-002 -1.57869942e-002 8.18724511e-004 8.25971272e-003
      -1.38626754e-001 -1.31426960e-001 1.06888302e-001 8.60281467e-001</_>
    <_>
      1.18857086e-001 4.46188003e-001 -1.42476335e-002 1.02638334e-001
      -1.93230644e-001 -2.10033711e-002 1.69615712e-004 -5.11897393e-002
      -1.99592044e-003 -4.21025837e-003 -1.08450912e-002 2.81314522e-001</_>
    <_>
      6.42136074e-005 4.04919090e-004 -2.67547759e-004 6.79078585e-005
      -6.39844686e-004 4.83595941e-005 1.47004258e-007 -2.28940994e-002
      -1.04129986e-005 -1.66133213e-005 3.52038273e-006 4.12418833e-003</_>
    <_>
      1.33231952e-004 1.02336507e-003 -9.76196243e-005 -3.33297998e-004
      -1.15537015e-003 -8.06041789e-005 1.84474501e-007 -2.54758466e-002
      -1.21553649e-005 -1.65908295e-005 -1.08316783e-006 2.60443706e-003</_>
    <_>
      -5.39503396e-001 3.21678910e-003 -1.09835573e-001 8.81675854e-002
      -4.19762824e-003 3.95363308e-002 -4.69261809e-004 -3.80197726e-002
      -1.11978687e-002 -1.18171135e-002 4.13730405e-002 5.11070266e-002</_>
    <_>
      -1.91265598e-001 1.39507633e-002 -6.01971522e-003 -8.08529276e-003
      5.88551676e-003 1.71767287e-002 -1.11721805e-004 -2.03648657e-002
      -3.47111211e-003 -3.93953640e-003 1.10090999e-002 2.38785490e-001</_>
    <_>
      -3.95832174e-002 6.89390004e-002 -1.66344885e-002 -1.13618128e-001
      -4.24933061e-002 -2.15336191e-003 2.16971730e-005 -3.30117643e-002
      -1.42081198e-003 -1.33558619e-003 -7.21732329e-004 2.71703899e-001</_>
    <_>
      1.30571630e-002 1.43334484e-002 -7.89739378e-003 -3.01900655e-002
      -1.41449869e-002 1.03406410e-003 -6.21279150e-006 -4.59158011e-002
      -8.07845674e-004 -7.12122885e-004 1.88700203e-003 2.17516139e-001</_>
    <_>
      -4.79250073e-001 2.29350686e+000 2.70829350e-001 1.68926990e+000
      3.35567743e-001 2.03129545e-001 -5.53477556e-003 -1.20134458e-001
      -2.54741341e-001 -2.33167514e-001 7.08801687e-001 -4.52470630e-001</_>
    <_>
      -1.55907888e-002 3.16521451e-002 -2.82531846e-002 7.92676862e-003
      1.01683680e-002 -3.77089344e-003 1.52763332e-005 -1.28154501e-001
      -2.00675320e-004 -2.38916091e-005 -7.61404575e-004 1.10832132e-001</_>
    <_>
      1.91396296e-001 1.84180605e+000 -4.43162888e-001 3.34901601e-001
      1.47964016e-001 5.21284282e-001 9.06704292e-002 -1.85850158e-003
      -5.01010180e+000 -5.16104603e+000 3.30897689e-001 -9.03951228e-002</_>
    <_>
      5.84075635e-004 9.49145004e-004 1.76709382e-005 9.77335148e-004
      3.26458510e-004 2.98610830e-004 1.53575604e-006 5.38046006e-003
      -5.92611868e-005 -6.15452664e-005 -7.23973208e-005
      -3.14745940e-002</_>
    <_>
      1.20189608e-004 1.26965833e-003 -5.17729677e-005 6.90125045e-004
      -3.64205713e-004 3.03318200e-004 1.53331530e-006 1.07436851e-002
      -6.99710217e-005 -8.00662383e-005 -5.15313550e-005
      -3.48001532e-002</_>
    <_>
      6.94994465e-004 1.42050011e-003 1.11099027e-004 8.23024020e-004
      2.29774261e-004 8.36456544e-004 2.27194710e-006 9.88505781e-003
      -6.38562997e-005 -6.37374469e-005 -1.39512849e-004
      -3.76897305e-002</_>
    <_>
      -2.34198035e-003 2.02835537e-003 1.67277438e-004 -9.94346221e-004
      -1.26588356e-003 6.23219006e-004 1.16043464e-006 -2.86069489e-003
      -1.24304031e-004 -1.10983456e-004 -3.37639494e-006
      -4.65913713e-002</_>
    <_>
      -1.18736341e-003 1.20373000e-003 7.62190684e-005 -2.34194231e-004
      -3.86507949e-004 7.46647129e-004 2.83950243e-007 -1.03542041e-002
      -4.41226366e-005 -5.09154052e-005 2.53345570e-006 -2.47698706e-002</_>
    <_>
      -8.15191888e-004 5.41975533e-005 -1.28007858e-004 5.27358672e-004
      8.05244199e-005 -4.15636518e-004 3.58384312e-007 4.15283954e-004
      -2.01208240e-005 -2.26914726e-005 -9.75944840e-006
      -2.57160794e-002</_>
    <_>
      -8.35658459e-004 -1.06705855e-004 9.44539497e-005 5.74932317e-004
      -2.04680764e-005 -3.99889424e-004 6.53804761e-007 2.12000436e-004
      -1.78898808e-005 -2.22726267e-005 -4.46371378e-005
      -2.70278733e-002</_>
    <_>
      -2.47696244e-005 1.04268081e-003 6.51206065e-005 9.17218800e-004
      1.82000644e-004 -2.28313686e-004 5.93656466e-007 -3.32608959e-003
      -3.36340854e-005 -3.07204209e-005 -2.77985582e-005
      -2.90112365e-002</_>
    <_>
      6.51442795e-004 4.37198178e-005 -2.18824600e-004 1.42329501e-003
      5.64655755e-004 -1.30223096e-004 1.31395052e-006 -1.15880372e-004
      -1.43665538e-005 -1.47807878e-005 -1.19474906e-004
      -3.26071531e-002</_>
    <_>
      1.54515715e-006 -2.02690444e-005 -6.23880214e-006 3.28890360e-006
      -7.76720026e-006 1.08983450e-005 1.03915365e-008 -2.73324247e-003
      3.40821742e-007 2.49806931e-007 -1.48715458e-006 1.21707133e-004</_>
    <_>
      2.64806877e-004 2.16888002e-005 -2.06294280e-004 -3.81619357e-005
      -1.50667562e-004 -1.50090807e-006 1.76544557e-008 -1.07355602e-002
      -3.22598112e-006 -2.45380647e-006 1.24970040e-006 1.73000421e-003</_>
    <_>
      -1.51268737e-002 -7.36869825e-003 -9.52720351e-004 5.42637147e-003
      -2.76317960e-003 -7.62649521e-004 -2.02183242e-006
      -5.89063317e-002 -2.73649319e-004 -2.96059414e-004 3.75200034e-004
      2.04120222e-002</_>
    <_>
      -6.34900481e-002 -2.90431455e-002 -1.79180242e-002 2.67090071e-002
      -4.73623397e-003 1.55408988e-002 1.08423874e-005 -9.56718437e-003
      -6.33235846e-004 -6.80237135e-004 -6.28741691e-004 1.31083101e-001</_>
    <_>
      3.91421891e-005 -2.39311950e-004 1.69519826e-005 9.98675750e-005
      -1.70146504e-005 1.10749883e-004 2.38203524e-009 -7.48065021e-003
      -3.56893293e-006 -3.86883494e-006 1.91860454e-006 3.11735203e-004</_>
    <_>
      -1.01935029e-001 -3.68840173e-002 -1.80957634e-002 7.17154797e-003
      -1.15479948e-002 -3.25017311e-002 6.97120186e-006 -6.96442183e-003
      -2.04033707e-003 -2.24741409e-003 1.28960225e-003 1.68689877e-001</_>
    <_>
      7.66929952e-005 -1.58639596e-004 7.51778089e-006 2.04606804e-005
      -5.75651175e-005 2.65782000e-005 2.74000245e-009 -5.80778811e-003
      -1.53786539e-006 -1.43735463e-006 1.20770630e-006 2.08890619e-004</_>
    <_>
      -1.08506754e-001 -5.53914160e-002 -1.08419750e-002 2.84700636e-002
      -2.57696919e-002 -5.65018551e-003 1.13786455e-005 -2.05899719e-002
      -1.59894594e-003 -1.38392567e-003 4.79786482e-004 1.18995890e-001</_>
    <_>
      1.68067112e-004 -4.14482318e-004 -5.89447227e-005 1.69439067e-004
      -1.86485107e-004 1.28590415e-004 7.96403015e-008 -9.12303384e-003
      -1.97842201e-006 -1.29103216e-006 -6.73712248e-006 2.87950155e-004</_>
    <_>
      -3.68469534e-003 -3.44309234e-003 -1.92401442e-003 3.33025516e-003
      -6.33979216e-004 2.44089798e-003 4.44305712e-008 -3.46521363e-002
      -7.97568136e-005 -7.87786339e-005 6.91371533e-005 6.21894002e-003</_>
    <_>
      -1.46177039e-002 -1.00388750e-002 -1.11511245e-003
      -2.62322905e-003 2.95325438e-003 3.54852248e-003 7.95509277e-006
      5.09417732e-004 -1.82730859e-004 -1.79709867e-004 -6.27989764e-004
      -7.19392672e-002</_>
    <_>
      -1.35521390e-004 9.44814004e-004 1.12244779e-004 1.67456183e-005
      1.42335470e-004 6.14926976e-004 5.29412546e-007 -1.81622542e-002
      -3.36513722e-006 -2.56473299e-006 -5.12057268e-005
      -1.20876227e-002</_>
    <_>
      -2.86782888e-005 3.14456265e-005 3.78965487e-005 -4.91394094e-005
      -1.48976142e-005 8.69827127e-005 1.82417246e-008 -4.95306775e-003
      -5.78543904e-007 -9.76847218e-007 -1.18253695e-006
      -1.00792479e-003</_>
    <_>
      -3.43874400e-003 -1.28446787e-003 -4.24051046e-004
      -1.10781169e-003 -1.64950165e-004 -4.42382909e-004 1.26890299e-007
      -1.59925744e-002 -2.83439676e-005 -3.09385869e-005 1.37078496e-005
      -2.05632616e-002</_>
    <_>
      -2.92296987e-004 -7.72714156e-006 -9.69046596e-006
      -4.76159257e-005 -1.15806448e-004 -1.27799009e-004 1.67493628e-008
      -7.85534736e-003 -2.31745662e-006 -2.99839053e-006 5.82203882e-007
      -1.90994237e-003</_>
    <_>
      -1.27260818e-003 7.85993412e-004 2.26408639e-003 1.23753923e-003
      -4.37892391e-004 9.80632612e-004 1.48975710e-006 -4.06240346e-003
      9.66356820e-005 8.86431153e-005 -2.60701519e-004 -4.09515873e-002</_>
    <_>
      -4.68141952e-004 1.02594565e-003 -3.90701352e-005 1.47487663e-004
      -5.13137165e-005 5.34611900e-005 3.38783437e-008 1.11816535e-002
      -2.30577916e-005 -2.24664145e-005 1.85715071e-005 -1.85259208e-002</_>
    <_>
      -7.08513777e-004 2.47738091e-003 1.98668495e-004 2.76203558e-004
      1.70349624e-004 7.74525688e-004 9.55300834e-007 5.56309847e-003
      -3.53392534e-005 -2.91418655e-005 -3.53770920e-005
      -3.53092514e-002</_>
    <_>
      -7.11442699e-005 3.26917914e-004 9.22846011e-005 9.48175730e-005
      8.55271428e-005 -2.00331415e-004 -7.71183934e-008 9.57255904e-003
      -5.63442381e-006 -6.38327538e-006 1.93870055e-005 -1.09683098e-002</_>
    <_>
      -8.01803544e-002 2.01895133e-001 5.68530262e-002 -4.86672707e-002
      -7.52343163e-002 -7.96682108e-003 -6.60615406e-005 1.29463583e-001
      -2.48836074e-003 -1.84668507e-003 8.81033763e-003 -1.45333126e-001</_>
    <_>
      -1.89154223e-001 9.13137794e-001 2.87483543e-001 6.18205011e-001
      1.55106723e-001 -3.28302562e-001 -1.47975564e-001 3.88807472e-004
      -1.92662573e+000 -2.49870014e+000 1.23534355e+001 1.27563760e-001</_>
    <_>
      -6.56801164e-001 4.89656061e-001 -3.23757157e-003 -1.59612626e-001
      -6.92154109e-001 -1.83887318e-001 -1.25468103e-003
      -2.52564792e-002 -4.10924740e-002 -3.92535590e-002 1.43366084e-001
      9.86097902e-002</_>
    <_>
      -3.88964146e-001 4.71433699e-001 1.43779114e-001 -1.54053792e-001
      -3.07183087e-001 -2.60293365e-001 -3.39140330e-004
      -2.00478211e-002 -1.77653749e-002 -1.94870420e-002 4.65168729e-002
      1.16468370e-001</_>
    <_>
      -1.22768378e+000 1.31466579e+000 9.40658867e-001 -1.58831716e-001
      -2.79341787e-001 7.46781886e-001 -4.95982822e-003 -2.56698281e-002
      -1.47260383e-001 -1.29057974e-001 5.70364714e-001 -4.70812351e-001</_>
    <_>
      -1.67360044e+000 1.78772283e+000 9.87544417e-001 1.05261326e+000
      -2.23515081e+000 1.20745018e-001 -2.36064829e-002 -2.02749390e-002
      -5.69199383e-001 -5.52589595e-001 2.28147364e+000 1.13981225e-001</_>
    <_>
      -1.09980893e+000 1.76493013e+000 9.76625562e-001 -3.92453820e-001
      7.83756301e-002 -1.04322827e+000 -1.21551290e-001 -2.65212264e-002
      -3.36963487e+000 -3.06813669e+000 8.90125465e+000 1.47190183e-001</_>
    <_>
      -4.64997500e-001 -2.69888699e-001 1.35201707e-001 1.24592595e-001
      -2.43503004e-002 -3.93187255e-001 -1.04322150e-001 7.71050621e-003
      -2.24458194e+000 -3.04984665e+000 1.13997164e+001 1.58568323e-001</_>
    <_>
      -3.38637620e-001 8.44770133e-001 2.93344796e-001 3.54920149e-001
      -2.25986630e-001 1.84831470e-001 -6.09782117e-004 2.73223105e-003
      -6.92521967e-003 -2.20652414e-003 8.44575986e-002 -9.44408104e-002</_>
    <_>
      -9.55709636e-001 2.64138794e+000 1.08809233e+000 -6.09951198e-001
      1.64322257e+000 1.24152803e+000 -3.80952610e-003 -1.67103224e-002
      -1.40362158e-001 -1.48187190e-001 5.34561753e-001 -1.99953765e-001</_>
    <_>
      -1.31259680e-001 3.32971960e-001 9.19063091e-002 -5.28721809e-002
      -5.68428151e-002 6.01007156e-002 6.01555294e-005 4.38532196e-002
      -1.67803909e-003 -2.24757893e-003 5.13907056e-003 -2.75163531e-001</_>
    <_>
      -4.97650355e-004 1.14047667e-003 1.52550463e-004 5.00829890e-004
      -4.20314391e-005 -2.11179096e-004 -6.32647016e-007 4.21546632e-003
      -4.03548474e-005 -3.88158369e-005 5.25374307e-005 -2.46085450e-002</_>
    <_>
      -1.14447379e-003 7.83828204e-004 2.99879912e-006 1.61283271e-004
      2.82132474e-004 -1.27358826e-005 -1.48771903e-007 8.61175731e-003
      -2.94404217e-005 -3.18249113e-005 4.17521624e-005 -2.06151325e-002</_>
    <_>
      -3.13250697e-004 1.18787005e-003 2.91512144e-004 6.40528306e-005
      -3.78873810e-005 2.12176194e-004 5.08226563e-008 7.15167820e-003
      -1.39688691e-005 -1.56092683e-005 -2.09459103e-007
      -2.33524367e-002</_>
    <_>
      -3.15853022e-003 3.92947160e-003 4.89635509e-004 -1.04175255e-004
      -9.01738531e-004 9.33929405e-005 1.27776400e-006 1.97210768e-003
      -9.82306810e-005 -1.01212696e-004 6.79610503e-006 -4.52152863e-002</_>
    <_>
      -2.98596523e-003 2.34922254e-003 6.76166557e-004 -1.06428179e-003
      -8.85848363e-004 1.67134800e-003 3.60967562e-007 -2.03795522e-003
      -6.23062951e-005 -7.05718776e-005 1.29619220e-005 -3.40696424e-002</_>
    <_>
      -9.35837044e-004 5.61735593e-004 -2.62553105e-004 4.58681970e-005
      3.59758997e-005 -1.94447624e-004 1.20752773e-007 2.10258248e-003
      -1.40145885e-005 -1.70304556e-005 2.35163207e-005 -2.32260562e-002</_>
    <_>
      7.21284378e-005 6.04779168e-004 -1.31401964e-006 3.46509856e-004
      -1.27139298e-004 -3.00743064e-004 4.40532801e-007 3.62061919e-003
      -1.24393891e-005 -8.49071239e-006 -1.39045114e-005
      -2.46448610e-002</_>
    <_>
      -3.95350624e-004 1.73153088e-003 2.07708072e-004 7.22438621e-004
      2.51916441e-004 -1.86605088e-004 8.28859527e-007 -1.90579798e-003
      -2.56424282e-005 -1.77495131e-005 -3.96184369e-005
      -3.15053388e-002</_>
    <_>
      3.26488866e-004 1.22513052e-003 -3.28145426e-004 8.11382663e-004
      7.08814468e-006 -7.83927244e-005 8.35608375e-007 3.07439966e-003
      -1.11741765e-005 -2.28184945e-005 -4.42388846e-005
      -3.12475488e-002</_>
    <_>
      -1.64405719e-005 -3.02221433e-005 7.40747964e-006 1.61617772e-005
      -1.56036676e-005 1.41447426e-005 4.98046537e-009 -3.57369753e-003
      1.96596588e-007 1.65443510e-007 -1.10725398e-006 1.23062753e-004</_>
    <_>
      8.06508027e-003 5.71172126e-003 -3.57284117e-003 5.43622300e-003
      -1.57569945e-002 -3.92417843e-003 -9.19813283e-006
      -5.43879718e-002 -6.21538376e-004 -4.45654208e-004 1.32774829e-003
      8.63893107e-002</_>
    <_>
      -8.26397419e-001 2.46839225e-001 7.42986472e-003 -1.37311235e-001
      -1.51340425e-001 5.86139178e-003 -1.16703392e-003 -2.93706581e-002
      -7.62996301e-002 -6.03882894e-002 1.61661744e-001 2.39234090e-001</_>
    <_>
      -2.32132745e+000 1.46778929e+000 3.79668236e-001 9.08231556e-001
      1.10151947e+000 -6.60007775e-001 -2.58261524e-003 -6.73762858e-002
      -2.19624117e-001 -1.86385989e-001 3.83167952e-001 7.11068749e-001</_>
    <_>
      -3.46353976e-004 -1.70770171e-003 7.47220009e-004 1.13455893e-003
      -2.11655570e-004 7.07317260e-004 -4.16728227e-007 -2.07399316e-002
      -4.08466622e-005 -3.89379748e-005 6.37358098e-005 -4.71491308e-004</_>
    <_>
      -3.09263849e+000 5.40986478e-001 6.79959118e-001 1.06812131e+000
      -1.80697203e+000 -2.57584143e+000 -7.98658188e-003
      -9.43051800e-002 -1.18220341e+000 -1.01194513e+000 1.84528637e+000
      2.51384620e-002</_>
    <_>
      1.04292274e-004 -5.84041292e-004 2.19625814e-004 1.92040272e-004
      -2.53239996e-004 5.86157585e-005 -1.23263703e-007 -1.15680825e-002
      -1.01607475e-005 -8.45547584e-006 1.98531397e-005 -6.13041193e-005</_>
    <_>
      -1.84518188e-001 -2.93176845e-002 -2.31751218e-003 6.42710626e-002
      -2.71772981e-001 -1.17366321e-001 -2.50737313e-002
      -7.48374406e-003 -6.46060228e+000 -5.92461729e+000 7.92027330e+000
      3.86698246e-002</_>
    <_>
      8.66373070e-004 -7.70973274e-003 1.18225452e-003 4.76457877e-003
      -4.03276132e-003 1.98595156e-003 -7.68437758e-008 -3.92185189e-002
      -8.99349689e-005 -5.99494451e-005 5.26072217e-005 -5.33098308e-003</_>
    <_>
      -5.40077567e-001 5.76475039e-002 -3.15782279e-002 9.16963294e-002
      -1.87781453e-001 -2.53490265e-002 -2.20385205e-004
      -1.96009986e-002 -2.24407502e-002 -2.06909887e-002 3.92500162e-002
      4.75448705e-002</_>
    <_>
      -1.68133285e-002 -3.97152221e-003 1.07016205e-003 -2.19606911e-003
      -1.76118675e-003 1.05381303e-003 3.99407190e-006 1.42710982e-002
      -5.55733423e-005 -2.36675587e-005 -3.44613392e-004
      -5.45232594e-002</_>
    <_>
      -1.06028165e-003 3.49182449e-003 1.18539156e-003 -2.00328446e-004
      2.25196854e-004 1.88197836e-003 1.46961872e-006 -2.34426488e-003
      -8.59973625e-007 6.86424073e-006 -1.42857811e-004 -3.89991440e-002</_>
    <_>
      -1.88905324e-004 1.13787457e-004 2.09231468e-004 -7.93447543e-005
      -5.53143145e-005 2.20641567e-004 -2.06001314e-008 -7.81257637e-003
      -3.81491964e-006 -4.23841084e-006 4.75625620e-006 -3.32911196e-003</_>
    <_>
      -6.28922228e-003 -1.69789954e-003 -3.40061088e-004
      -2.20122514e-003 -4.05800674e-004 -7.63672404e-004 1.76144908e-007
      -1.99850416e-003 -3.61307284e-005 -3.58594843e-005 3.06477123e-005
      -3.33515406e-002</_>
    <_>
      -2.37674941e-003 9.02982356e-005 5.04607218e-004 3.87749751e-005
      -7.78643123e-004 -9.18435690e-004 -2.96408643e-007
      -1.36937024e-002 -2.61560708e-005 -2.64268256e-005 4.82679752e-005
      -1.42876431e-002</_>
    <_>
      5.07172585e-001 1.33661366e+000 3.67044210e-001 -8.53042781e-001
      9.42013085e-001 9.90896896e-002 -4.33813222e-002 2.08898168e-002
      6.57541692e-001 1.41408432e+000 7.59846449e+000 -7.52322674e-002</_>
    <_>
      -1.02269419e-001 6.00000560e-001 -8.99536014e-002 -1.39259189e-001
      2.50778913e-001 -4.16418388e-002 5.71782235e-003 7.18529709e-003
      5.09610116e-001 5.36499441e-001 1.00635493e+000 7.85936974e-003</_>
    <_>
      1.41312972e-001 7.85102136e-003 -2.79796608e-002 2.70437021e-002
      2.34055729e-003 2.58495677e-002 -5.36238476e-005 1.49991345e-002
      7.24076014e-003 7.02281017e-003 1.05480449e-002 -3.21425676e-001</_>
    <_>
      -1.13563750e-004 7.38693692e-004 -1.24438811e-004 2.71545316e-004
      -8.76127815e-005 -2.80062697e-004 -1.94937547e-006 3.42875812e-003
      -3.02724002e-005 -1.55210764e-005 2.65881914e-004 3.46012078e-002</_>
    <_>
      5.74155943e-004 -3.74739786e-004 1.51838211e-003 -6.61291473e-004
      2.46354553e-004 -1.36584614e-003 -2.66405755e-006 1.28072116e-003
      -1.44620193e-004 -1.44555743e-004 3.70770314e-004 4.59251069e-002</_>
    <_>
      3.41677107e-003 -1.05223131e-004 3.91740614e-004 1.33678943e-004
      -5.15692867e-003 -5.16060565e-004 -3.31988076e-006 1.27220282e-003
      -1.94793451e-004 -1.75347945e-004 4.68932849e-004 4.69961055e-002</_>
    <_>
      -1.97726054e-004 2.02507339e-003 1.15256803e-003 -2.93569150e-003
      -3.35837738e-003 -3.47142835e-004 -2.83962049e-006 9.01186606e-004
      -1.95438406e-004 -2.01792151e-004 4.51358588e-004 4.28793579e-002</_>
    <_>
      1.93304894e-003 2.64929887e-003 -2.05688807e-003 -3.13031557e-003
      -3.37597704e-003 -3.63651052e-004 -9.38213816e-006 5.23618143e-003
      -2.96831597e-004 -2.86630209e-004 9.88145126e-004 5.38324267e-002</_>
    <_>
      3.31626111e-003 3.41106020e-003 3.53696011e-003 -4.54725698e-003
      -3.88488709e-003 -5.24698757e-004 -6.42112718e-006 1.32740149e-003
      -2.82001944e-004 -2.89472606e-004 7.63072341e-004 5.09098433e-002</_>
    <_>
      7.06692867e-004 3.73845425e-004 8.26058793e-004 -1.29583769e-003
      1.35356531e-004 -1.74475688e-004 -3.13222881e-006 4.66390094e-003
      -1.51873144e-004 -1.57124741e-004 4.42505319e-004 4.69685122e-002</_>
    <_>
      1.18404545e-003 -1.08027586e-003 9.63558792e-004 -1.49744586e-003
      3.97748896e-004 -6.27414440e-004 -1.84389864e-006 3.53184598e-003
      -4.84067714e-005 -3.40372026e-005 2.51031102e-004 3.55251096e-002</_>
    <_>
      -1.65271980e-004 3.36642232e-004 4.20951430e-004 -4.21613193e-004
      8.35427025e-004 7.67784717e-004 -4.53614393e-006 4.71766572e-003
      -7.12268884e-005 -6.80563680e-005 5.42790629e-004 4.75253724e-002</_>
    <_>
      -2.05711276e-005 -4.64226352e-004 -1.41811930e-003
      -1.01060478e-003 -4.05392115e-004 -3.00591718e-003
      -3.38143559e-006 3.96520272e-003 -1.98676760e-004 -2.03545686e-004
      5.33541024e-004 5.13773896e-002</_>
    <_>
      -1.16485136e-003 2.00416171e-003 4.57601302e-004 -7.06712133e-004
      2.07357924e-003 -1.07011083e-003 -7.19513173e-006 7.16620171e-003
      -2.93206220e-004 -3.23443150e-004 1.17954204e-003 7.24492073e-002</_>
    <_>
      2.49854237e-001 1.04397821e+000 1.79030716e+000 2.65972924e+000
      -3.18103075e-001 -1.32473135e+000 -3.91777232e-002 7.35593168e-003
      3.01193774e-001 1.15452977e-002 3.45998001e+000 -3.18446569e-002</_>
    <_>
      -6.71688378e-001 2.17021656e+000 2.61998981e-001 -2.39544883e-001
      1.03081298e+000 -7.47024655e-001 -2.29437146e-002 2.90957536e-003
      -1.13167547e-001 -1.22412995e-001 2.65207601e+000 3.71384551e-003</_>
    <_>
      2.64037605e-002 3.31410587e-001 1.34403920e-002 -6.79489896e-002
      1.61800265e-001 9.40135773e-003 3.34046292e-003 -1.21713697e-003
      1.74004054e+000 1.95306158e+000 1.38594186e+000 -1.87246669e-002</_>
    <_>
      -1.51208615e+000 4.15848112e+000 2.27149367e-001 -7.82182455e-001
      1.08812678e+000 -6.20099247e-001 -2.53147036e-002 -4.68995282e-003
      -2.79605836e-001 4.18439358e-002 3.99929309e+000 6.10209517e-002</_>
    <_>
      -1.14515376e+000 2.01648259e+000 9.93643850e-002 -4.14640218e-001
      -3.57722998e-001 5.50642371e-001 5.36985055e-004 -1.05402675e-002
      -1.10656723e-001 -1.02837197e-001 3.24136913e-001 -1.43985227e-001</_>
    <_>
      -6.70817673e-001 2.22120896e-001 -3.17824841e-001 6.47723615e-001
      -1.02260806e-001 -7.64477134e-001 -7.95869681e-004 3.31119797e-003
      6.24711551e-002 6.01353347e-002 1.52779803e-001 -3.84093165e-001</_>
    <_>
      -6.10263385e-002 -2.09068611e-001 2.14023709e+000 2.74417543e+000
      -3.59543157e+000 -2.08339810e+000 4.33537178e-003 1.81161370e-002
      2.23539186e+000 2.21978378e+000 3.78564525e+000 -4.85323578e-001</_>
    <_>
      1.33027257e-002 2.19116695e-002 -6.36697235e-003 -3.97999845e-002
      -2.14885157e-002 -6.51373565e-002 3.25555205e-002 1.98331405e-003
      5.93812048e-001 8.69630516e-001 1.58812493e-001 -1.02446331e-002</_>
    <_>
      1.24035478e+000 3.76220912e-001 5.63878596e-001 1.39631367e+000
      -8.58166516e-002 -3.78665477e-001 -3.28845046e-002
      -3.62712936e-003 3.37274837e+000 2.61237550e+000 3.40716147e+000
      -7.38929724e-003</_>
    <_>
      4.58344548e-005 -1.50516722e-003 -7.14211550e-004 -4.07315092e-004
      -1.39524159e-003 2.78674852e-004 -1.13506552e-007 -1.24111690e-003
      -3.85535168e-005 -3.98240809e-005 3.94650378e-005 2.89566852e-002</_>
    <_>
      8.00884445e-004 -3.34888871e-004 -1.83562143e-003 3.70524765e-004
      -3.38543067e-003 -2.99624261e-003 -1.55021871e-006 1.10709935e-003
      -1.70485480e-004 -1.55038419e-004 2.95104255e-004 3.95080075e-002</_>
    <_>
      -6.12922758e-003 -2.93279462e-003 -5.50779188e-003 1.33578514e-003
      -8.83076515e-004 4.98918118e-004 -3.01044292e-006 4.58913250e-003
      -2.87591945e-004 -2.89148011e-004 5.52510086e-004 4.71675172e-002</_>
    <_>
      -1.70706771e-003 -2.48573814e-003 1.56836736e-003 -1.38637016e-003
      -8.24114541e-005 -3.49748007e-004 -1.68286579e-006 1.14605599e-003
      -1.43998986e-004 -1.48631632e-004 2.70724995e-004 3.98556888e-002</_>
    <_>
      3.01289232e-003 -6.54039159e-003 1.42595207e-003 -4.48295468e-004
      -4.75188950e-004 3.66980268e-004 -2.36943288e-006 -3.08843097e-004
      -2.83515023e-004 -2.45360949e-004 4.21920500e-004 4.40916009e-002</_>
    <_>
      1.95475179e-003 6.55391079e-004 2.22717019e-004 -2.31332774e-003
      -6.83558919e-003 -2.19919579e-003 -3.38321138e-006 1.23792794e-003
      -2.73461745e-004 -2.49916950e-004 5.88968513e-004 4.59287316e-002</_>
    <_>
      3.93891614e-003 -4.95667243e-003 2.21385201e-003 2.16944842e-004
      -3.11235851e-003 -2.57652311e-004 -2.08792972e-006
      -5.46242576e-004 -2.14306070e-004 -2.15289299e-004 4.32708970e-004
      4.24087644e-002</_>
    <_>
      7.75810506e-004 -7.63322634e-004 -3.82693554e-003 3.78530967e-004
      -1.69931131e-003 -7.06030754e-004 -1.83732084e-006 1.38241064e-003
      -1.91729414e-004 -1.74356930e-004 3.37687234e-004 4.18253131e-002</_>
    <_>
      7.61567662e-003 -1.84170902e-003 4.03682498e-004 -8.31092056e-003
      1.03622158e-004 -4.90055420e-003 -1.95608823e-006 4.51529602e-004
      -2.81326676e-004 -2.82259047e-004 4.10980778e-004 5.15099242e-002</_>
    <_>
      1.29126990e-003 3.45314364e-003 -6.39634673e-003 -1.01352111e-003
      -5.71657717e-003 -3.37563572e-003 -2.76728997e-006 1.31249113e-003
      -3.28251946e-004 -3.21262865e-004 5.44511888e-004 4.76496108e-002</_>
    <_>
      -9.44210827e-001 2.62480617e-001 -9.21860859e-002 5.57464421e-001
      -1.20158851e+000 6.74647033e-001 5.84975146e-002 8.56671110e-003
      -1.49786913e+000 -9.76905704e-001 -2.08765531e+000 8.00728425e-002</_>
    <_>
      -6.16199613e-001 1.77228665e+000 -4.57718939e-001 -2.56398439e-001
      5.64530969e-001 4.93334174e-001 3.88380303e-003 -6.22027786e-003
      2.75610685e-002 5.40704243e-002 9.85169336e-002 -1.02536201e-001</_>
    <_>
      -2.86616325e-001 -3.04834731e-002 1.79364890e-001 -1.10677816e-001
      -1.42032936e-001 1.36539236e-001 1.04244471e-004 -2.41944217e-003
      -8.66928510e-003 -8.06395989e-003 5.31632546e-003 -7.80566260e-002</_>
    <_>
      -3.14108276e+000 9.14745569e-001 1.53699744e+000 -3.39236164e+000
      2.06490651e-001 -2.56825638e+000 4.68936265e-002 -2.83485800e-002
      -1.04955983e+000 -6.74410343e-001 -1.62916815e+000
      -7.98281550e-001</_>
    <_>
      -1.21439791e+000 5.97301543e-001 4.77788150e-001 -3.81683826e-001
      2.22950116e-001 -8.64531755e-001 2.93987105e-003 -1.16112540e-002
      -1.29964858e-001 -8.65874439e-002 -4.35241386e-002
      -4.39093076e-002</_>
    <_>
      -1.82060018e-001 -2.86683822e+000 -1.42301118e+000
      -2.40488720e+000 -1.35978043e+000 3.80591536e+000 -7.19873607e-002
      -7.48058930e-002 -7.76947856e-001 4.06163275e-001 4.11012077e+000
      4.12046872e-002</_>
    <_>
      2.53612304e+000 -7.16856360e-001 -1.20938718e+000 6.94246578e+000
      1.06251776e+000 3.91622424e-001 1.92109365e-002 4.00861837e-002
      1.93599355e+000 2.02218866e+000 -1.18128145e+000 2.35367641e-001</_>
    <_>
      -7.20776443e-004 -3.10342788e-004 3.59096273e-004 6.70080015e-004
      -1.67029502e-003 -7.81261479e-004 -4.83172187e-007
      -1.57089494e-002 1.25478937e-005 3.27606795e-005 6.57916535e-005
      3.24102752e-002</_>
    <_>
      7.40365285e-005 -7.96449429e-004 -4.14855785e-005 -1.03803060e-004
      1.21344623e-004 -2.88185111e-004 -3.00325638e-007 -9.61039215e-003
      2.11845145e-005 1.98449288e-005 7.76841352e-006 1.97557807e-002</_>
    <_>
      1.01589787e-004 -1.54118534e-004 -4.89810518e-005 -1.06438092e-004
      -1.93900589e-004 3.23904965e-006 4.28552411e-008 -9.91557725e-003
      6.85070290e-006 5.52505207e-006 -5.22172513e-006 8.29938427e-003</_>
    <_>
      1.29815860e-004 -2.06251971e-005 1.11709105e-005 -2.45766569e-004
      -3.33946926e-004 -3.56685669e-005 4.67327474e-008 -1.06126936e-002
      7.75851277e-006 7.15998431e-006 -7.15538999e-006 8.87156371e-003</_>
    <_>
      -1.08669489e-003 -9.14059987e-004 1.51763335e-004 -8.91586969e-005
      -9.74791255e-005 1.14760442e-004 -9.33043623e-007 -1.01767434e-002
      6.67372933e-006 1.09331468e-005 5.85081252e-005 2.09537093e-002</_>
    <_>
      -2.17190082e-003 -1.34333293e-003 1.79137278e-004 1.62946963e-004
      -9.46884393e-005 -3.39277874e-004 -1.22488393e-006
      -1.19869113e-002 6.68775374e-006 8.35528135e-006 9.51551629e-005
      2.47202106e-002</_>
    <_>
      -6.60878650e-005 -5.11530845e-004 -1.35927563e-004
      -1.01424626e-003 -4.18993586e-004 -2.51193269e-004 4.73630983e-008
      -1.01518892e-002 2.27113160e-005 2.68251224e-005 -1.69853301e-005
      2.08518840e-002</_>
    <_>
      6.74287265e-004 -1.01891544e-003 -2.69892305e-004 -9.02441505e-004
      2.99509848e-004 -4.26239450e-004 2.83636950e-007 -9.31709632e-003
      2.28161880e-005 1.92239677e-005 -3.34973993e-005 1.90965626e-002</_>
    <_>
      -4.95533168e-004 -7.56313559e-004 -3.69206886e-004 1.18276058e-003
      6.78535900e-004 -6.53241528e-004 -2.53860776e-006 -1.71365812e-002
      5.83526617e-006 1.17340878e-005 1.92645151e-004 3.53077054e-002</_>
    <_>
      2.32542720e-006 -2.63043476e-004 -2.89977354e-004 -1.90909836e-004
      1.47259387e-004 -8.14819577e-005 2.05928544e-007 -8.75808857e-003
      2.23424595e-005 2.59942008e-005 -2.63097954e-005 1.80073101e-002</_>
    <_>
      2.06415239e-003 -2.83526228e-004 6.38945377e-004 4.48668329e-003
      -1.90597062e-003 -2.73299566e-003 -6.92709909e-006
      -2.36094836e-003 4.50435728e-005 7.88246398e-005 7.25011865e-004
      6.83538914e-002</_>
    <_>
      -1.14203322e+000 3.19038820e+000 3.25641656e+000 1.56573081e+000
      4.00923997e-001 -1.86693871e+000 -5.89876994e-002 -1.99255012e-002
      -7.67543554e-001 -7.59721398e-001 3.38173413e+000 7.85089433e-002</_>
    <_>
      -1.60248291e+000 1.77379286e+000 3.69199753e+000 -2.15149212e+000
      9.71338749e-001 -2.55696964e+000 -7.07620233e-002 -1.16015198e-002
      -8.88184369e-001 -6.02976084e-001 4.65841913e+000 2.44954899e-002</_>
    <_>
      5.98124385e-001 -2.27936602e+000 -1.51153907e-001 -2.43913844e-001
      -1.24580681e+000 4.60251153e-001 -7.96933565e-003 1.10536432e-002
      1.96694934e+000 8.97058845e-001 -3.30387330e+000 -1.93746984e-002</_>
    <_>
      -4.23969323e-004 -9.48515226e-005 3.20618786e-003 -2.50106025e-003
      -1.39166962e-003 2.41041696e-003 4.93078096e-006 -6.22500330e-002
      4.49089566e-005 7.02991456e-005 -3.42907180e-004 6.24941476e-002</_>
    <_>
      -2.29462802e-001 2.77234375e-001 9.25334245e-002 -6.56439006e-001
      -5.02245843e-001 -9.13091411e-004 3.15281184e-004 -5.69162130e-001
      -1.51337208e-002 -1.65047683e-002 -1.48606822e-002 4.19779748e-001</_>
    <_>
      -1.15896416e+000 -5.18340349e+000 -3.00142503e+000 1.15535426e+000
      -6.55915976e+000 -1.88158499e-003 2.14496274e-002 -1.09143719e-001
      1.22069991e+000 2.10794640e+000 1.31549925e-001 5.73916174e-002</_>
    <_>
      -4.61522251e-001 -1.69696093e+000 2.97474313e+000 1.94817531e+000
      -2.78137827e+000 7.81855822e-001 5.55519946e-002 3.41384485e-003
      2.53067422e+000 1.83057082e+000 -4.12074804e+000 9.26047340e-002</_>
    <_>
      -3.27978402e-001 -4.15216327e-001 1.12693034e-001 8.00659880e-002
      -4.71058488e-001 -6.03769958e-001 2.92756857e-004 -1.73321422e-002
      1.32315010e-002 2.11464670e-002 -2.33852826e-002 5.98603748e-002</_>
    <_>
      9.15606081e-001 1.29502863e-001 -6.42314851e-002 2.79899907e+000
      9.83018130e-002 -1.95175648e+000 -1.59482881e-002 -1.14318477e-002
      2.11203426e-001 6.63245143e-003 1.80684721e+000 1.51395634e-001</_>
    <_>
      2.66772099e-006 -2.91178003e-005 -3.46575712e-006 -4.65540734e-006
      -8.65937272e-006 1.05160407e-005 6.10948758e-009 -2.58395518e-003
      5.37683434e-007 4.92970685e-007 -1.31086483e-006 4.59172443e-004</_>
    <_>
      1.68183789e-004 -9.29421512e-005 -9.82451238e-005 -9.99962213e-005
      -1.03801307e-004 4.03882450e-006 -2.44934100e-008 -7.00310990e-003
      3.66913071e-007 1.21487551e-006 1.31624745e-006 4.52236785e-003</_>
    <_>
      -9.77501739e-004 -1.08796859e-003 -1.11213194e-005 1.75772875e-004
      -1.95540953e-004 -8.29787459e-005 -1.45580955e-007
      -1.00030787e-002 -8.79952893e-007 -1.50365372e-006 1.52157581e-005
      1.46577172e-002</_>
    <_>
      -1.12400658e-003 -1.34079880e-003 -8.65829206e-005 3.83146165e-004
      -2.19147318e-004 -6.75135962e-005 1.43284851e-007 -9.34983790e-003
      8.27361691e-006 1.44128908e-005 -2.29156340e-005 1.92752779e-002</_>
    <_>
      3.70694033e-005 -2.44098585e-004 2.66909101e-005 2.80228833e-005
      -2.20603433e-005 8.62689994e-005 -1.93688532e-008 -6.04701787e-003
      -1.31072500e-006 -1.29700254e-006 1.79591700e-006 2.36200425e-003</_>
    <_>
      -2.02339771e-003 -1.91089476e-003 3.44531087e-004 1.16291274e-004
      -7.15322676e-004 -3.33551201e-004 -1.86543005e-007
      -1.13832941e-002 -5.65219852e-006 9.47302169e-007 2.96251310e-005
      2.34771390e-002</_>
    <_>
      6.74910189e-005 -1.71162494e-004 1.52285265e-005 -1.40524935e-005
      -5.29655044e-005 2.36114138e-005 -1.15788463e-008 -5.00877388e-003
      -3.57153738e-007 -1.19069171e-007 1.21483515e-006 1.55901001e-003</_>
    <_>
      -1.26275455e-003 -1.39118207e-003 -1.40089338e-004 2.62484245e-004
      -2.55392370e-004 -1.12969261e-004 1.31769838e-007 -9.22508258e-003
      6.66457709e-006 7.97305256e-006 -4.68127655e-006 1.90188531e-002</_>
    <_>
      1.27811567e-004 -3.77806049e-004 -2.18624045e-005 5.31783917e-005
      -1.42914971e-004 9.38454468e-005 2.63309818e-008 -6.94784289e-003
      5.16693149e-007 1.32684238e-006 -4.21267805e-006 3.14042252e-003</_>
    <_>
      -5.67371841e-004 -1.05050870e-003 -3.14580044e-004 4.47109865e-004
      -1.09223380e-004 4.38210322e-004 1.34743958e-008 -1.07268468e-002
      5.53131017e-008 1.04833350e-006 3.03527963e-006 1.11403745e-002</_>
    <_>
      -1.61933407e-001 -5.16288243e-002 4.47069993e-003 -1.88797507e-002
      -1.60149783e-002 -1.15213962e-002 3.29057038e-005 -9.89738181e-002
      8.13153340e-004 3.99633747e-004 -2.85083218e-003 1.11701176e-001</_>
    <_>
      -7.07124243e-004 -2.51320947e-004 5.09329402e-005 -5.58955129e-004
      8.19280394e-005 1.37469528e-004 8.05890537e-008 -2.04117056e-002
      -1.00883369e-006 2.84948260e-006 -1.54383615e-005 1.93191378e-003</_>
    <_>
      -2.25877848e-005 -6.94022174e-006 4.35124421e-005 -7.29081294e-005
      -1.92569241e-005 8.33743325e-005 5.09781506e-009 -4.89064911e-003
      2.37443317e-007 -5.33286304e-010 -9.09606911e-007 2.63250608e-004</_>
    <_>
      -3.05248960e-003 -2.15437077e-003 -1.79584938e-004
      -1.73331238e-003 -2.92238838e-004 -3.62352323e-004
      -2.03443932e-007 -2.11172141e-002 -5.32578633e-006
      -4.09420318e-006 1.79752424e-005 1.32651301e-002</_>
    <_>
      -2.46549316e-004 -9.42385304e-005 1.04910450e-005 -1.06042506e-004
      -1.14438044e-004 -1.08276792e-004 -1.41249892e-008
      -7.48051703e-003 -1.65251890e-007 -4.37678466e-007 9.93291792e-007
      1.22168043e-003</_>
    <_>
      1.55032217e-003 -9.12454328e-004 -8.78371138e-005 5.93127334e-004
      4.46930557e-004 -1.14593480e-003 2.89520972e-006 3.73042710e-002
      7.22614568e-005 6.22995576e-005 -1.88018923e-004 6.99428609e-003</_>
    <_>
      -1.95520604e-003 -4.41812590e-004 -1.31722729e-004
      -5.88417934e-005 -4.47009690e-004 -3.67860019e-004
      -1.34605955e-006 -1.40332093e-004 1.88807699e-005 3.26723384e-005
      1.12670190e-004 3.73126306e-002</_>
    <_>
      1.36962393e-003 -2.59395834e-004 6.43964973e-004 -9.93005582e-004
      -1.18774769e-003 -4.97858564e-004 -3.34707750e-007
      -5.26029430e-003 3.62379978e-005 4.06928957e-005 4.21925051e-006
      3.34787294e-002</_>
    <_>
      1.00418320e-003 2.69545591e-004 5.13478990e-005 -6.33315765e-004
      -1.27505721e-003 -4.98039008e-004 -1.06907703e-006
      -4.10835585e-003 1.22121692e-005 2.09480277e-005 7.86270539e-005
      2.61552297e-002</_>
    <_>
      4.57774790e-004 9.64176725e-005 -1.36846167e-004 -4.53813118e-004
      -1.07898412e-003 -6.46281755e-004 -2.20548614e-007
      -4.00088727e-003 1.42786148e-005 9.76140200e-006 2.05196302e-005
      2.54798587e-002</_>
    <_>
      -2.37145158e-003 -1.88200688e-003 -9.98715986e-004
      -4.29775770e-004 -1.75411580e-004 -6.50783710e-004
      -2.80105928e-006 -5.62170986e-003 1.65006786e-005 1.22223610e-005
      2.01037910e-004 3.59659605e-002</_>
    <_>
      -2.35207519e-003 -1.44191051e-003 2.25868454e-004 -8.21421680e-004
      -1.18671969e-005 -3.32396557e-005 -2.03599529e-006
      -2.20633624e-003 1.96758265e-006 -3.03796605e-006 1.54947527e-004
      3.19273658e-002</_>
    <_>
      -4.32257249e-004 -7.15514587e-004 -2.34804145e-004
      -1.93461333e-003 -7.31843873e-004 -5.59664622e-004
      -4.28882828e-007 -3.54963983e-003 2.61613259e-005 2.68415297e-005
      1.67025137e-005 3.13263685e-002</_>
    <_>
      -1.33097300e-003 -1.36640866e-003 -1.34151219e-003
      -7.71986961e-005 1.23846447e-004 -3.79626872e-005 -1.05199763e-006
      -4.72615054e-003 2.12133127e-005 2.41573016e-005 7.67461461e-005
      3.01608816e-002</_>
    <_>
      -1.51447393e-003 -1.11860549e-003 8.01386777e-005 -3.81448452e-004
      6.09797717e-004 -2.07342324e-004 -3.07444861e-006 -2.98333587e-003
      1.35485880e-005 6.33242144e-006 2.41272472e-004 4.41797711e-002</_>
    <_>
      -5.33209881e-004 -6.04589295e-004 -8.90082156e-005
      -8.09337434e-005 -1.57316317e-004 -6.38937519e-004
      -6.06795197e-007 -5.00316033e-003 3.15832185e-005 2.41997841e-005
      5.02591538e-005 3.18396017e-002</_>
    <_>
      -2.68511544e-003 -1.20878441e-003 6.67870700e-005 7.31010106e-004
      6.12555887e-004 -8.06748401e-004 -3.66817358e-006 -1.74612063e-003
      1.84027012e-005 9.61420938e-006 3.71200644e-004 5.49866669e-002</_>
    <_>
      2.20157932e-002 -3.33706811e-002 4.57157463e-001 7.49391437e-001
      1.88385710e-001 -8.26174557e-001 -4.47268510e-004 6.64145174e-003
      -3.43861990e-002 -3.56707834e-002 4.03935239e-002 -2.19731778e-002</_>
    <_>
      -2.76526093e+000 -1.07206237e+000 3.31094599e+000 -1.27341390e+000
      7.58476675e-001 -1.31147593e-001 -3.39220837e-002 3.65834795e-002
      -4.62043256e-001 -4.36048567e-001 2.37140083e+000 1.29292966e-004</_>
    <_>
      4.43458080e-001 -1.01411223e+000 2.14089394e+000 -3.13146323e-001
      2.26054430e-001 -1.07937336e+000 1.85614789e-003 2.08314210e-002
      9.12915692e-002 6.29195422e-002 -2.55564481e-001 -5.45866042e-002</_>
    <_>
      -9.22725081e-001 2.10956120e+000 3.08084679e+000 2.76122189e+000
      -1.90757334e+000 -9.08538401e-001 -2.50970144e-002
      -3.06780972e-002 -2.05282152e-001 -1.79443166e-001 1.56771529e+000
      1.14128523e-001</_>
    <_>
      -1.16735947e+000 3.95804977e+000 3.92831588e+000 -1.52236974e+000
      1.21950436e+000 -2.66992307e+000 4.29898873e-002 -1.33411558e-002
      3.54276955e-001 -1.35581177e-002 -2.99730301e+000 -1.04932245e-002</_>
    <_>
      1.67602211e-001 -1.56607413e+000 -9.97386947e-002 8.90415132e-001
      7.55828738e-001 -1.23395514e+000 6.72563585e-003 2.80177258e-002
      1.38523325e-001 1.56255692e-001 -3.14311594e-001 -8.66567045e-002</_>
    <_>
      1.06075004e-001 -1.32271087e+000 6.16951108e-001 1.10608069e-002
      -3.03592592e-001 -1.69511035e-001 3.49190878e-003 2.90803630e-002
      8.70401040e-002 8.02773237e-002 -2.29331136e-001 -2.59913038e-002</_>
    <_>
      -5.86302221e-001 -8.11596632e-001 -5.13600111e-001 1.39004421e+000
      -1.15542686e+000 -1.41002846e+000 4.79465956e-003 -1.93156265e-002
      1.88043088e-001 1.76580012e-001 -3.87595505e-001 -9.57875792e-003</_>
    <_>
      6.18161380e-001 -2.33428553e-001 3.13669562e-001 4.48219806e-001
      1.70897469e-001 -6.73162103e-001 1.48212184e-005 6.15520403e-004
      -4.60525928e-003 -8.05191509e-003 1.44789340e-002 -4.33081128e-002</_>
    <_>
      1.40243037e-005 -4.82846553e-005 -8.55806411e-006 7.93218896e-006
      -5.94264156e-006 3.16114802e-006 9.27342114e-009 -3.32598877e-003
      9.50082381e-007 7.48866114e-007 -1.80185589e-006 6.68245309e-004</_>
    <_>
      9.73856484e-004 -3.59649712e-004 -5.38960332e-004 3.52960997e-005
      -2.02865966e-004 -3.64802749e-004 -1.21732725e-007
      -5.06581552e-003 3.44211867e-006 5.43969736e-006 1.53342844e-005
      1.64331514e-002</_>
    <_>
      -2.96793971e-003 -3.97323491e-003 4.30692489e-005 9.20425809e-004
      -1.03711837e-003 2.20570510e-005 -4.64853485e-007 -4.20774706e-003
      -1.42384915e-005 -1.74481647e-005 6.73524773e-005 2.70055998e-002</_>
    <_>
      -2.30361172e-003 -2.25130050e-003 -6.01488980e-004 3.71459319e-004
      -4.28282365e-004 1.06619609e-005 -1.65307981e-007 -2.27620709e-003
      9.61452042e-006 9.36685410e-006 -1.85307681e-006 2.87185367e-002</_>
    <_>
      3.08531424e-004 -1.03794946e-003 7.07485233e-005 3.66215681e-004
      3.93960072e-005 1.42895122e-004 -9.74997150e-008 -1.03023499e-002
      -4.79589880e-006 -6.72094575e-006 1.37746292e-005 8.54682643e-003</_>
    <_>
      -3.67171993e-003 -3.10500525e-003 -2.68605771e-004
      -1.75616966e-004 -9.69714660e-004 -7.46073027e-004
      -1.13676526e-006 -1.83087238e-003 -2.05709202e-005
      -2.19303329e-005 1.07894361e-004 3.06905769e-002</_>
    <_>
      2.85454793e-004 -5.37713582e-004 2.71774679e-005 7.43955025e-005
      -1.02799808e-004 -3.43817519e-005 -4.36408278e-008
      -8.31905007e-003 -7.37942457e-007 -9.42348038e-007 6.77464959e-006
      4.17452818e-003</_>
    <_>
      -3.31776589e-003 -3.11193755e-003 -5.81070723e-004 4.10888635e-004
      -1.02726824e-003 -6.72669150e-004 -2.15771095e-007
      -4.64456389e-003 -1.11074833e-005 -5.04006493e-006 3.09382849e-005
      2.98176054e-002</_>
    <_>
      9.47035092e-004 -2.01952225e-003 -1.92757521e-004 7.13361253e-004
      -5.35651285e-004 1.11871450e-004 1.15982147e-007 -1.03246942e-002
      4.17992169e-006 5.08892936e-006 -1.20518571e-005 1.41747901e-002</_>
    <_>
      -1.74701679e-003 -2.81580584e-003 -1.06588739e-003 1.54242001e-003
      -3.32448282e-004 7.95611006e-004 -4.06646961e-007 -4.01845295e-003
      -1.50432761e-005 -1.45869562e-005 5.76037455e-005 2.56266929e-002</_>
    <_>
      -6.58210397e-001 -3.80866468e-001 -4.96720552e-001
      -2.54136980e-001 -1.20031905e+000 4.62510139e-002 1.11326540e-003
      7.01661920e-003 -1.73228141e-002 -2.93228570e-002 2.01443527e-002
      8.91285483e-003</_>
    <_>
      -7.15206087e-001 -5.58232814e-002 -2.55998392e-002
      -8.52316171e-002 1.11771166e+000 -2.76930898e-001 5.41423156e-004
      -1.63111035e-002 3.58309224e-002 3.78382690e-002 -7.71739036e-002
      7.97838941e-002</_>
    <_>
      -7.94810421e-006 -1.85496156e-005 1.13604576e-004 -1.20839351e-004
      -4.44172929e-006 1.60499592e-004 9.47034540e-009 -8.49488564e-003
      1.03841694e-006 -4.71772523e-007 -2.98513925e-007 1.70672414e-004</_>
    <_>
      -3.20073254e-002 -6.60202503e-002 -4.26847488e-002
      -1.89011842e-002 3.35222743e-002 -1.02301814e-001 -1.01323640e-005
      -2.29142252e-002 6.82199083e-004 5.65487659e-004 2.14549620e-003
      1.42126352e-001</_>
    <_>
      -1.64121378e-003 -7.62922107e-004 -2.75991933e-005
      -2.27003125e-004 -5.93000208e-004 -1.48938305e-003
      -1.55304605e-007 -2.08199117e-002 7.65298239e-007 -6.70836744e-006
      2.42535807e-005 5.99935511e-003</_>
    <_>
      -7.72814150e-004 -1.10283554e-005 1.88984515e-004 -4.98787733e-004
      -6.18260063e-004 2.76820847e-005 -5.71696091e-007 -7.14513054e-003
      -9.42300812e-006 -4.45821570e-006 4.05101528e-005 2.12446861e-002</_>
    <_>
      1.48196399e-004 -1.72035696e-004 5.33918428e-005 -4.13596223e-004
      -3.47956229e-004 -3.10144096e-005 -1.07983873e-007
      -8.95249099e-003 2.49086088e-006 1.76652861e-006 -1.59273736e-006
      1.31400954e-002</_>
    <_>
      -4.61440140e-005 -4.12470217e-005 -2.92359109e-005
      -8.74101970e-005 -1.26916639e-004 2.76189785e-005 -2.72145684e-008
      -8.27079453e-003 -6.81865444e-008 -4.92558456e-007 4.64763986e-007
      4.53996239e-003</_>
    <_>
      -4.24753343e-005 3.36336016e-005 1.68224676e-006 -1.57762959e-004
      -1.95520654e-004 9.62963259e-006 -2.90179365e-008 -8.73525999e-003
      -1.03754416e-009 -6.84312829e-009 -2.85895879e-007 4.62836958e-003</_>
    <_>
      -7.98475463e-004 -3.50034010e-004 8.61740118e-005 -2.19617941e-004
      -8.41669462e-005 1.57377988e-004 -5.76754076e-007 -1.04302373e-002
      -6.81269557e-006 -4.53437906e-006 3.46304587e-005 1.26828477e-002</_>
    <_>
      -1.30764139e-003 -5.33327810e-004 1.25135703e-004 -2.63882306e-004
      -3.44925757e-005 -1.24406426e-007 -6.66520066e-007
      -7.83462450e-003 -7.94629068e-006 -7.97939720e-006 4.53733483e-005
      1.72977038e-002</_>
    <_>
      -2.87941220e-004 -1.55434085e-004 -5.58162392e-005
      -6.93717331e-004 -2.42721595e-004 -2.38175999e-005
      -8.52413820e-008 -1.01551721e-002 1.43473346e-006 3.59678256e-006
      -3.46283196e-006 1.29493698e-002</_>
    <_>
      1.18852207e-004 -4.35666210e-004 -1.32494664e-004 -6.12950535e-004
      1.19859549e-004 -1.35696042e-004 4.32148326e-008 -9.89652984e-003
      2.83334725e-006 1.18999617e-006 -1.19668557e-005 1.17060514e-002</_>
    <_>
      -5.79574378e-004 -1.23840335e-004 -6.34591561e-005
      -1.40306860e-004 2.87942501e-004 2.28231784e-005 -1.03393950e-006
      -7.63792731e-003 -1.42869130e-005 -1.38189052e-005 6.78531287e-005
      2.25202385e-002</_>
    <_>
      -2.19074456e-004 -3.59646401e-005 -1.43631929e-004
      -1.63370321e-004 1.62081014e-005 1.90118280e-005 -1.59539582e-008
      -1.05181513e-002 2.29792840e-006 4.67798691e-006 -4.97271003e-006
      9.01746098e-003</_>
    <_>
      -2.50615500e-004 1.09262895e-004 2.42227019e-004 -1.66497164e-004
      -1.72178770e-004 -2.02178162e-005 -1.26319912e-006
      -9.53493291e-004 -1.34816801e-005 -1.10792907e-005 1.12192552e-004
      2.88629513e-002</_>
    <_>
      -1.62217128e+000 5.26880741e-001 3.25415373e-001 -6.05634689e-001
      1.54173225e-001 -9.10810590e-001 -8.85630585e-003 -3.24677713e-002
      -2.24898487e-001 -2.74007291e-001 5.15872717e-001 1.18891813e-001</_>
    <_>
      -7.30749667e-002 2.94526704e-002 1.68773402e-002 -1.81669798e-002
      -3.23349088e-002 -7.07488181e-003 -9.30599999e-005
      -1.94453835e-001 -3.75690660e-003 -3.27472645e-003 7.06537347e-003
      1.07948460e-001</_>
    <_>
      -1.66242838e+000 -4.99497116e-001 1.73469996e+000 -2.60482812e+000
      -2.41745329e+000 -1.49501312e+000 -4.56542708e-003
      -3.57680954e-002 -4.32548851e-001 -4.81498331e-001 2.18316272e-001
      1.32730855e-002</_>
    <_>
      -8.52801779e-004 2.33912753e-004 2.81404529e-004 -7.13984307e-004
      -4.39731928e-004 4.74692555e-004 4.89583796e-009 -2.24184431e-002
      -2.94438287e-005 -2.49580480e-005 -9.43888836e-007 1.53902974e-002</_>
    <_>
      -8.14575644e-004 4.21872013e-004 -2.00725299e-005 -4.75034671e-004
      -3.74876981e-004 1.57140763e-004 -6.15721092e-008 -2.65430938e-002
      -2.81569792e-005 -2.73937640e-005 1.97591203e-006 -1.69538567e-003</_>
    <_>
      -5.15085101e-001 -6.05575182e-002 4.50808592e-002 1.27959521e-002
      -1.86686769e-001 -2.01567471e-001 -8.04990123e-005
      -7.18771890e-002 -1.13706309e-002 -9.06902831e-003 1.08958054e-002
      2.42504478e-001</_>
    <_>
      -9.43124294e-001 -1.51508236e+000 1.17769194e+000 -2.75936335e-001
      -5.93955457e-001 -7.72692263e-001 1.02507649e-003 -6.31101057e-002
      1.72480866e-002 -7.03556463e-003 -2.61560112e-001 6.34979978e-002</_>
    <_>
      -2.46001454e-003 -1.00306461e-004 2.39189685e-004 -7.93270476e-004
      -1.28147483e-003 -6.26852270e-004 -3.02861736e-007
      -4.01890725e-002 -4.37362687e-005 -2.50947651e-005 6.15918862e-006
      1.00638522e-002</_>
    <_>
      -5.23034573e-001 -5.05321145e-001 2.21383047e+000 2.26443124e+000
      -1.35136366e+000 -3.76809549e+000 -5.11955619e-002
      -3.34897335e-003 -5.99510372e-001 -1.56660397e-002 3.91032410e+000
      2.03680709e-001</_>
    <_>
      -2.43923500e-006 -2.22098552e-005 -3.78599498e-006
      -3.78441882e-006 -7.26637609e-006 9.50448702e-006 4.59811433e-009
      -2.35660002e-003 3.62674314e-007 3.31612085e-007 -1.13332555e-006
      3.38012265e-004</_>
    <_>
      6.85528939e-005 -4.40130898e-005 -6.75660922e-005 -6.12341391e-005
      -6.49927097e-005 8.92080971e-006 -1.83281639e-008 -6.05399953e-003
      -3.76882383e-007 1.88657921e-007 3.97495228e-007 2.48419796e-003</_>
    <_>
      -6.48021174e-004 -4.53573914e-004 -9.32560215e-006 2.79344167e-005
      -1.37981042e-004 6.07988568e-006 -1.61944513e-007 -9.89775360e-003
      -7.13237478e-006 -6.92510503e-006 1.34585980e-005 7.38578103e-003</_>
    <_>
      -8.16645857e-004 -6.03503024e-004 -3.62732644e-005 4.70695923e-005
      -1.47680199e-004 5.31482947e-005 -2.86263937e-008 -9.80994012e-003
      -4.77832600e-006 -1.40648797e-006 -6.70310783e-006 1.19563164e-002</_>
    <_>
      1.66989253e-006 -1.51028566e-004 1.28984320e-005 1.85419049e-005
      -1.51049571e-005 6.05307650e-005 -1.47489185e-008 -5.07379835e-003
      -1.24499900e-006 -1.20813604e-006 9.07754611e-007 1.34999910e-003</_>
    <_>
      -1.26129389e-003 -8.34639650e-004 2.02571347e-004 -2.45179457e-004
      -3.50844814e-004 -1.73232474e-005 -1.80137064e-007
      -8.37601535e-003 -1.35589398e-005 -1.09243174e-005 1.57726918e-005
      1.63127724e-002</_>
    <_>
      3.14008321e-005 -1.13595837e-004 7.46391106e-006 -9.65672916e-006
      -3.74687261e-005 1.93798278e-005 -9.54350021e-009 -4.28013504e-003
      -5.20237165e-007 -3.34507888e-007 6.62838772e-007 9.53588111e-004</_>
    <_>
      -8.80464679e-004 -6.21551881e-004 -6.61741724e-005
      -7.56154293e-007 -1.69792824e-004 2.42251972e-005 -3.87015611e-008
      -1.00320019e-002 -5.57457133e-006 -4.62065736e-006 3.37338429e-006
      1.13877077e-002</_>
    <_>
      4.94776214e-005 -2.22176037e-004 -1.94355252e-005 3.31322008e-005
      -8.91454984e-005 6.33582968e-005 1.35326443e-008 -5.75397117e-003
      -1.87757195e-007 3.48920338e-007 -2.94866004e-006 1.68618339e-003</_>
    <_>
      -4.17997129e-004 -4.64068988e-004 -1.58824361e-004 1.76965841e-004
      -8.80079460e-005 2.52920698e-004 -6.47430696e-008 -9.25926771e-003
      -5.19995774e-006 -4.31204035e-006 6.26440305e-006 5.75432880e-003</_>
    <_>
      -5.13624912e-003 -1.96066545e-003 -3.54127515e-005
      -1.98519928e-003 6.30322902e-005 8.95250065e-004 3.15848212e-007
      -2.46711001e-002 -3.50453520e-005 -3.02203734e-005
      -6.13065349e-005 2.70740241e-002</_>
    <_>
      -2.54904444e-004 1.95291886e-005 1.53454421e-005 -1.58003022e-004
      1.18284579e-005 1.17746014e-004 3.74910876e-008 -1.12318378e-002
      -6.28027294e-007 -1.77355588e-008 -9.20659932e-006 6.36061828e-004</_>
    <_>
      -2.94223446e-005 3.27915757e-007 2.75717484e-005 -5.06813594e-005
      -1.38382475e-005 6.06256217e-005 2.28662023e-009 -4.08875942e-003
      -6.99231961e-008 -2.18884068e-007 -7.95348797e-007 6.59516372e-005</_>
    <_>
      -9.87267937e-004 -5.40454930e-004 -7.86799428e-005
      -4.77225083e-004 -8.50912038e-005 -7.35623034e-005
      -6.95450098e-008 -1.30042452e-002 -3.95436336e-006
      -3.43583292e-006 3.26197664e-006 2.42330716e-003</_>
    <_>
      -1.73825465e-004 -4.52721215e-005 5.95520646e-007 -6.25024622e-005
      -6.85985215e-005 -5.89867559e-005 -1.09423350e-008
      -5.81352226e-003 -5.77336550e-007 -7.04176330e-007 2.59459853e-007
      4.83883749e-004</_>
    <_>
      6.10340536e-001 -3.65039170e-001 -4.38521266e-001 3.77164274e-001
      2.51964003e-001 -2.49215186e-001 1.11343758e-003 -8.97088125e-002
      3.11211273e-002 1.98237579e-002 -1.12021402e-001 4.68358785e-001</_>
    <_>
      1.63991572e-004 -5.06951765e-004 -4.49950458e-004 6.97217765e-005
      -2.19081863e-004 -3.54833392e-005 3.83920195e-007 -2.33315378e-002
      6.84516863e-006 -1.02424110e-006 -3.03055604e-005 4.15959395e-003</_>
    <_>
      2.58064771e-004 -6.49956855e-005 -3.12524557e-004 -3.48799920e-004
      -6.62237348e-004 -1.88836260e-004 4.75358604e-007 -2.60724854e-002
      8.88542399e-006 2.50102016e-006 -4.26364677e-005 2.57196766e-003</_>
    <_>
      -3.20069760e-001 -3.52008015e-001 -1.77715391e-001
      -1.72416270e-002 7.16847777e-002 -1.03776745e-001 -4.91892279e-004
      -7.12587759e-002 -1.32091681e-003 7.73675565e-004 3.17885429e-002
      1.70716465e-001</_>
    <_>
      -2.29193196e-001 -2.05776811e-001 2.61371620e-002 -4.00200021e-003
      1.82955399e-001 9.59904864e-003 -3.63956904e-004 -3.49146612e-002
      -2.12399894e-003 -1.10402575e-003 2.94793099e-002 2.45532885e-001</_>
    <_>
      -2.88043618e-002 -1.97601810e-001 -1.13179415e-001
      -2.16793969e-001 7.62850270e-002 -9.64491218e-002 -2.54573133e-005
      -4.45720367e-002 1.95483677e-003 2.59614899e-003 1.23198249e-003
      2.35565618e-001</_>
    <_>
      4.01756763e-002 -6.72234744e-002 -3.45247351e-002 -3.31935845e-002
      1.53495744e-002 -1.45010976e-002 1.13559172e-005 -4.31013666e-002
      8.21902824e-004 7.86815479e-004 -9.88019165e-004 2.06977263e-001</_>
    <_>
      9.18286204e-001 -1.04070544e+000 -4.49711949e-001 3.89959186e-001
      1.69322506e-001 -1.11619204e-001 -7.38938630e-004 -4.40893024e-002
      2.22446341e-002 1.07182469e-002 4.93714586e-002 -3.38264227e-001</_>
    <_>
      -1.26145184e-002 -2.38590539e-002 -4.65114005e-002 9.72011220e-003
      4.27015945e-002 -1.04573453e-002 3.45208646e-005 -1.29173577e-001
      9.49615613e-004 1.07015821e-003 -3.24143074e-003 1.28481999e-001</_>
    <_>
      2.72244215e+000 -2.46493578e+000 -4.66574848e-001 2.85288954e+000
      -3.85361969e-001 3.47879386e+000 -4.45018202e-004 1.56779736e-002
      6.15778863e-001 4.16466624e-001 1.22936405e-002 -4.54272777e-001</_>
    <_>
      8.68837815e-004 4.32650355e-004 1.52752345e-005 9.13309399e-004
      1.12981629e-003 -2.35863081e-005 6.31739397e-007 5.01984591e-003
      -3.28203969e-005 -4.03939994e-005 -4.10364119e-005
      -2.93849502e-002</_>
    <_>
      2.88126437e-004 4.54125897e-004 -4.34756366e-005 6.01958018e-004
      1.00187992e-003 3.09070492e-005 6.69529697e-007 1.01617230e-002
      -3.22551350e-005 -4.77819631e-005 -2.47270873e-005
      -3.04896012e-002</_>
    <_>
      1.10716058e-003 6.21536979e-004 1.27003252e-004 6.61672384e-004
      1.34361535e-003 3.67049361e-004 1.08671088e-006 1.00557692e-002
      -1.93602973e-005 -2.82983583e-005 -9.34639538e-005
      -3.28489430e-002</_>
    <_>
      1.78619183e-003 8.66529124e-004 4.22978221e-004 -5.10719139e-004
      3.42255837e-004 1.12861476e-003 2.29120974e-006 7.90329883e-004
      -4.90011334e-005 -6.33178497e-005 -1.70630752e-004
      -4.71953340e-002</_>
    <_>
      -1.09206722e-003 6.44687179e-006 -1.41190365e-004 -2.51699646e-004
      1.83332668e-004 6.61201717e-004 5.84770646e-007 -1.04156137e-002
      -2.16019052e-005 -3.03856086e-005 -4.15571449e-005
      -2.48970017e-002</_>
    <_>
      -3.03679670e-004 -4.51510532e-005 -2.60218832e-004 7.83692114e-004
      6.19989994e-004 -3.33443895e-004 5.33627087e-007 2.26830132e-003
      -7.36645461e-006 -1.30041635e-005 -2.98704308e-005
      -2.50817165e-002</_>
    <_>
      2.26387085e-004 -1.93365864e-004 -4.79906848e-005 3.49313428e-004
      1.99007685e-004 -4.35495749e-004 6.76873185e-007 4.76978399e-004
      -6.37364721e-008 -3.42760268e-006 -5.82349203e-005
      -2.66882833e-002</_>
    <_>
      1.17566797e-003 8.35509418e-005 1.25077218e-004 3.59188212e-004
      1.65373101e-004 -2.91594450e-004 8.61579451e-007 -3.36850923e-003
      -4.47608545e-006 -7.89382466e-006 -8.34326784e-005
      -2.95427348e-002</_>
    <_>
      2.56781164e-003 -4.54297871e-004 -4.71732288e-004 8.24155402e-004
      3.49518959e-004 -6.94582559e-005 1.18394246e-006 -8.41629153e-005
      1.04217970e-005 -1.65910715e-005 -1.23570979e-004 -3.23351398e-002</_>
    <_>
      2.85324404e-006 -3.27481612e-005 -8.56854058e-006 3.29248905e-006
      -1.85130921e-006 9.79778633e-006 1.35278801e-008 -2.73879967e-003
      5.78211029e-007 4.67627132e-007 -1.94730137e-006 1.20604651e-004</_>
    <_>
      2.90110649e-004 -1.76453817e-004 -2.46665004e-004 -3.89633788e-005
      -5.79550251e-005 -1.98678899e-005 6.74934242e-008 -1.08253844e-002
      4.98856707e-007 9.76638830e-007 -6.00022122e-006 1.73346105e-003</_>
    <_>
      -1.53978812e-002 -1.53026832e-002 -2.39851233e-003 5.79724740e-003
      6.06328249e-004 -1.50141399e-003 -3.09847422e-007 -5.95983900e-002
      -1.51348664e-004 -1.86808451e-004 1.29390959e-004 2.08698530e-002</_>
    <_>
      -7.15954378e-002 -8.67807716e-002 -1.72142126e-002 4.12358977e-002
      1.87173281e-002 -6.53674360e-003 6.18515878e-006 -2.05679126e-002
      -3.51792056e-004 -1.03326616e-004 -6.92900096e-004 1.13603577e-001</_>
    <_>
      4.93810512e-005 -3.35400255e-004 -2.58714977e-007 1.00849131e-004
      2.76960855e-005 1.03277074e-004 2.57562576e-008 -7.51694990e-003
      -1.82558017e-006 -2.27352803e-006 -1.48789866e-006 3.02936998e-004</_>
    <_>
      -1.52750611e-001 -1.77216783e-001 -3.62120308e-002 1.95369329e-002
      1.47804655e-002 -6.30543679e-002 -4.19930693e-005 -1.50979673e-002
      -2.41627055e-003 -1.58224918e-003 5.89486165e-003 1.17604963e-001</_>
    <_>
      8.32368241e-005 -2.16183063e-004 -2.86944555e-006 2.05863726e-005
      -3.10698852e-005 2.16053922e-005 1.67936793e-008 -5.83050866e-003
      -4.80400445e-007 -4.66107736e-007 -8.41436815e-007 2.03364980e-004</_>
    <_>
      -8.80401805e-002 -9.31342691e-002 -8.82232655e-003 2.06467453e-002
      5.02841361e-003 -1.12909293e-002 8.21650974e-006 -1.91099904e-002
      -6.14752120e-004 -4.14322567e-004 1.51689135e-004 1.03189506e-001</_>
    <_>
      1.84841367e-004 -5.59290056e-004 -8.56333936e-005 1.71459687e-004
      -1.21852805e-004 1.17310825e-004 1.15480553e-007 -9.17393342e-003
      6.54184760e-007 1.13406736e-006 -1.19348742e-005 2.73526151e-004</_>
    <_>
      -3.60700325e-003 -5.79694984e-003 -2.41532968e-003 3.46798776e-003
      3.99696815e-004 2.33898102e-003 5.97750898e-007 -3.50919366e-002
      -4.10314169e-005 -4.34338908e-005 -8.90117371e-006 6.19376218e-003</_>
    <_>
      -9.31012817e-003 -1.04284557e-002 -2.33324594e-003
      -2.42658169e-003 6.92751631e-003 3.25250742e-003 7.23217681e-006
      1.70382624e-003 -4.24624232e-005 -5.80875312e-005 -6.58126024e-004
      -6.94009066e-002</_>
    <_>
      -5.41360205e-005 1.61501885e-004 -3.48799913e-005 1.65027832e-005
      5.32521342e-004 5.55246719e-004 7.43317685e-007 -1.82302110e-002
      1.18992202e-005 1.14707127e-005 -8.19618435e-005 -1.24826990e-002</_>
    <_>
      -2.44257208e-005 -1.07853020e-005 3.02770186e-005 -4.95264030e-005
      5.36718107e-006 8.36846011e-005 2.89687474e-008 -4.96920617e-003
      2.25583008e-007 -2.41326205e-007 -2.74614308e-006 -1.02065410e-003</_>
    <_>
      -3.34993866e-003 -2.45138328e-003 -6.42703264e-004
      -1.11919525e-003 3.87588545e-004 -5.53259451e-004 4.16290192e-007
      -1.56147899e-002 -6.62694674e-006 -1.10342608e-005
      -2.84604666e-005 -2.09066961e-002</_>
    <_>
      -2.84081791e-004 -1.16981188e-004 -3.00900410e-005
      -4.82326650e-005 -6.47121706e-005 -1.39306474e-004 4.41807515e-008
      -7.89267663e-003 -2.64899001e-007 -1.12244982e-006
      -3.40994552e-006 -1.94528687e-003</_>
    <_>
      -2.90028840e-001 2.73008227e-001 -5.14578104e-001 -1.93569541e-001
      -6.51723444e-001 5.89446649e-002 -2.32333943e-004 -2.36962363e-002
      -1.16842156e-002 -1.82637032e-002 3.86161283e-002 1.20029517e-001</_>
    <_>
      -3.27360600e-001 3.30690384e-001 -2.86405504e-001 -2.51847208e-001
      -5.37656307e-001 6.85581937e-002 3.63081836e-006 -1.68109909e-002
      -9.49638337e-003 -1.30103715e-002 1.66177619e-002 9.50698778e-002</_>
    <_>
      -1.77401865e+000 3.40838879e-001 4.87148523e-001 -2.09325266e+000
      -1.78172266e+000 2.27550936e+000 -6.08254448e-002 -1.50993159e-002
      -2.61720037e+000 -2.53499174e+000 8.63525867e+000 -5.70930600e-001</_>
    <_>
      -9.40719247e-001 3.23454022e-001 -9.54642519e-003 -4.87465531e-001
      -1.13839960e+000 6.50484324e-001 -8.73316601e-002 -1.98984332e-002
      -1.79492128e+000 -1.53838921e+000 7.61123037e+000 1.86358646e-001</_>
    <_>
      -3.55598271e-001 2.96585411e-001 1.37295825e-002 -5.91193140e-001
      -4.32889014e-002 -1.99593842e-001 2.50434428e-002 -2.40007099e-002
      -2.68035460e+000 -2.28944540e+000 -3.50449967e+000
      -2.80455872e-002</_>
    <_>
      -3.70205641e-001 -1.34056520e+000 -1.88046947e-001
      -1.15305591e+000 -3.61644834e-001 7.52633736e-002 3.00213229e-002
      -1.32815707e-002 -1.60056138e+000 2.72638779e-002 5.44709682e+000
      6.76637515e-002</_>
    <_>
      -9.92906764e-002 -1.40143156e+000 -5.27564958e-002 2.20230997e-001
      -9.06256735e-001 1.28932133e-001 -7.11336285e-002 3.20300423e-002
      -9.36086059e-001 -1.44962287e+000 8.03844166e+000 -4.75381583e-001</_>
    <_>
      -3.86487842e+000 8.66829932e-001 -5.32171607e-001 -1.50004601e+000
      3.03553319e+000 4.15234357e-001 1.34498011e-002 -1.11096110e-002
      -6.00240342e-002 4.12604883e-002 -5.06619096e-001 -6.39327705e-001</_>
    <_>
      -5.64447567e-002 -3.69751640e-002 2.71906108e-002 -7.39246281e-003
      4.06590812e-002 2.66078766e-002 -3.36734847e-005 5.13690114e-002
      -1.63916778e-003 -1.86870014e-003 6.01762719e-003 -3.18934590e-001</_>
    <_>
      -8.04740761e-004 8.47257470e-005 -2.37540284e-004 7.78099580e-004
      4.63764038e-004 -2.56021332e-004 -7.84134954e-007 4.07250458e-003
      -3.96278920e-005 -4.29845677e-005 5.96373866e-005 -2.37160530e-002</_>
    <_>
      -8.62686662e-004 -1.46956852e-004 1.67070975e-004 1.37768147e-004
      6.28520909e-004 1.01921971e-004 -2.90430194e-007 8.61073006e-003
      -3.32172785e-005 -3.44793261e-005 5.26318217e-005 -2.06424445e-002</_>
    <_>
      -5.20194371e-005 7.29574895e-005 3.69999441e-004 4.85168675e-005
      3.20742489e-004 2.28251767e-004 -3.06920271e-007 7.05087883e-003
      -2.03639556e-005 -1.84289693e-005 2.31409722e-005 -2.30071209e-002</_>
    <_>
      -3.71431024e-003 3.67688859e-004 -8.04406009e-004 8.64996866e-004
      7.29424704e-004 -4.08426931e-005 2.90948662e-007 1.85791473e-003
      -8.84743713e-005 -1.04645005e-004 4.43946992e-005 -4.15057316e-002</_>
    <_>
      -1.22155121e-003 1.60967989e-003 -1.09315116e-003 -1.24102389e-003
      -9.38986777e-004 1.15314650e-003 4.26257799e-007 -6.39295147e-004
      -6.85054620e-005 -6.37778357e-005 2.19723152e-005 -3.27284709e-002</_>
    <_>
      -1.21193880e-003 -3.08177172e-004 -5.77486062e-004 3.74840194e-004
      4.51392378e-004 -2.59707944e-004 -1.11027063e-007 2.01935088e-003
      -1.52441253e-005 -2.21465561e-005 3.25712899e-005 -2.22181231e-002</_>
    <_>
      -4.45869868e-004 -3.86746891e-004 -4.00614168e-004 6.40141778e-004
      3.58136662e-004 -3.66515946e-004 1.33985566e-007 2.78484635e-003
      -1.38493442e-005 -1.52628090e-005 1.54821964e-006 -2.37009898e-002</_>
    <_>
      -8.93672521e-004 7.16846553e-005 -4.63808072e-004 1.11262302e-003
      9.14338510e-004 -2.86621071e-004 3.37428986e-007 -5.28274628e-004
      -2.64004739e-005 -2.65573053e-005 -1.45674530e-005
      -2.94794254e-002</_>
    <_>
      -3.07632668e-004 -4.31793334e-004 -9.54844407e-004 1.26388518e-003
      7.77466397e-004 -1.83113603e-004 3.43001830e-007 2.88458262e-003
      -1.37580037e-005 -3.25233450e-005 -1.95369539e-005
      -2.95231417e-002</_>
    <_>
      2.12060741e-006 -4.34489302e-005 -2.55822542e-005 2.38067059e-006
      -1.74259458e-005 1.68881670e-005 1.76167134e-008 -3.78126814e-003
      5.60149886e-007 4.77251660e-007 -2.48736751e-006 2.02470546e-004</_>
    <_>
      1.01359943e-002 -1.49142917e-003 -1.14019476e-002 -8.45061243e-003
      -1.33161861e-002 -5.59002161e-003 1.24352960e-006 -1.18842255e-002
      -2.26336531e-004 -1.56438371e-004 2.14104177e-004 8.41123313e-002</_>
    <_>
      -4.18442458e-001 -2.38156363e-001 -1.37953207e-001
      -9.12527293e-002 -3.29860240e-001 -1.23397902e-001
      -2.27338824e-004 -2.10175067e-002 -3.26084420e-002
      -2.71321163e-002 4.30022962e-002 1.95673823e-001</_>
    <_>
      -6.51047349e-001 -3.85063857e-001 -4.87588048e-001
      -4.05528307e-001 -1.79806694e-001 -5.11315949e-002 3.50360497e-004
      -2.61203367e-002 -2.58943047e-002 -2.58004442e-002
      -2.38011163e-002 2.70946652e-001</_>
    <_>
      6.08592702e-004 -4.36868146e-003 -6.17805927e-004 1.43463747e-003
      -4.57898976e-004 1.61463150e-003 -1.11834943e-007 -3.02914418e-002
      -6.67434651e-005 -6.57565688e-005 5.66020244e-005 3.25148739e-003</_>
    <_>
      -5.50326645e-001 -1.06706345e+000 -1.30079791e-001
      -3.93970668e-001 -9.70235944e-001 -1.03939581e+000 7.70983519e-004
      -1.96198132e-002 -1.51833043e-001 -1.27412528e-001 1.24597833e-001
      8.98131356e-002</_>
    <_>
      4.42393415e-004 -1.00377609e-003 -1.45734288e-004 6.64298423e-005
      -3.76381155e-004 1.01661892e-004 -1.57661688e-008 -1.40768737e-002
      -1.04014835e-005 -8.52954145e-006 1.22010078e-005 8.08343058e-004</_>
    <_>
      -6.58288896e-001 -1.42041349e+000 -3.32592241e-002
      -4.48942959e-001 -9.60095286e-001 -1.08899426e+000 1.13330921e-002
      -2.68184505e-002 -4.87828016e+000 -4.90048170e+000 3.97326469e+000
      2.44106829e-001</_>
    <_>
      1.85173489e-002 -5.00904135e-002 -1.57047249e-002 1.66352931e-002
      -2.28464454e-002 1.19527085e-002 7.52186452e-006 -7.27564245e-002
      -2.85907910e-004 -1.47395884e-004 -5.25241601e-004 1.23698637e-002</_>
    <_>
      -3.70020926e-001 -2.53403813e-001 -2.02719942e-001 1.64026441e-003
      -3.33577693e-001 -2.57981807e-001 -1.21166086e-004
      -1.42402751e-002 -2.84917504e-002 -2.70291120e-002 3.73721384e-002
      1.23621546e-001</_>
    <_>
      -1.40992776e-002 -1.02063315e-002 1.41225406e-003 -1.82649784e-003
      6.33158721e-004 7.84499978e-004 1.60987918e-006 1.23838689e-002
      -6.99604934e-005 -2.28181889e-005 -2.05259363e-004
      -5.11218123e-002</_>
    <_>
      -1.45218358e-003 2.02016253e-003 -1.44347735e-003 -1.18846376e-003
      3.65003769e-004 2.14693416e-003 1.44651665e-006 -1.70514535e-003
      -2.87092589e-005 -2.26236280e-005 -1.17813950e-004
      -4.00773808e-002</_>
    <_>
      -1.14991817e-004 8.84776746e-005 5.18431698e-005 -2.13890526e-004
      -7.40600663e-005 3.04368295e-004 5.39500249e-008 -8.99151061e-003
      -2.83512895e-006 -3.73171338e-006 -2.04916660e-006
      -4.04957682e-003</_>
    <_>
      -6.32816693e-003 -3.36382724e-003 -9.53288400e-004
      -6.35391742e-004 -6.45132895e-005 -4.25892067e-004
      -2.60711943e-007 -4.99616668e-004 -4.68258222e-005
      -5.43179704e-005 5.98769984e-005 -3.18409987e-002</_>
    <_>
      -3.69501789e-003 -2.10695714e-003 -7.64099066e-004
      -3.70799011e-004 -1.39241805e-003 -1.14493957e-003 1.03440698e-007
      -1.76293813e-002 -3.60304002e-005 -3.50131813e-005 2.26127540e-005
      -2.07403507e-002</_>
    <_>
      -6.27201378e-001 1.75139681e-001 1.02136008e-001 -4.92530316e-001
      -2.12706879e-001 6.00950658e-001 6.35444373e-003 -9.33244918e-003
      -9.76396918e-001 -1.18280447e+000 3.85312885e-001 1.66598827e-001</_>
    <_>
      5.71026742e-001 6.98068619e-001 -1.02014732e+000 1.16064548e+000
      1.17968905e+000 2.25556803e+000 -3.22584389e-003 2.96677854e-002
      -5.53911962e-002 -2.23458707e-001 3.32625538e-001 -6.14546239e-001</_>
    <_>
      -2.10605692e-002 7.94065148e-002 7.60918707e-002 -8.52252468e-002
      1.15872435e-001 8.83267224e-002 -7.34544173e-002 3.15446383e-003
      -8.95627916e-001 -1.24276853e+000 5.41024113e+000 5.74076436e-002</_>
    <_>
      -2.00858846e-001 2.86967736e-002 -3.24066877e-001 -7.54581690e-001
      2.17787981e+000 2.31779423e-002 3.31819663e-003 3.59375104e-002
