<?xml version="1.0"?>
<opencv_storage>
<my_svm type_id="opencv-ml-svm">
  <svm_type>C_SVC</svm_type>
  <kernel><type>LINEAR</type></kernel>
  <C>25.</C>
  <term_criteria><epsilon>2.2204460492503131e-016</epsilon>
    <iterations>1000000</iterations></term_criteria>
  <var_all>12</var_all>
  <var_count>12</var_count>
  <class_count>35</class_count>
  <class_labels type_id="opencv-matrix">
    <rows>1</rows>
    <cols>35</cols>
    <dt>i</dt>
    <data>
      1 2 3 4 5 6 7 8 9 10 11 12 13 14 15 16 17 18 19 20 21 22 23 24 25
      26 27 28 29 30 31 32 33 34 35</data></class_labels>
  <sv_total>595</sv_total>
  <support_vectors>
    <_>
      7.46046841e-001 -2.74826789e+000 -2.45769262e+000 4.04591179e+000
      5.64324331e+000 -5.66667795e-001 -2.46677268e-003 2.43262766e-004
      -1.25373399e+000 -1.26811862e+000 1.59870803e+000 5.10609113e-002</_>
    <_>
      -4.67550904e-001 4.45697494e-002 1.31156400e-001 -3.59957776e-005
      -1.79217696e-001 1.66866750e-001 -1.14485018e-004 -9.38341301e-003
      -7.53820967e-003 -5.82499988e-003 1.33256065e-002 1.28429413e-001</_>
    <_>
      -7.67642856e-002 -9.24884900e-002 -2.05058530e-002
      -7.05972910e-002 -1.01248950e-001 1.07827611e-001 -1.34280490e-004
      4.61782292e-002 -1.84767554e-003 -1.65227486e-003 1.38186496e-002
      -3.16553026e-001</_>
    <_>
      -7.97218144e-001 -1.69660613e-001 -1.52228728e-001
      -8.21206719e-002 -6.02128327e-001 9.49266791e-001 -9.19789134e-004
      9.77148768e-003 -2.75794026e-002 -3.44744697e-002 1.16101757e-001
      9.69907269e-002</_>
    <_>
      8.48575146e-004 -2.02781195e-003 6.91606489e-004 7.68968079e-004
      6.77004864e-004 -1.62253634e-003 3.94529451e-007 -5.13707753e-003
      2.32509465e-005 3.87603322e-005 -9.03414693e-005 -5.18716425e-002</_>
    <_>
      1.40515491e-001 5.33125885e-002 1.34690925e-002 3.89721207e-002
      -2.18225345e-001 9.08338726e-002 -2.10600701e-004 5.74836545e-002
      -7.92293157e-003 -7.18557462e-003 2.52186898e-002 -3.31727684e-001</_>
    <_>
      -1.73530936e+000 2.69305378e-001 -1.52685970e-001 2.02320790e+000
      -1.05743945e+000 1.64174759e+000 -6.71880469e-002 -1.45549756e-002
      -2.01831532e+000 -1.08024478e+000 6.89362288e+000 3.98738563e-001</_>
    <_>
      -1.69487953e-001 2.35364601e-001 1.62520912e-002 1.16571777e-001
      -3.93274099e-001 3.74565013e-002 -4.32614383e-004 -1.79662798e-002
      -9.88738984e-003 -4.34002606e-003 4.32199128e-002 1.45729870e-001</_>
    <_>
      -1.20547321e-002 1.14538163e-001 7.75030777e-002 7.35230520e-002
      -1.65963054e-001 7.75065273e-002 -1.72348009e-004 -2.00124620e-003
      -6.20081089e-003 -4.91058314e-003 2.08781138e-002 3.06059748e-001</_>
    <_>
      -6.26887530e-002 4.99607809e-002 9.75569114e-002 6.11190638e-003
      -1.37379557e-001 1.80785820e-001 -5.31553105e-002 -5.33138216e-003
      -1.39618599e+000 -1.12232554e+000 5.66148996e+000 4.67436798e-002</_>
    <_>
      -2.46696740e-001 -6.34382851e-003 9.08294693e-002 -2.13984609e-001
      -3.64973545e-001 4.13185686e-001 -4.39877994e-002 -3.53987818e-003
      -9.23547566e-001 -8.81638885e-001 4.24771118e+000 1.54284149e-001</_>
    <_>
      -2.64672428e-001 2.42684698e+000 2.57526875e+000 -1.93968189e+000
      -1.75976467e+000 2.34697700e+000 -7.73448572e-002 -5.65509461e-002
      -1.62763250e+000 -1.83927381e+000 8.03654480e+000 3.73105854e-001</_>
    <_>
      -3.27625245e-001 -2.62458980e-001 -1.51732340e-002
      -1.84265926e-001 -4.15971726e-001 5.76904416e-001 -9.80433309e-004
      8.69547203e-003 -1.85252186e-002 -1.61071308e-002 1.05870254e-001
      1.58574119e-001</_>
    <_>
      7.66021669e-001 1.48501471e-001 1.19872975e+000 1.62691379e+000
      9.08859670e-002 1.56496990e+000 -2.68323123e-002 2.22262498e-002
      -4.72136766e-001 -4.77131099e-001 2.82017660e+000 -4.45835531e-001</_>
    <_>
      9.99605596e-001 8.80198717e-001 1.28788662e+000 -7.96117783e-002
      -1.49126768e-001 3.41645288e+000 -6.44674748e-002 -1.89547203e-002
      -1.71313095e+000 -1.67576635e+000 9.08510113e+000 1.15285449e-001</_>
    <_>
      8.23939312e-003 -9.28970170e-004 4.16455744e-003 -7.65717542e-003
      -3.40961628e-002 4.69073188e-003 -3.64120024e-005 3.48293334e-002
      -1.70312927e-003 -2.00299174e-003 5.87075856e-003 -2.23099306e-001</_>
    <_>
      -3.91270805e-005 -1.56621645e-005 -6.73063641e-006 7.32822002e-007
      -8.46959119e-006 -2.47283533e-005 5.25452037e-009 -3.48747545e-003
      2.87557327e-007 2.14668376e-007 -1.09489736e-006 1.74668879e-004</_>
    <_>
      -7.63942627e-003 8.10750108e-003 -4.16155066e-003 2.15231697e-003
      -2.36011320e-003 1.17263512e-003 -2.61987225e-006 -3.74083556e-002
      -1.59498217e-004 -1.18313466e-004 3.87192878e-004 4.11016978e-002</_>
    <_>
      -1.17175974e-001 -3.79180133e-001 -4.12891880e-002 1.13848992e-001
      -2.29133844e-001 2.04973564e-001 -3.02497036e-004 -1.77899320e-002
      -2.54805665e-002 -2.37300284e-002 4.93876524e-002 1.75358236e-001</_>
    <_>
      -6.33090883e-002 -1.21331207e-001 -1.33996025e-001 1.24499220e-002
      -2.59105880e-002 4.30656709e-002 -4.29564861e-005 -3.44780070e-004
      -3.10936873e-003 -3.18106147e-003 7.15459138e-003 2.96884626e-001</_>
    <_>
      -1.55452942e-003 -8.69729847e-004 8.76293052e-005 4.96990862e-004
      3.60724334e-005 -1.54021996e-004 -3.07911876e-007 -1.82109680e-002
      -2.87848070e-005 -2.85023998e-005 4.81487805e-005 1.21757865e-003</_>
    <_>
      -3.15332711e-001 -1.36286095e-001 -1.01837702e-001 1.03498869e-001
      -4.90178727e-002 4.71621156e-001 -5.85291884e-004 -7.59093091e-003
      -3.22616249e-002 -2.77759023e-002 8.59426484e-002 2.78766751e-001</_>
    <_>
      -1.42596647e-004 2.43394490e-004 -3.40996863e-004 3.75871023e-005
      -4.92542022e-005 1.49316664e-004 -7.13296799e-008 -1.13573875e-002
      -6.16193347e-006 -5.65540586e-006 1.46640905e-005 5.43009315e-004</_>
    <_>
      -3.46614897e-001 -1.31173566e-001 -2.03033105e-001 5.13265096e-002
      -1.02571152e-001 2.31874987e-001 -1.86996665e-004 -2.84630666e-003
      -1.96291804e-002 -1.62014682e-002 3.74616086e-002 2.88826466e-001</_>
    <_>
      -1.40850484e-001 -3.45035285e-001 -9.86642092e-002 2.25634784e-001
      -2.60648970e-002 4.58174616e-001 -4.40778444e-004 -1.23933963e-002
      -3.58562768e-002 -3.50297131e-002 7.36242384e-002 1.92788705e-001</_>
    <_>
      3.97067692e-004 -1.47299012e-004 -1.11677211e-004 3.11827200e-004
      1.60296531e-005 4.23011195e-004 -9.30731460e-007 3.93995084e-003
      -4.80717863e-005 -4.93141815e-005 9.02161919e-005 -2.29818020e-002</_>
    <_>
      6.51536917e-004 -6.17891783e-004 -1.05508021e-004 -2.91175093e-004
      9.71197878e-005 1.71233871e-004 -4.15890270e-007 7.25098001e-003
      -3.99737037e-005 -4.61003292e-005 7.63393473e-005 -2.08565705e-002</_>
    <_>
      3.81103193e-004 3.34758661e-005 2.24257674e-005 6.23315864e-005
      -1.00535333e-004 1.14805705e-004 -4.58740715e-007 6.90457877e-003
      -2.91517426e-005 -3.24540051e-005 5.22475493e-005 -2.25363895e-002</_>
    <_>
      4.73226275e-004 -4.75304878e-005 -2.11065097e-004 4.32827301e-006
      -1.01283302e-004 2.00438997e-004 -4.06199234e-007 9.53900814e-003
      -3.37812016e-005 -3.56503697e-005 5.94552912e-005 -1.96127351e-002</_>
    <_>
      6.10147195e-004 1.36251583e-005 -2.96699814e-004 -1.51918692e-004
      2.77983607e-004 -5.94343175e-004 -2.81804887e-007 4.35619429e-003
      -5.57325984e-005 -5.41811751e-005 7.37715745e-005 -3.19906138e-002</_>
    <_>
      2.79476680e-003 -1.75207295e-003 2.10079394e-004 1.36083842e-003
      -3.88024418e-005 1.40594260e-003 -1.41979456e-006 6.07863301e-003
      -1.84217002e-004 -1.92133099e-004 2.96327984e-004 -4.47378233e-002</_>
    <_>
      1.70957728e-003 -1.32638225e-002 7.08429798e-005 -3.77632305e-003
      -6.50516897e-003 3.99353122e-003 4.93106484e-007 6.82750624e-003
      -1.03880411e-004 -8.76404520e-005 -2.95508034e-005
      -4.85460274e-002</_>
    <_>
      3.32848472e-003 7.92301376e-004 9.83462436e-004 4.92854779e-005
      1.14703644e-003 -3.21717770e-003 -2.81978856e-007 -2.19781557e-003
      -1.00599442e-004 -6.92034446e-005 1.05000130e-004 -5.06315120e-002</_>
    <_>
      2.94424337e-003 -4.93258878e-004 6.23359112e-004 -1.31186360e-004
      -1.43751106e-003 -1.25264178e-003 -1.33297863e-006
      -8.27940588e-004 -1.56394541e-004 -1.49447238e-004 2.50792276e-004
      -4.13479879e-002</_>
    <_>
      -1.27733797e-001 -3.47571238e-003 1.85978822e-002 -6.35974482e-002
      -6.98394701e-002 4.53649387e-002 -5.42427097e-006 -2.30592377e-002
      5.24666451e-004 5.39157947e-004 -9.45514417e-004 2.05556124e-001</_>
    <_>
      -1.21410179e+000 9.50244605e-004 2.58483738e-001 -1.00217068e+000
      -1.65890610e+000 7.79267624e-002 -4.19126544e-003 1.56786498e-002
      1.01968005e-001 9.02011320e-002 3.20352733e-001 -8.01136017e-001</_>
    <_>
      -6.60924554e-001 -7.99230486e-002 -2.97025472e-001
      -3.30397666e-001 -4.85408574e-001 3.48101109e-001 -3.72726907e-004
      -1.98466834e-002 1.11312198e-003 3.14044789e-003 1.74411461e-002
      3.55247818e-002</_>
    <_>
      2.71127123e-004 -1.65280525e-003 2.41096452e-004 -6.53819530e-004
      -2.65265990e-004 -1.07788219e-004 4.19527169e-007 -3.53071024e-003
      2.10236540e-005 2.63726288e-005 -9.92708010e-005 -3.55653241e-002</_>
    <_>
      1.52729595e+000 3.03007573e-001 3.54613125e-001 -9.00834978e-001
      -7.04466820e-001 -5.93424626e-002 -2.48225220e-003 3.50455530e-002
      -6.23939298e-002 -4.12493087e-002 2.75035828e-001 -5.61353229e-002</_>
    <_>
      -4.68009710e-001 4.02071416e-001 -4.90940779e-001 -1.08395725e-001
      -1.66937327e+000 4.53555852e-001 -2.54946295e-003 -1.94100179e-002
      -8.28400161e-003 7.26766884e-003 2.01500878e-001 2.86418647e-001</_>
    <_>
      -2.10108375e-003 -1.40786055e-003 -2.51815631e-003
      -8.48861353e-004 -1.08698066e-002 2.94389692e-003 -4.45331807e-006
      -6.92823380e-002 -1.17873577e-004 -1.41566532e-004 5.72584453e-004
      3.94202322e-002</_>
    <_>
      4.39079385e-003 4.89618350e-003 2.07108515e-003 3.20740393e-003
      -3.92095521e-002 1.50021836e-002 -1.06094494e-005 -1.11456752e-001
      -2.72670790e-004 -2.56079948e-004 1.25438359e-003 3.78384553e-002</_>
    <_>
      4.89065088e-002 -3.94449741e-001 2.14904428e-001 -4.55729127e-001
      -4.27179813e-001 2.11536467e-001 -1.23126514e-003 -3.53768766e-002
      -1.79085284e-002 -1.49775092e-002 1.07937545e-001 -3.69150303e-002</_>
    <_>
      5.06177366e-001 -3.75806168e-002 6.53726682e-002 -3.88867021e-001
      -5.07344186e-001 2.08975021e-002 -1.53619435e-003 -2.25638337e-002
      -2.02296190e-002 -1.63466912e-002 1.28486365e-001 2.70562798e-001</_>
    <_>
      -2.23271698e-001 3.35858881e-001 3.54019016e-001 -3.97666872e-001
      -7.17977583e-001 6.53337061e-001 -1.42867409e-003 -1.88951772e-002
      -1.25914309e-002 -8.04592110e-003 1.06484629e-001 7.63978735e-002</_>
    <_>
      -2.01233760e-001 -1.26680106e-001 -1.86211899e-001
      -2.48479068e-001 -2.97185063e-001 2.92793155e-001 -4.82448231e-004
      -2.46993378e-002 -4.78520151e-003 -2.10561790e-003 4.41847853e-002
      1.82610139e-001</_>
    <_>
      1.13651979e+000 -4.78077829e-001 2.47307467e+000 4.16773111e-001
      -2.94202781e+000 -5.72799921e-001 -2.61966810e-002
      -3.64871174e-002 -2.38615856e-001 -2.92279068e-002 2.55527496e+000
      -6.78633749e-001</_>
    <_>
      5.22293925e-001 1.48647940e-002 -6.35814488e-001 -5.56134045e-001
      -4.28171158e-001 3.81784469e-001 -6.78224664e-004 -1.91207398e-002
      -3.31387157e-003 7.99349323e-003 7.12869018e-002 -4.25358415e-002</_>
    <_>
      8.35376263e-001 -1.92955792e-001 1.73431724e-001 -1.06899433e-001
      -1.84850562e+000 2.54857481e-001 -4.49613482e-003 4.59511653e-002
      -7.26347715e-002 -6.90004304e-002 5.48916101e-001 -2.76871741e-001</_>
    <_>
      -2.61096575e-005 -2.46497639e-005 -7.42688235e-006
      -7.64261313e-006 -1.34508964e-005 -1.42601548e-005 3.86730914e-009
      -2.99187494e-003 4.18003765e-007 3.78873494e-007 -1.04948447e-006
      1.32005269e-004</_>
    <_>
      -5.60326735e-004 2.82305497e-004 -4.24501835e-004 -6.75394331e-005
      -4.17226984e-004 2.17655208e-004 -2.19877734e-007 -1.60845164e-002
      -7.12551082e-006 -3.22846199e-006 2.50994508e-005 3.55760031e-003</_>
    <_>
      2.08733208e-003 -1.46971598e-001 -1.11098737e-002 1.15898065e-003
      -6.01400696e-002 4.34617624e-002 -4.62634562e-005 -1.17973546e-002
      -2.13698577e-003 -2.05674325e-003 5.42070856e-003 8.86915326e-002</_>
    <_>
      1.87094379e-002 -2.05773667e-001 -6.51399791e-002 1.15095619e-002
      -8.94372612e-002 1.52908098e-002 -2.96797789e-005 -1.24168377e-002
      -2.49655452e-003 -1.72870874e-003 3.01689003e-003 1.24402858e-001</_>
    <_>
      -4.15964343e-004 -3.89657391e-004 -1.50874848e-006 5.43467722e-005
      -6.71753587e-005 -1.88833644e-006 -8.80440538e-008
      -9.78705194e-003 -6.01705824e-006 -5.78084928e-006 1.11516583e-005
      3.86087399e-004</_>
    <_>
      4.98544984e-003 -2.21828148e-001 -7.44496062e-002 -3.54942717e-002
      -2.37095073e-001 1.37123659e-001 -9.97917523e-005 -1.44573459e-002
      -7.83663057e-003 -6.77163759e-003 1.44484602e-002 1.98262349e-001</_>
    <_>
      -4.38303941e-005 2.26848861e-005 -1.58716153e-004 -3.39264880e-005
      -6.46685803e-005 8.68013813e-005 -3.00360909e-008 -7.37944664e-003
      -1.34004858e-006 -1.03856428e-006 4.69298038e-006 2.50204728e-004</_>
    <_>
      -3.37086357e-002 -1.70507774e-001 -6.51846007e-002
      -3.29591185e-002 -1.19963683e-001 1.07394002e-001 -5.33780512e-005
      -1.77909825e-002 -3.76525056e-003 -2.86860298e-003 7.99616612e-003
      1.42596722e-001</_>
    <_>
      -1.41821997e-002 -1.18076213e-001 -4.30785976e-002 1.13019021e-002
      -3.26370858e-002 2.09543109e-002 -2.07601770e-005 -1.70660075e-002
      -1.37077598e-003 -1.18966948e-003 3.05728940e-003 7.20463917e-002</_>
    <_>
      1.00067724e-003 3.56271252e-004 -2.13141568e-004 6.52508286e-004
      -2.51055782e-004 -3.98654556e-005 -2.83568738e-007 5.00280969e-003
      -5.05273820e-005 -4.24836835e-005 4.60534720e-005 -2.92045418e-002</_>
    <_>
      1.55538763e-003 1.59523508e-004 -2.15371678e-004 3.33126896e-004
      -1.06964807e-003 -3.71622358e-004 -5.47282298e-007 1.02554131e-002
      -5.51438970e-005 -5.17680201e-005 8.38469059e-005 -3.08692474e-002</_>
    <_>
      1.45830878e-003 5.56058018e-004 -1.23543097e-004 4.32601169e-004
      -6.80336787e-004 -7.43810029e-004 -2.52411240e-007 1.01788510e-002
      -4.75956767e-005 -3.45523149e-005 3.03287379e-005 -3.32336575e-002</_>
    <_>
      1.33837759e-003 6.14872726e-004 -4.61578165e-004 -4.07234329e-004
      -1.13595999e-003 -3.06486967e-004 -2.13493109e-007 1.62399188e-002
      -4.04363636e-005 -3.45962762e-005 1.66226437e-005 -3.33960168e-002</_>
    <_>
      1.09299785e-003 -6.97809563e-004 2.23548341e-004 -4.91762650e-004
      -5.94943820e-004 8.41450703e-004 -4.97038002e-007 -1.41523802e-003
      -6.02954424e-005 -6.66511987e-005 1.15258263e-004 -3.66436988e-002</_>
    <_>
      1.70520239e-003 -1.69251300e-003 7.70131417e-004 -1.06178643e-003
      -1.50713639e-003 4.93905332e-004 -7.07732852e-007 1.99908484e-003
      -9.62315389e-005 -9.73441201e-005 1.59727162e-004 -4.65743802e-002</_>
    <_>
      3.19526764e-003 -1.34506626e-002 -1.54031289e-003 -6.11281535e-003
      -9.22770984e-003 4.08863742e-003 8.38839810e-007 2.71228142e-003
      -1.32450063e-004 -8.08061159e-005 -6.31878356e-005
      -6.40202984e-002</_>
    <_>
      1.52249017e-003 -4.20802855e-004 4.86761128e-004 -9.54482646e-004
      -4.18150128e-004 -1.14585797e-003 1.98490667e-007 -8.43167119e-003
      -7.80063237e-006 4.55542431e-006 -3.34152937e-005 -3.50451358e-002</_>
    <_>
      1.98440626e-003 -1.00360974e-003 5.98359155e-004 -1.37015560e-003
      -1.56191480e-003 -6.51688315e-004 -5.78514857e-007
      -1.95495714e-003 -5.75156664e-005 -6.05237547e-005 8.15433159e-005
      -3.21743451e-002</_>
    <_>
      4.40756977e-003 -3.99574265e-003 3.51907598e-004 8.99854524e-004
      4.09928907e-004 5.51368867e-004 -2.81375901e-006 4.91329618e-002
      -2.95537939e-005 9.59563476e-006 3.12193239e-004 -3.52173932e-002</_>
    <_>
      1.65314913e-001 7.15750277e-001 -1.14539683e+000 7.31557250e-001
      -1.55970067e-001 7.37902343e-001 2.83866711e-002 2.10263897e-002
      2.40577602e+000 2.31999731e+000 -1.04045761e+000 -4.23182487e-001</_>
    <_>
      3.46122519e-003 -9.59814934e-004 1.29450823e-003 1.07130280e-003
      2.10034009e-003 -2.92760972e-003 8.53663494e-007 -3.60729941e-003
      1.15515082e-004 1.00625475e-004 -1.57973307e-004 -4.06415537e-002</_>
    <_>
      9.73114464e-003 -6.71253016e-004 1.41014881e-003 3.88267240e-003
      -8.66348448e-004 -2.70575110e-004 -4.69634051e-006 5.05332090e-002
      -1.56881069e-004 -1.04862243e-004 5.77702653e-004 -3.61188501e-002</_>
    <_>
      1.94108808e+000 1.11368239e+000 -7.09006563e-002 6.30813897e-001
      3.61714572e-001 -2.20645595e+000 -7.53691839e-003 3.84793952e-002
      -1.82555601e-001 -2.13207752e-001 8.12979460e-001 -1.82483166e-001</_>
    <_>
      7.28670955e-001 1.06241457e-001 7.47307837e-002 5.31234443e-001
      -4.73946072e-002 -3.61239612e-001 -1.20557472e-003
      -1.73524488e-002 -2.93696336e-002 -3.49012502e-002 1.39200032e-001
      3.55475396e-002</_>
    <_>
      1.02246439e+000 -8.90926048e-002 1.53391510e-002 2.89513707e-001
      1.70312412e-002 -1.62484393e-001 -1.09507272e-003 -2.17942037e-002
      -3.94982062e-002 -4.37700041e-002 1.44994572e-001 1.16453454e-001</_>
    <_>
      7.08376288e-001 -2.65250206e-002 1.68257475e-001 2.28153169e-002
      1.70885757e-001 -8.45675319e-002 -8.09774385e-004 2.90692993e-003
      -1.65695380e-002 -1.69657618e-002 9.80664119e-002 -1.28716916e-001</_>
    <_>
      1.34771299e+000 1.35102764e-001 3.19901556e-001 6.83657944e-001
      -8.04244727e-002 -1.61557987e-001 -2.86624162e-003
      -2.11890414e-002 -6.55417666e-002 -6.48329780e-002 3.10688972e-001
      -2.20304611e-003</_>
    <_>
      3.07219410e+000 1.64280689e+000 2.76210457e-001 3.47094566e-001
      8.82169247e-001 -7.17766881e-001 -1.32832362e-003 -9.62497294e-003
      -6.72028288e-002 -3.40413004e-002 2.15000704e-001 -1.30041361e-001</_>
    <_>
      -1.95486188e-001 -6.40507638e-001 -4.97714058e-002 2.45182800e+000
      1.17731607e+000 1.45536315e+000 -2.45551812e-003 5.25427014e-002
      -8.16533267e-002 -6.22612946e-002 3.86919439e-001 -3.00556958e-001</_>
    <_>
      5.16016632e-002 5.79718407e-003 -1.08488398e-002 4.35018018e-002
      3.25731165e-003 -1.75041740e-003 -4.15380273e-005 2.00115107e-002
      -7.96483015e-004 -9.63682716e-004 4.88283671e-003 -1.80737808e-001</_>
    <_>
      7.32015252e-001 -2.71600813e-001 5.42636774e-002 -5.34639098e-002
      1.33956134e-001 -5.43337353e-002 -2.69161799e-004 4.80601127e-004
      -2.72638816e-003 -1.00350438e-003 4.44021076e-002 -1.69514924e-001</_>
    <_>
      1.59862768e-002 -5.96903637e-003 1.32508727e-003 6.31297287e-003
      3.30235995e-003 -3.31915333e-003 -6.14511055e-006 1.39905801e-002
      -2.46824318e-004 -2.30686870e-004 9.91489971e-004 -8.79263431e-002</_>
    <_>
      -1.21463418e-005 -3.25826149e-005 2.21288087e-006 1.58426701e-005
      3.98891325e-006 -4.69558327e-005 7.55421592e-009 -4.08911891e-003
      5.92091681e-007 3.03413515e-007 -1.50319397e-006 1.67009828e-004</_>
    <_>
      -1.06555047e-002 -1.52126858e-002 4.89841849e-002 7.21481964e-002
      -5.62674599e-003 -3.08868731e-003 -3.00826232e-005
      -1.96909048e-002 -1.62645441e-003 -1.90755539e-003 4.56932839e-003
      1.85369670e-001</_>
    <_>
      8.53067711e-002 -2.08335310e-001 2.00748250e-001 1.21567535e+000
      5.15778661e-001 1.63908851e+000 -5.20240236e-003 -2.51714215e-002
      -3.80750537e-001 -3.57202381e-001 8.48910630e-001 4.53810347e-003</_>
    <_>
      4.61488056e+000 7.20920414e-002 1.03260851e+000 3.17771971e-001
      -2.52866834e-001 -1.52537608e+000 -7.37357046e-003
      -5.07101901e-002 -6.59036219e-001 -7.66027093e-001 1.76956487e+000
      4.75646406e-001</_>
    <_>
      -1.22454222e-002 -1.86072662e-002 5.41545171e-003 1.35463439e-002
      5.96269080e-003 -7.07005057e-003 -5.13108944e-006 -7.01485202e-002
      -4.22970392e-004 -4.82703617e-004 8.20641289e-004 -4.21855040e-003</_>
    <_>
      5.09876907e-001 7.75032956e-003 7.16679916e-002 1.37881935e+000
      1.71898201e-001 1.26628876e+000 -2.82484735e-003 -1.96368247e-002
      -2.10493222e-001 -1.94251239e-001 5.18440843e-001 -7.06690252e-002</_>
    <_>
      6.55436772e-004 5.77904226e-004 -9.24230029e-004 5.57576539e-004
      2.61886744e-004 1.79104740e-004 -2.51657667e-007 -2.17292160e-002
      -1.69834657e-005 -2.04660028e-005 5.37164997e-005 -7.59926479e-005</_>
    <_>
      -1.94577247e-001 -1.41107425e-001 1.57231599e-001 9.78731453e-001
      3.33476216e-001 1.28775203e+000 -3.31725739e-002 -1.44793373e-002
      -3.42635632e+000 -3.32422328e+000 6.86222315e+000 -6.33024350e-002</_>
    <_>
      3.83976996e-001 -1.10046126e-001 -3.74256819e-002 3.76168132e-001
      3.85954194e-002 1.26581073e-001 -2.54640356e-004 -7.81166367e-003
      -2.18428876e-002 -2.30833292e-002 4.67971042e-002 -3.29873525e-002</_>
    <_>
      9.18931386e-004 -3.48713133e-004 -5.69835101e-005 6.53903699e-004
      3.55539843e-004 9.12797987e-005 -9.02822080e-007 3.39676393e-003
      -3.56187011e-005 -3.23070417e-005 7.56117588e-005 -1.98138729e-002</_>
    <_>
      9.57356708e-004 -5.90082665e-004 -1.24697064e-004 1.12623580e-004
      3.29711678e-004 -5.64545844e-005 -5.09947711e-007 6.88780611e-003
      -2.64308164e-005 -2.54636379e-005 6.12368676e-005 -1.64852981e-002</_>
    <_>
      8.18926550e-004 -1.47104249e-004 5.95329657e-005 4.20731405e-004
      2.64374248e-004 -1.30832283e-004 -3.59964076e-007 5.68300905e-003
      -1.63077657e-005 -1.55958915e-005 3.49080074e-005 -1.85613893e-002</_>
    <_>
      7.79789174e-004 -1.62589349e-004 -1.13122813e-004 3.39461956e-004
      2.21499533e-004 -4.29986940e-005 -2.68088399e-007 9.83374286e-003
      -2.12026534e-005 -1.93182368e-005 3.92137081e-005 -1.40827261e-002</_>
    <_>
      1.59567455e-003 -3.42475687e-004 -1.20143035e-004 5.25900163e-004
      6.52561139e-004 -8.01119604e-004 -1.74904585e-007 4.13646130e-003
      -3.55826342e-005 -2.85260903e-005 4.55231311e-005 -2.63154358e-002</_>
    <_>
      3.80077004e-003 -1.70396140e-003 -1.57228322e-004 8.12982908e-004
      3.31088726e-004 6.46999979e-004 -5.18735590e-007 3.72597575e-003
      -8.08529294e-005 -8.95874327e-005 1.30483400e-004 -3.40756439e-002</_>
    <_>
      3.26450821e-003 -6.47637807e-003 2.19933354e-004 -4.10620007e-004
      -2.10929220e-003 9.39996215e-004 1.49657382e-007 9.20673367e-003
      -5.55317783e-005 -3.69579502e-005 3.40856900e-006 -3.49214859e-002</_>
    <_>
      5.01245679e-003 -5.22599556e-004 3.53644064e-005 -8.23054288e-004
      7.29109743e-004 -1.63110450e-003 3.19627645e-007 -1.64946087e-003
      -1.33257790e-005 -9.92929927e-006 2.98967052e-007 -3.84605154e-002</_>
    <_>
      4.01616422e-003 -8.56104481e-004 -8.82669792e-006 -5.65434166e-004
      -8.52700439e-004 -5.61543508e-004 -4.61401044e-007
      -6.65407220e-004 -6.47745910e-005 -6.95413910e-005 1.11924201e-004
      -3.26443389e-002</_>
    <_>
      -8.79285038e-002 1.30464062e-002 -5.78062981e-002 4.22690995e-002
      4.48810793e-002 -3.37372646e-002 3.63989566e-005 -2.16234982e-001
      -6.10923511e-004 -1.10244297e-003 -4.03818861e-003 2.41193220e-001</_>
    <_>
      1.27271400e-003 -6.07136055e-004 -7.02580001e-005 1.00872472e-004
      2.64964619e-004 -8.12909682e-004 1.42532429e-006 -3.33874673e-003
      -8.60561249e-006 -1.28327520e-005 -1.67649792e-004
      -3.36656868e-002</_>
    <_>
      1.78881311e+000 4.16435331e-001 4.94952768e-001 5.90065755e-002
      -4.24219929e-002 4.62515324e-001 1.31962786e-003 1.85813005e-005
      -1.44728914e-001 -1.41364709e-001 8.03702772e-002 8.38669896e-001</_>
    <_>
      2.67437518e-001 3.37751061e-001 -6.08369820e-002 2.16308936e-001
      -4.28410619e-002 -1.22842118e-001 1.69960462e-004 -4.58950140e-002
      -1.78227562e-003 -4.29800479e-003 -1.08849974e-002 2.68756151e-001</_>
    <_>
      1.75950365e-004 4.79377166e-004 -3.29623086e-004 2.64878036e-004
      -4.56261943e-004 -3.55483964e-004 1.46972212e-007 -2.28891093e-002
      -1.04107294e-005 -1.66097016e-005 3.51961557e-006 4.12328960e-003</_>
    <_>
      6.10992953e-004 9.30602779e-004 -5.83556248e-005 5.42466587e-004
      -1.09895237e-003 -1.00375131e-004 1.84410482e-007 -2.54670046e-002
      -1.21511457e-005 -1.65850706e-005 -1.08279187e-006 2.60353321e-003</_>
    <_>
      3.30686241e-001 -3.89229983e-001 -1.13764137e-001 -1.42396037e-002
      -1.09221846e-001 6.35108575e-002 -4.12756577e-004 -3.97522449e-002
      -9.53528751e-003 -1.00826975e-002 3.61190476e-002 5.13973646e-002</_>
    <_>
      1.26062319e-001 -1.26294866e-001 -1.78439275e-003 -3.66841294e-002
      -4.33087088e-002 2.74033248e-002 -1.15908384e-004 -2.05700379e-002
      -3.54595925e-003 -3.99255753e-003 1.13373697e-002 2.46018216e-001</_>
    <_>
      7.16002360e-002 5.92270680e-002 4.30606399e-003 -5.66778071e-002
      -6.90583885e-002 -2.26794742e-002 2.32505354e-005 -3.33464555e-002
      -1.52192859e-003 -1.43056340e-003 -7.73810083e-004 2.91310430e-001</_>
    <_>
      2.86518992e-003 2.07138881e-002 -2.32591364e-003 -1.06761139e-002
      -3.30448598e-002 1.73605680e-002 -4.94538972e-006 -4.47871163e-002
      -7.90231978e-004 -6.95559429e-004 1.77322328e-003 2.14601189e-001</_>
    <_>
      1.71994209e+000 1.88972950e-001 4.40749049e-001 2.26114273e+000
      1.00957298e+000 6.39442146e-001 -4.78984229e-003 -9.56876948e-002
      -2.63649523e-001 -2.51928061e-001 7.16705739e-001 -3.47259194e-001</_>
    <_>
      3.56163532e-002 7.24722631e-003 -2.77583338e-002 -3.97639489e-003
      1.51587985e-002 -5.09790704e-003 1.51946342e-005 -1.27469122e-001
      -1.99602087e-004 -2.37638342e-005 -7.57332542e-004 1.10239394e-001</_>
    <_>
      3.44157887e+000 6.11684680e-001 6.26809657e-001 9.74654377e-001
      -2.43755269e+000 -3.96699905e+000 6.78248480e-002 -1.77780446e-002
      -3.95977139e+000 -4.43761778e+000 1.27471423e+000 -3.81944925e-001</_>
    <_>
      -1.69349187e-005 -1.23224954e-005 -7.85040447e-006
      -1.73881415e-006 -5.00139367e-006 -2.02055617e-005 1.03911271e-008
      -2.73313490e-003 3.40808327e-007 2.49797097e-007 -1.48709591e-006
      1.21702338e-004</_>
    <_>
      -1.66956481e-004 2.53198581e-004 -2.10762533e-004 4.39796859e-005
      -8.30551435e-005 -3.66744061e-005 1.76530808e-008 -1.07347239e-002
      -3.22572987e-006 -2.45361525e-006 1.24960297e-006 1.72986940e-003</_>
    <_>
      3.16094304e-003 -1.62201002e-002 -2.04579299e-003 2.21050414e-003
      -4.30311961e-003 2.38443608e-003 -2.03051150e-006 -5.91592044e-002
      -2.74824037e-004 -2.97330320e-004 3.76810640e-004 2.04996467e-002</_>
    <_>
      1.73461027e-002 -7.13774934e-002 -2.33933665e-002 5.00112819e-003
      -1.45205213e-002 -7.46000977e-003 1.07817641e-005 -9.07502510e-003
      -6.30194438e-004 -6.76531112e-004 -6.25229441e-004 1.30387157e-001</_>
    <_>
      -2.06185854e-004 -1.65388410e-004 -1.32754412e-005 6.64846884e-005
      7.49715309e-006 -6.33923482e-005 2.38216602e-009 -7.48106092e-003
      -3.56912892e-006 -3.86904730e-006 1.91871004e-006 3.11752345e-004</_>
    <_>
      3.55945118e-002 -9.57380459e-002 -2.38993615e-002 5.99920284e-003
      -2.85659134e-002 3.05354316e-002 -2.14342003e-006 -7.32606184e-003
      -2.38946243e-003 -2.41491152e-003 2.40139454e-003 1.74885735e-001</_>
    <_>
      -5.55922543e-006 5.44175091e-005 -1.12234440e-004 -7.67613741e-008
      -1.26925997e-005 1.72636828e-005 1.45762140e-008 -5.98290004e-003
      -9.19123579e-007 -1.00052421e-006 1.56072119e-007 2.19757057e-004</_>
    <_>
      2.23387666e-002 -1.18604258e-001 -1.68857053e-002 1.07266847e-002
      -3.81910764e-002 9.88195837e-003 1.17383206e-005 -2.21563764e-002
      -1.64804654e-003 -1.42650097e-003 4.92743857e-004 1.22420564e-001</_>
    <_>
      -2.85261194e-004 -5.92371728e-003 -2.70251115e-003 1.68672390e-003
      -9.16503079e-004 -4.44092992e-004 4.44391652e-008 -3.46588381e-002
      -7.97722387e-005 -7.87938770e-005 6.91505265e-005 6.22014282e-003</_>
    <_>
      4.98791982e-004 5.76077087e-004 -1.55706992e-004 8.58588086e-004
      7.69378617e-004 -1.93129221e-004 1.53653150e-006 5.38729969e-003
      -5.92853285e-005 -6.15707031e-005 -7.24328565e-005
      -3.14868428e-002</_>
    <_>
      1.03392487e-003 5.26847260e-004 -1.43496203e-004 6.73262635e-004
      -1.16164105e-004 -6.36835059e-004 1.53341978e-006 1.07444171e-002
      -6.99757948e-005 -8.00716953e-005 -5.15348656e-005
      -3.48025225e-002</_>
    <_>
      8.58820160e-004 8.72264791e-004 -4.08939304e-005 7.05092854e-004
      7.04466482e-004 -1.15643581e-003 2.27211763e-006 9.88580007e-003
      -6.38610945e-005 -6.37422272e-005 -1.39523312e-004
      -3.76925580e-002</_>
    <_>
      5.19725145e-004 1.06678950e-003 -4.43968456e-004 -4.46528342e-004
      3.37607402e-004 -6.65141793e-004 2.89923628e-006 1.59979016e-002
      -5.45246476e-005 -6.81697202e-005 -2.03589996e-004
      -4.02324535e-002</_>
    <_>
      1.03918172e-003 2.52634727e-005 -3.21633939e-004 4.16757139e-005
      2.26860298e-004 -1.64207057e-004 1.02324157e-006 -2.30088411e-003
      -4.64224031e-005 -4.48903047e-005 -5.36920743e-005
      -3.65864933e-002</_>
    <_>
      2.79311393e-003 -2.09990816e-004 3.82513099e-004 3.85632884e-005
      -1.70111936e-003 5.97774982e-004 1.16124329e-006 -2.82930140e-003
      -1.24384009e-004 -1.11065368e-004 -3.37614233e-006
      -4.66225781e-002</_>
    <_>
      1.59119687e-003 -1.68408733e-002 -4.30324697e-004 -6.59789750e-003
      -6.29528658e-003 5.05699776e-003 7.88427587e-006 1.89320199e-004
      -1.80672301e-004 -1.77577123e-004 -6.22111198e-004
      -7.11667687e-002</_>
    <_>
      8.65590351e-004 3.71465692e-004 7.26520811e-005 -5.34286555e-005
      2.43514747e-004 -9.47813212e-004 5.28819953e-007 -1.81419253e-002
      -3.36137055e-006 -2.56186217e-006 -5.11484104e-005
      -1.20740933e-002</_>
    <_>
      1.58653758e-003 -1.37272968e-006 5.73751131e-005 -1.16198920e-004
      -3.31727089e-004 -9.23307613e-004 2.83979716e-007 -1.03624705e-002
      -4.41313750e-005 -5.09262645e-005 2.53378948e-006 -2.47717425e-002</_>
    <_>
      1.24343950e-003 -7.98839086e-004 1.88763684e-003 1.03392685e-003
      1.04750961e-003 -3.07452492e-003 1.48317690e-006 -4.00385214e-003
      9.61813275e-005 8.82241729e-005 -2.59541644e-004 -4.07764763e-002</_>
    <_>
      2.01485634e-001 8.22307616e-002 7.41256699e-002 3.81027497e-002
      -7.16809034e-002 4.95459605e-003 -6.93449692e-005 1.35933980e-001
      -2.61208462e-003 -1.93848624e-003 9.24835354e-003 -1.52535915e-001</_>
    <_>
      7.49544144e-001 3.48631173e-001 2.01883316e-002 2.16611579e-001
      3.29335868e-001 -6.40208304e-001 -1.39953420e-001 -5.31039760e-003
      -1.93892789e+000 -1.73320997e+000 1.24039955e+001 1.32171065e-001</_>
    <_>
      1.21882796e+000 2.87442058e-001 6.95359483e-002 4.19912994e-001
      -4.28422451e-001 -3.61503869e-001 -1.25128042e-003
      -4.38004956e-002 -8.10816437e-002 -7.35361651e-002 1.66591242e-001
      1.97293609e-001</_>
    <_>
      7.31217384e-001 3.59873325e-002 3.30707401e-001 2.15098932e-001
      -2.44098961e-001 1.66899905e-001 -5.36240987e-004 -2.50412188e-002
      -3.01883239e-002 -2.97890510e-002 7.14253858e-002 1.81697160e-001</_>
    <_>
      1.57221556e+000 -8.19556601e-003 5.87079823e-001 6.55556917e-001
      2.21899986e-001 -7.14866400e-001 -4.13360773e-003 -2.02547237e-002
      -1.15395799e-001 -9.25868303e-002 4.54830855e-001 -2.21823901e-001</_>
    <_>
      2.88807273e+000 1.87003285e-001 7.63990939e-001 1.96066368e+000
      -8.17584097e-001 -8.71314481e-002 -2.41143778e-002
      -3.86273041e-002 -5.49958229e-001 -5.48179150e-001 2.31536961e+000
      1.32190287e-001</_>
    <_>
      2.88083315e+000 7.60350347e-001 1.60978889e+000 -3.50058526e-001
      2.50907123e-001 1.27158210e-001 -1.20484613e-001 -1.70578044e-002
      -3.34114552e+000 -3.34643316e+000 8.94068050e+000 2.07020253e-001</_>
    <_>
      7.24353492e-002 -3.80618513e-001 1.52433217e-001 2.19208807e-001
      -5.52574210e-002 8.82950664e-001 -1.12466834e-001 3.31913703e-003
      -2.02649283e+000 -2.60254431e+000 1.12211685e+001 1.15914546e-001</_>
    <_>
      8.57361555e-001 1.74746171e-001 1.30271405e-001 4.79939610e-001
      3.66813247e-003 -4.67872053e-001 -4.04584280e-004 6.80366158e-003
      -4.09922143e-003 -9.45219435e-005 6.24947362e-002 -9.92776304e-002</_>
    <_>
      2.43416095e+000 5.35350978e-001 1.36547196e+000 -1.22959697e+000
      5.14303863e-001 -1.28330088e+000 -4.16286197e-003 -2.62190737e-002
      -1.44627422e-001 -1.74280375e-001 6.03993952e-001 -2.79746260e-002</_>
    <_>
      3.30845892e-001 1.06531970e-001 1.07554615e-001 2.41667889e-002
      -5.50401285e-002 -1.02231711e-001 6.03850676e-005 4.43326645e-002
      -1.68441655e-003 -2.25609331e-003 5.15842298e-003 -2.76158720e-001</_>
    <_>
      -1.38562464e-005 -3.65160486e-005 3.03320621e-006 9.84575036e-006
      -4.04589809e-006 -3.29480681e-005 4.98015762e-009 -3.57347657e-003
      1.96584438e-007 1.65433278e-007 -1.10718554e-006 1.23055142e-004</_>
    <_>
      -2.51518982e-003 1.00898268e-002 -5.36859827e-003 1.49119189e-002
      -3.79820750e-003 -2.03188509e-003 -9.22153413e-006
      -5.45263402e-002 -6.23119646e-004 -4.46788006e-004 1.33112620e-003
      8.66090953e-002</_>
    <_>
      5.80526471e-001 -3.71294498e-001 7.22364336e-002 1.21156670e-001
      -3.09351683e-001 4.12909508e-001 -8.49948148e-004 -3.23543772e-002
      -6.92944601e-002 -5.89870848e-002 1.24867827e-001 2.19967127e-001</_>
    <_>
      2.35252070e+000 -8.82949412e-001 2.23862156e-001 5.50824404e-001
      1.04028010e+000 7.00901330e-001 -2.01834738e-003 -5.37178256e-002
      -1.95780888e-001 -1.14936881e-001 3.09367687e-001 7.32942283e-001</_>
    <_>
      -1.08586345e-003 -1.80929853e-003 4.56943846e-004 9.52011032e-004
      2.11291946e-004 -4.38248564e-004 -4.16357523e-007 -2.07214840e-002
      -4.08103260e-005 -3.89033376e-005 6.36791156e-005 -4.71071893e-004</_>
    <_>
      5.53121448e-001 -2.51052886e-001 4.37235355e-001 1.93625760e+000
      -5.79598188e-001 2.94639516e+000 -3.93051049e-003 -4.49974015e-002
      -6.77462935e-001 -6.12260818e-001 9.75669920e-001 7.97161385e-002</_>
    <_>
      1.55184985e-004 4.67009486e-005 -2.79531028e-004 1.51607790e-004
      -3.37558703e-007 9.15721685e-005 -8.97717314e-008 -1.23066194e-002
      -8.45682007e-006 -7.32715762e-006 1.76495487e-005 -7.67862366e-005</_>
    <_>
      -1.32907405e-001 -1.82474181e-001 4.78146039e-003 4.36734557e-001
      1.92918986e-001 9.14094806e-001 -1.68167409e-002 -5.64922206e-003
      -5.04056168e+000 -4.76452923e+000 5.03166723e+000 4.18531224e-002</_>
    <_>
      4.86162841e-001 -3.87542486e-001 -1.55115256e-003 2.95274496e-001
      1.59466550e-001 2.63428181e-001 -3.14445904e-004 -2.62504071e-002
      -3.34379040e-002 -3.42451483e-002 5.68521470e-002 9.22375917e-002</_>
    <_>
      1.19513751e-003 1.77654176e-004 1.15583527e-004 5.62709349e-004
      2.00939467e-004 1.23677208e-004 -6.32741376e-007 4.21325397e-003
      -4.03565209e-005 -3.88172775e-005 5.25421783e-005 -2.46098433e-002</_>
    <_>
      1.29515619e-003 -3.54157761e-004 1.66017890e-005 -1.62014883e-004
      2.39811619e-004 -1.07640633e-004 -1.48980376e-007 8.61128606e-003
      -2.94488163e-005 -3.18325110e-005 4.17710871e-005 -2.06217337e-002</_>
    <_>
      1.09653885e-003 4.13655653e-004 2.75530183e-004 2.48720520e-004
      7.61068950e-005 -2.24414980e-004 5.08120479e-008 7.15077342e-003
      -1.39698986e-005 -1.56106526e-005 -2.09557626e-007
      -2.33560558e-002</_>
    <_>
      1.06540276e-003 2.40499125e-004 -3.56652126e-005 2.03145071e-004
      7.20849566e-005 -8.86397029e-005 3.38821344e-008 1.11829042e-002
      -2.30603709e-005 -2.24689284e-005 1.85735862e-005 -1.85279939e-002</_>
    <_>
      2.33848230e-003 8.00522626e-004 1.55375674e-004 1.10258297e-004
      5.88168274e-004 -1.46986311e-003 9.54336997e-007 5.55088231e-003
      -3.53037431e-005 -2.91125907e-005 -3.53431133e-005
      -3.52749862e-002</_>
    <_>
      4.77868831e-003 2.18522720e-004 6.46744389e-004 5.57553256e-004
      -5.79147250e-004 -1.07547086e-004 1.27933549e-006 1.96615816e-003
      -9.83537902e-005 -1.01341291e-004 6.80616859e-006 -4.52719629e-002</_>
    <_>
      6.71306904e-003 -1.39802620e-002 1.55408191e-003 -3.71139706e-003
      -7.41692865e-003 2.77792104e-003 3.97789790e-006 1.41098415e-002
      -5.53965256e-005 -2.36226315e-005 -3.43164313e-004
      -5.43439686e-002</_>
    <_>
      3.44721973e-003 1.02678174e-003 1.14350719e-003 5.55039915e-005
      5.14454674e-004 -2.95147323e-003 1.46501179e-006 -2.35509616e-003
      -8.53142978e-007 6.84684210e-006 -1.42405115e-004 -3.88717167e-002</_>
    <_>
      3.45646357e-003 -3.78705561e-004 7.63020013e-004 -5.97719569e-004
      -1.20746554e-003 -1.81223161e-003 3.61556204e-007 -2.04267632e-003
      -6.24054810e-005 -7.06841965e-005 1.29818263e-005 -3.41239646e-002</_>
    <_>
      6.65088417e-004 3.15487501e-004 -1.53193047e-004 6.37953053e-004
      1.05046696e-004 5.23936935e-004 -1.94371023e-006 3.42078833e-003
      -2.90984499e-005 -1.46675920e-005 2.64313043e-004 3.45862769e-002</_>
    <_>
      -5.96798549e-004 2.05763819e-004 1.64889568e-003 4.24846978e-004
      2.23552670e-005 2.26581912e-003 -2.65979793e-006 1.29485072e-003
      -1.44390680e-004 -1.44325997e-004 3.70178896e-004 4.58511598e-002</_>
    <_>
      -2.45715980e-003 2.76263244e-003 2.77164392e-004 3.41914408e-003
      -2.92895315e-003 -2.56716914e-004 -3.31012734e-006 1.26069353e-003
      -1.95127548e-004 -1.75820926e-004 4.68738785e-004 4.70990129e-002</_>
    <_>
      1.41237781e-003 2.24206760e-003 1.88736501e-003 7.93562231e-006
      -4.11538547e-003 4.00157951e-005 -2.83413033e-006 8.91104457e-004
      -1.94438107e-004 -2.01960924e-004 4.50188643e-004 4.28765714e-002</_>
    <_>
      5.05816424e-004 4.17624740e-003 -1.36910554e-003 5.23729832e-004
      -3.58380354e-003 2.37684068e-003 -9.30705664e-006 5.04745124e-003
      -2.96648795e-004 -2.85231479e-004 9.83868493e-004 5.37903160e-002</_>
    <_>
      7.34658170e-006 6.24684105e-003 4.18789778e-003 -1.64970479e-004
      -3.00560496e-003 -5.59877604e-004 -6.42820078e-006 1.33816339e-003
      -2.82527704e-004 -2.89835705e-004 7.64333527e-004 5.10117486e-002</_>
    <_>
      -2.08936501e-004 1.11048203e-003 1.07276440e-003 -8.46345138e-005
      -3.14027944e-004 2.21965718e-003 -3.15013017e-006 4.62577213e-003
      -1.57366696e-004 -1.61033255e-004 4.48902196e-004 4.68800701e-002</_>
    <_>
      -1.57739734e-003 5.63348178e-004 1.22744602e-003 -5.27260010e-004
      -5.49045333e-004 1.99319981e-003 -1.85310500e-006 3.49983247e-003
      -5.14179446e-005 -3.62283099e-005 2.54430866e-004 3.54566947e-002</_>
    <_>
      3.92226997e-004 3.98906122e-004 5.14681626e-004 -1.74066474e-004
      4.22632875e-004 1.00779627e-003 -4.59578814e-006 4.70380578e-003
      -8.54732789e-005 -7.84361400e-005 5.60699031e-004 4.75320369e-002</_>
    <_>
      -3.54484073e-004 3.97770200e-004 -9.86009836e-004 1.64507015e-004
      -1.30312343e-003 4.03145840e-003 -3.37272922e-006 3.95441800e-003
      -1.98164984e-004 -2.03021380e-004 5.32167032e-004 5.12451157e-002</_>
    <_>
      2.65846215e-003 5.41773858e-004 8.17405351e-004 5.43779679e-005
      1.17477437e-003 3.96625744e-003 -7.23557741e-006 7.10600661e-003
      -3.06554197e-004 -3.32892727e-004 1.19426032e-003 7.22715333e-002</_>
    <_>
      -1.32142857e-003 -6.71849994e-004 -6.55395736e-004 5.40876936e-005
      -1.59353029e-003 1.84627934e-004 -1.13473035e-007 -1.24587829e-003
      -3.85422682e-005 -3.98123775e-005 3.94532726e-005 2.89481748e-002</_>
    <_>
      -1.07108790e-003 1.34862517e-003 -1.93870394e-003 1.95877394e-003
      -7.43930344e-004 1.50047627e-003 -1.55627583e-006 1.13104109e-003
      -1.71724620e-004 -1.55684102e-004 2.97103892e-004 3.98040712e-002</_>
    <_>
      1.40127505e-003 -6.11869711e-003 -5.65681513e-003 4.98607056e-004
      -2.69904453e-003 4.25515091e-003 -2.98545933e-006 4.48736502e-003
      -2.85165181e-004 -2.86709052e-004 5.47912554e-004 4.67839465e-002</_>
    <_>
      -1.06326980e-003 -2.52657407e-003 2.21040915e-003 -8.58551997e-004
      -1.20269472e-003 1.98624190e-003 -1.71137333e-006 1.16144645e-003
      -1.45050639e-004 -1.49417654e-004 2.72747420e-004 3.97551320e-002</_>
    <_>
      -6.90630544e-003 -1.87740976e-003 1.27958588e-003 3.84295825e-004
      -7.52459629e-004 1.95373432e-003 -2.36582582e-006 -3.10717878e-004
      -2.83084082e-004 -2.44988187e-004 4.21278819e-004 4.40246239e-002</_>
    <_>
      -1.08929374e-003 2.42769322e-003 7.67656486e-004 3.06501705e-003
      -7.80761614e-003 3.23325209e-003 -3.34382457e-006 1.29147561e-003
      -2.69787939e-004 -2.46886280e-004 5.81455824e-004 4.52570580e-002</_>
    <_>
      -3.83135909e-003 1.89599744e-003 -8.82435823e-004 2.26976606e-003
      -1.61066232e-003 2.45703198e-003 -2.01738635e-006 -5.85725182e-004
      -2.10735830e-004 -2.06769109e-004 4.17526957e-004 4.27742936e-002</_>
    <_>
      -6.63728779e-003 7.95985851e-003 2.07870337e-003 -4.71561123e-003
      -1.31780130e-003 4.69931541e-003 -1.95379721e-006 4.58117982e-004
      -2.80994951e-004 -2.81928194e-004 4.10495733e-004 5.14488555e-002</_>
    <_>
      1.65491900e-003 5.25738904e-003 -5.55457966e-003 3.02211591e-003
      -4.25949087e-003 3.17922537e-003 -2.82811993e-006 1.34441396e-003
      -3.32136085e-004 -3.21618369e-004 5.49044053e-004 4.77746204e-002</_>
    <_>
      8.52497160e-001 2.45863140e-001 1.48369884e+000 1.75596189e+000
      1.61089802e+000 1.78573239e+000 -1.32943727e-002 -4.58515342e-003
      -2.30795488e-001 -1.13865711e-001 1.45743191e+000 -8.22006017e-002</_>
    <_>
      2.26791072e+000 1.02656364e+000 2.90376514e-001 -3.47597927e-001
      7.04650104e-001 4.74902451e-001 -2.55792532e-002 3.70142679e-003
      -6.00352660e-002 -1.08399503e-001 2.74969745e+000 -1.18964044e-002</_>
    <_>
      2.39889026e-001 2.27823988e-001 3.56936604e-002 -1.23903766e-001
      1.35936305e-001 -1.81644000e-002 9.77957435e-003 3.33596696e-003
      1.99848270e+000 1.79993200e+000 1.26656318e+000 -1.55151896e-002</_>
    <_>
      6.71354532e-001 1.48753011e+000 4.62900177e-002 -1.41094577e+000
      8.07333171e-001 -7.09060133e-001 -5.72063923e-002 2.32601315e-002
      4.24588948e-001 8.41385961e-001 7.22630262e+000 -5.97036667e-002</_>
    <_>
      3.26308584e+000 1.74698472e+000 -1.86407194e-001 -1.72606158e+000
      9.45261419e-001 -3.99493515e-001 -4.14633565e-002 -1.33009930e-003
      2.67471224e-001 2.10995883e-001 5.51508617e+000 1.01932280e-001</_>
    <_>
      3.45289922e+000 1.24568212e+000 2.77251691e-001 -7.01476634e-001
      5.20845771e-001 3.84083003e-001 -2.30043456e-002 -4.65573184e-003
      -2.53031641e-001 -6.06801026e-002 3.05325723e+000 5.11119440e-002</_>
    <_>
      1.96574524e-001 -7.89968893e-002 7.22948834e-002 6.62515834e-002
      -3.19593213e-002 6.43792972e-002 4.14473899e-002 2.37594638e-002
      -1.08833921e+000 -6.48062766e-001 -2.73117751e-001
      -9.07962304e-003</_>
    <_>
      1.44880426e+000 4.54456180e-001 1.23568684e-001 -7.40586102e-001
      -1.91359907e-001 -7.91032195e-001 -1.52496737e-004
      -1.49275828e-003 -4.40889746e-002 -3.20739262e-002 1.77163884e-001
      -8.82593021e-002</_>
    <_>
      1.58451736e+000 6.28032565e-001 1.30854174e-001 -5.81628442e-001
      -1.69240505e-001 -4.21688676e-001 -2.39589764e-003
      -4.33628913e-003 -6.06050119e-002 -5.60127050e-002 4.26952839e-001
      -1.04962729e-001</_>
    <_>
      -6.01021826e-001 1.73790708e-001 -7.93867886e-001 -4.78485338e-002
      3.02725822e-001 -2.06474617e-001 1.47536502e-003 -1.18363947e-001
      4.14965227e-002 2.41458751e-002 -1.47690788e-001 6.25699043e-001</_>
    <_>
      -5.29815792e-004 -1.52287294e-005 -4.94198175e-004
      -1.27493287e-004 -2.85318849e-004 -2.43307179e-004 3.83823448e-007
      -2.33256593e-002 6.84344423e-006 -1.02398303e-006 -3.02979261e-005
      4.15854622e-003</_>
    <_>
      -2.32857958e-004 3.44797591e-004 -2.46862677e-004 7.45028083e-005
      -9.17074911e-004 4.86610406e-005 4.75138279e-007 -2.60604024e-002
      8.88130580e-006 2.49986101e-006 -4.26167062e-005 2.57077557e-003</_>
    <_>
      -3.96684334e-002 -3.81976962e-001 -1.28553897e-001
      -1.49668097e-001 -1.33244410e-001 1.78354710e-001 -3.93947674e-004
      -5.82388341e-002 -9.81188961e-004 5.79208077e-004 2.54502594e-002
      1.08757496e-001</_>
    <_>
      -1.10431239e-002 -2.79703230e-001 2.48599332e-002 -1.64988980e-001
      7.65033439e-002 9.92317349e-002 -3.32474068e-004 -3.21747027e-002
      -1.93444092e-003 -9.95390117e-004 2.69113220e-002 2.26755604e-001</_>
    <_>
      -1.71823949e-001 -7.44169652e-002 -7.88789392e-002
      -2.75428593e-001 2.40867346e-004 9.04929489e-002 -3.14852332e-005
      -5.30016944e-002 2.42934190e-003 3.22511885e-003 1.51718152e-003
      2.93064237e-001</_>
    <_>
      -7.18725398e-002 -2.27146130e-003 -2.59265956e-002
      -4.21441570e-002 -2.67133638e-002 2.88251396e-002 1.18371481e-005
      -4.22827452e-002 8.10085738e-004 7.76003290e-004 -1.01717818e-003
      2.04370499e-001</_>
    <_>
      -1.76677120e+000 -1.03007724e-005 -7.27366686e-001 9.04188454e-002
      4.42131251e-001 -1.22137882e-001 -2.88109435e-003 -4.72625606e-002
      2.15127058e-002 3.60981487e-002 2.00446978e-001 -4.06604260e-001</_>
    <_>
      -4.20879154e-003 -2.59289779e-002 -4.49573360e-002
      -3.23892608e-002 3.17113288e-002 2.21048272e-003 3.47030473e-005
      -1.29855290e-001 9.54627234e-004 1.07580598e-003 -3.25853773e-003
      1.29160061e-001</_>
    <_>
      -1.92663705e+000 -4.63665202e-002 -2.46272475e-001 1.66380137e-001
      7.97172636e-002 -4.04838705e+000 -8.14596540e-004 5.78055978e-002
      3.33351046e-002 8.18864182e-002 2.53461510e-001 -6.81108177e-001</_>
    <_>
      -2.65312792e-005 -1.92286698e-005 -9.91772595e-006
      -7.12642122e-006 -2.50638823e-006 -1.86095931e-005 1.35273197e-008
      -2.73868628e-003 5.78187098e-007 4.67607776e-007 -1.94722065e-006
      1.20599652e-004</_>
    <_>
      -3.22325446e-004 1.47679806e-004 -2.46899901e-004 -4.14402239e-005
      -4.41706252e-005 -1.04056307e-005 6.74883864e-008 -1.08245760e-002
      4.98819418e-007 9.76565957e-007 -5.99977329e-006 1.73333171e-003</_>
    <_>
      -2.34724325e-003 -2.14561652e-002 -3.40961898e-003
      -8.71105643e-004 -3.08729429e-003 3.55753792e-003 -3.10988810e-007
      -5.98179288e-002 -1.51906192e-004 -1.87496582e-004 1.29867592e-004
      2.09467299e-002</_>
    <_>
      -2.01341175e-002 -1.17849834e-001 -2.47098990e-002
      -7.40034925e-003 8.63254536e-003 6.49054721e-003 6.32200272e-006
      -2.08182223e-002 -3.58927879e-004 -1.05424107e-004
      -7.08072330e-004 1.15967929e-001</_>
    <_>
      -2.80287204e-004 -2.18892950e-004 -2.87780094e-005 2.65763811e-005
      2.65652234e-005 -5.13917366e-005 2.57586166e-008 -7.51763862e-003
      -1.82574740e-006 -2.27373630e-006 -1.48803485e-006 3.02964763e-004</_>
    <_>
      -4.30534035e-002 -2.13225052e-001 -3.43799256e-002
      -4.43319269e-002 -1.39406780e-002 9.30699557e-002 -4.11697183e-005
      -1.42664872e-002 -2.39169621e-003 -1.54951960e-003 5.78442635e-003
      1.21617064e-001</_>
    <_>
      -5.14733147e-005 2.19089688e-005 -1.23052916e-004 -2.59798635e-005
      -6.97845337e-007 2.55035957e-005 2.96014910e-008 -6.01002015e-003
      2.08551711e-007 3.40063337e-008 -2.02821320e-006 2.14041604e-004</_>
    <_>
      -1.64862908e-002 -1.25997603e-001 -1.22375982e-002
      -1.46390358e-002 -1.93676706e-002 1.71042904e-002 8.34323237e-006
      -1.95610318e-002 -6.24895620e-004 -4.21132369e-004 1.54940790e-004
      1.04854360e-001</_>
    <_>
      -1.99611881e-003 -7.39530474e-003 -3.17904656e-003 7.98175111e-004
      -5.06454206e-004 -1.63364050e-004 5.97956728e-007 -3.51040177e-002
      -4.10455432e-005 -4.34488429e-005 -8.90423780e-006 6.19589444e-003</_>
    <_>
      -5.13397572e-005 5.40940207e-004 -1.60287542e-004 3.88533314e-004
      1.39803742e-003 8.32551450e-005 6.32323463e-007 5.02807321e-003
      -3.28429196e-005 -4.04221755e-005 -4.10707653e-005
      -2.94046849e-002</_>
    <_>
      3.16340564e-004 2.59638851e-004 -1.52527209e-004 -9.40477257e-005
      9.95101291e-004 -2.35984349e-004 6.69805786e-007 1.01743564e-002
      -3.22674314e-005 -4.78000438e-005 -2.47388325e-005
      -3.04989256e-002</_>
    <_>
      -7.43031796e-006 8.22588627e-004 -3.08009840e-005 4.81398420e-005
      1.53826585e-003 -5.63824782e-004 1.08734230e-006 1.00654755e-002
      -1.93726755e-005 -2.83152804e-005 -9.35146891e-005
      -3.28655355e-002</_>
    <_>
      -1.00875564e-004 7.60592171e-004 -3.19740182e-004 -1.31898921e-003
      1.42410013e-003 -2.65830022e-004 4.83479994e-007 1.57306232e-002
      -1.25385004e-005 -3.27566231e-005 -6.58255085e-005
      -3.24018076e-002</_>
    <_>
      -7.83399330e-004 1.55491836e-003 7.97049288e-005 -1.10852649e-004
      9.82980710e-004 -9.65456013e-004 1.34448476e-006 2.21899507e-004
      -1.90095107e-005 -3.28382339e-005 -1.12345966e-004
      -3.72964256e-002</_>
    <_>
      -4.22130805e-004 1.80391734e-003 4.15383052e-004 -3.73480929e-004
      8.05323769e-004 -7.58395239e-004 2.29194961e-006 8.03162460e-004
      -4.90195598e-005 -6.33434465e-005 -1.70688407e-004
      -4.72121835e-002</_>
    <_>
      -1.85256498e-003 -1.30648129e-002 -1.94388931e-003
      -7.94184674e-003 -1.55430136e-003 4.57646651e-003 7.23521180e-006
      1.52950396e-003 -4.24631653e-005 -5.80644446e-005 -6.58346456e-004
      -6.94212690e-002</_>
    <_>
      2.67607102e-004 -6.49047070e-005 -5.77908686e-005 -4.04217135e-004
      4.12785070e-004 -8.61585839e-004 7.42506415e-007 -1.82103142e-002
      1.18862326e-005 1.14581935e-005 -8.18723856e-005 -1.24690756e-002</_>
    <_>
      6.82552753e-004 -6.79280609e-004 -1.33846974e-004 -6.55585434e-004
      -1.03587197e-004 -7.85189390e-004 5.84576526e-007 -1.04088029e-002
      -2.15940054e-005 -3.03741890e-005 -4.15424838e-005
      -2.48895846e-002</_>
    <_>
      2.91717589e-001 5.88785931e-002 -4.45376724e-001 -9.84144211e-003
      -6.35804057e-001 4.92377672e-003 -8.32445512e-005 -2.54333429e-002
      -9.26961843e-003 -1.25121986e-002 2.40891557e-002 1.53698772e-001</_>
    <_>
      3.50867867e-001 1.21680498e-001 -1.11581281e-001 4.68053557e-002
      -5.07872224e-001 2.09311470e-001 5.02799849e-005 -1.66083872e-002
      -6.77103037e-003 -8.25330149e-003 8.45697708e-003 8.72476324e-002</_>
    <_>
      2.10639372e-001 -1.12231828e-001 3.60415548e-001 -2.27929398e-001
      -7.18776345e-001 -5.16498983e-001 -4.95646037e-002
      -1.22321639e-002 -4.20398188e+000 -4.59568262e+000 9.32146072e+000
      -2.43541040e-002</_>
    <_>
      2.13003492e+000 1.01970136e-001 5.42062461e-001 3.63184899e-001
      -1.66266549e+000 8.57158601e-001 -9.31835771e-002 -3.65524925e-002
      -2.10347128e+000 -2.04025221e+000 8.30065250e+000 2.68590569e-001</_>
    <_>
      6.35295212e-002 1.47967469e-002 5.66974767e-002 -1.44687995e-001
      -1.51442830e-002 1.48212239e-001 8.37778021e-003 -1.89487881e-003
      -1.33629954e+000 -7.96360672e-001 -1.21752179e+000 5.82281873e-003</_>
    <_>
      -2.71476507e+000 -1.90455437e+000 8.47803950e-001 1.18200624e+000
      -1.67132413e+000 5.71476793e+000 -7.42604304e-003 -6.47246689e-002
      -4.81260896e-001 -3.50449502e-001 1.53176928e+000 1.93761155e-001</_>
    <_>
      -2.16969657e+000 -1.87263584e+000 1.99802625e+000 2.04687524e+000
      -1.38690388e+000 3.88786077e+000 -5.85781448e-002 3.50420810e-002
      -8.77255619e-001 -1.04243839e+000 5.92673683e+000 -1.52663279e+000</_>
    <_>
      2.79218006e+000 -1.51430523e+000 2.21430480e-001 -2.55309033e+000
      6.22717440e-001 1.18708611e+000 8.36207066e-003 -1.03595145e-002
      3.06059401e-002 7.49022886e-002 -2.98009604e-001 -4.61481899e-001</_>
    <_>
      1.00004543e-002 -7.32976347e-002 2.40745321e-002 -3.05345263e-002
      3.42334062e-002 -8.88770912e-003 -3.31948504e-005 5.13325073e-002
      -1.62381830e-003 -1.87540636e-003 5.96618047e-003 -3.17344934e-001</_>
    <_>
      -3.57161371e-005 -2.43250870e-005 -2.69120410e-005
      -5.28947885e-006 -1.88737486e-005 -2.55678042e-005 1.76161148e-008
      -3.78113962e-003 5.60130843e-007 4.77235403e-007 -2.48728293e-006
      2.02463649e-004</_>
    <_>
      -1.22878626e-002 9.79588088e-003 -1.31177446e-002 2.00270000e-003
      -1.30583048e-002 6.37276331e-003 4.59695116e-007 -1.17742671e-002
      -2.48220807e-004 -1.75984533e-004 2.26991120e-004 8.25831592e-002</_>
    <_>
      1.32810110e-002 -2.96611309e-001 -6.38050511e-002 -1.69296339e-002
      -3.83677304e-001 3.00282896e-001 -2.20463698e-004 -2.07818896e-002
      -2.75973566e-002 -2.40758769e-002 3.77806276e-002 1.80074945e-001</_>
    <_>
      1.63710445e-001 -5.25043666e-001 -3.06855798e-001 -3.02690655e-001
      -5.24553537e-001 5.17621815e-001 8.16855521e-004 -2.76373476e-002
      -1.25077739e-002 -1.35783358e-002 -6.25180677e-002 2.73908228e-001</_>
    <_>
      -3.71855334e-003 -2.85600917e-003 -1.01455883e-003 9.98769421e-004
      -4.90336504e-004 -2.02783514e-004 -1.11886166e-007
      -3.03053167e-002 -6.67740387e-005 -6.57866840e-005 5.66279523e-005
      3.25297657e-003</_>
    <_>
      1.67559594e-001 -3.83882493e-001 -8.15569796e-003 -1.18095591e-003
      -4.81199920e-001 1.08467722e+000 7.56184745e-004 -2.47966852e-002
      -6.25556633e-002 -5.78337647e-002 2.09486559e-002 2.20655918e-001</_>
    <_>
      -8.88634968e-005 3.40381259e-004 -9.17940226e-004 -3.21651751e-005
      -2.32369726e-004 3.24220717e-004 5.72165710e-008 -1.51644321e-002
      -7.44591171e-006 -6.49313006e-006 6.86031353e-006 9.24906810e-004</_>
    <_>
      -1.63488400e+000 -1.08342004e+000 -1.64752319e-001
      -3.47133994e-001 -9.15347815e-001 5.51440573e+000 5.09519503e-003
      -1.17639534e-001 -2.03703213e+000 -2.05820870e+000 1.78236926e+000
      9.31233943e-001</_>
    <_>
      3.55397873e-002 -4.04015720e-001 -1.01331770e-001 4.79195081e-002
      -2.70552367e-001 5.18738687e-001 -6.94426490e-005 -1.26627283e-002
      -2.96174120e-002 -2.90685892e-002 3.85697074e-002 8.09897408e-002</_>
    <_>
      5.49905119e-004 -6.89608685e-004 -2.65895302e-004 3.19860497e-004
      5.67161245e-004 5.21851063e-004 -7.96355494e-007 4.06794762e-003
      -4.00333847e-005 -4.21674449e-005 6.08346854e-005 -2.37124190e-002</_>
    <_>
      4.35987924e-004 -7.72649131e-004 1.48666644e-004 -3.87123233e-004
      5.39510860e-004 -7.00749588e-005 -2.90130941e-007 8.61461088e-003
      -3.32138297e-005 -3.44781292e-005 5.26149925e-005 -2.06390396e-002</_>
    <_>
      1.14353679e-004 -1.23735939e-004 3.33201053e-004 -3.82546641e-005
      4.00729361e-004 -1.68515297e-004 -3.06913734e-007 7.04973564e-003
      -2.03626587e-005 -1.84278251e-005 2.31398699e-005 -2.30063051e-002</_>
    <_>
      6.53722906e-004 3.67750647e-004 2.07077737e-005 1.94046734e-004
      -1.12197558e-004 -2.33103390e-004 3.00395584e-007 9.61340126e-003
      -2.11874922e-005 -1.98479574e-005 -7.77173318e-006
      -1.97585057e-002</_>
    <_>
      1.15809345e-003 -1.18841440e-003 -8.55328864e-004 -2.22065471e-004
      1.36783114e-003 -3.24821158e-004 3.34553135e-007 5.25339600e-003
      -3.62217725e-005 -4.06747131e-005 -4.21833647e-006
      -3.34645621e-002</_>
    <_>
      2.57041282e-003 -2.61570024e-003 -9.19327780e-004 -8.76364575e-005
      6.49177993e-004 1.35463197e-003 2.90809169e-007 1.84853701e-003
      -8.84389592e-005 -1.04604798e-004 4.43781792e-005 -4.14891243e-002</_>
    <_>
      5.30509104e-004 -1.61319636e-002 1.67314929e-003 -4.95501654e-003
      -4.86357044e-003 3.10680084e-003 1.60206821e-006 1.23237837e-002
      -6.96210482e-005 -2.27074761e-005 -2.04263459e-004
      -5.08737713e-002</_>
    <_>
      2.54380447e-003 3.17042868e-004 -1.22633274e-003 -1.63556729e-003
      -6.49188703e-004 -1.74424972e-003 1.44669445e-006 -1.70880242e-003
      -2.87130733e-005 -2.26269112e-005 -1.17828182e-004
      -4.00822461e-002</_>
    <_>
      1.90462871e-003 5.42190042e-004 -9.28428082e-004 -4.19679418e-004
      -1.76491484e-003 -2.92861281e-004 4.26589054e-007 -6.34367287e-004
      -6.85613413e-005 -6.38305064e-005 2.19907015e-005 -3.27550992e-002</_>
    <_>
      4.37197715e-001 -4.88102287e-002 1.56237274e-001 -3.51352155e-001
      -2.35918447e-001 -3.66787314e-001 1.56517625e-002 3.80040184e-002
      -6.76424503e-001 -8.68556857e-001 -1.10767514e-001 1.14535600e-001</_>
    <_>
      3.12104791e-001 -4.96639535e-002 -3.81104827e-001 6.71083331e-002
      9.01931942e-001 -7.94491827e-001 -1.16425613e-003 1.69809964e-002
      -7.29163503e-003 -3.32831219e-002 8.37186798e-002 -3.91217530e-001</_>
    <_>
      2.54647452e-002 1.90277714e-002 2.30108611e-002 -1.08414717e-001
      -5.89355752e-002 3.29836681e-002 -5.67816868e-002 -1.50361261e-003
      -8.90007377e-001 -1.60095692e+000 4.17511225e+000 -4.03730012e-002</_>
    <_>
      5.64796984e-001 1.93095013e-001 -5.90310097e-001 -2.02285528e+000
      1.78313434e+000 8.75376701e-001 4.08853684e-003 4.25573550e-002
      1.78075388e-001 9.04453248e-002 -5.31775534e-001 -7.75122494e-002</_>
    <_>
      -1.93248034e-001 -2.06991613e-001 -2.70972282e-001
      -1.79292113e-002 1.58212438e-001 3.38029303e-002 4.43988029e-005
      5.07492833e-002 2.16131913e-003 2.66188965e-003 -9.42440610e-003
      -2.01095715e-001</_>
    <_>
      1.47596397e-003 -3.74575239e-003 -1.97199406e-003 4.70697443e-004
      3.42453108e-003 2.03480595e-003 -3.24542589e-006 5.12037575e-002
      5.02814873e-005 1.01572936e-004 1.53521614e-004 -3.43587063e-002</_>
    <_>
      1.78560615e+000 -4.09844667e-002 3.58952343e-001 -6.71903193e-001
      8.02554846e-001 -4.85213190e-001 1.49545365e-003 6.02298370e-003
      6.25091270e-002 4.38594110e-002 -1.29855976e-001 -1.31702974e-001</_>
    <_>
      4.28460352e-003 -1.72143150e-002 -8.05196469e-004 -4.84333374e-003
      2.10573524e-002 -3.92076414e-004 6.73045588e-006 1.84772499e-002
      2.20661768e-005 -1.49215950e-004 -2.10742670e-004 -7.91304857e-002</_>
    <_>
      9.82177335e-006 -8.53646779e-005 -1.36816416e-005 -1.19824072e-004
      -3.91676804e-005 -9.26006251e-005 7.90776866e-008 -9.23760328e-003
      3.09948155e-006 2.59198191e-006 -1.31610159e-005 9.13995143e-004</_>
    <_>
      -6.55506194e-001 -1.45583153e-001 -3.70900840e-001 1.09545931e-001
      1.04801595e-001 1.75434375e+000 -9.24914093e-006 -9.12897009e-003
      -7.85611942e-002 -4.88159433e-002 4.49056886e-002 5.59711576e-001</_>
    <_>
      -4.28257793e-001 -8.17722874e-004 2.55966187e-001 1.06461716e+000
      7.49509871e-001 1.94301140e+000 -2.54010633e-002 9.43455938e-003
      -4.25404787e+000 -2.46072960e+000 4.83332872e+000 -1.29528433e-001</_>
    <_>
      3.97989631e-001 5.71476780e-002 1.17108814e-001 -2.10901514e-001
      -1.57393739e-002 2.09247768e-001 3.22699249e-002 1.17571680e-002
      -2.78304935e-001 -1.56382509e-002 -3.19029784e+000 4.34586518e-002</_>
    <_>
      -5.59539437e-001 -1.23511538e-001 -6.97507486e-002
      -4.09084558e-002 -1.52048528e-001 3.98650348e-001 -1.18619879e-004
      -9.03296750e-004 -2.84364130e-002 -2.73309071e-002 2.90405490e-002
      1.57795325e-002</_>
    <_>
      -2.60170370e-001 5.46142422e-002 -1.82851739e-002 2.40866452e-001
      -7.14510027e-003 8.57809126e-001 -2.52661458e-003 -3.37956543e-003
      -4.15835094e+000 -2.60347939e+000 4.35620117e+000 8.66519113e-004</_>
    <_>
      -5.01195550e-001 1.65114149e-001 -3.04130822e-001 2.59591222e-001
      2.32519180e-001 7.94702888e-001 4.47030579e-005 -3.15422029e-003
      -2.58101840e-002 -2.04782132e-002 2.91087683e-002 4.74977754e-002</_>
    <_>
      -3.61185133e-001 1.61424130e-002 -6.08081892e-002 5.12421690e-002
      1.52057007e-001 3.65208119e-001 7.52440887e-003 1.04264626e-002
      -2.02841854e+000 -2.07474279e+000 2.82766223e-001 -1.00529127e-001</_>
    <_>
      -2.13927999e-001 -3.25240612e-001 -3.20694327e-001 2.32556462e+000
      -2.70264357e-001 5.23615599e+000 8.53306986e-003 8.08574818e-003
      -1.43669140e+000 -1.24606836e+000 3.43173295e-001 1.77903667e-001</_>
    <_>
      1.54938709e-004 -8.73828714e-004 -1.74738714e-004 1.87532656e-004
      1.12875691e-003 1.70569227e-004 -6.36206437e-007 3.33849201e-003
      -2.34648833e-005 -2.77174877e-005 2.65223152e-005 -1.94559991e-002</_>
    <_>
      3.41966399e-004 -6.20533421e-004 -1.95401240e-004 -2.08100304e-004
      5.55327628e-004 3.14314420e-005 -4.00337626e-007 7.05180829e-003
      -1.29794089e-005 -1.23815544e-005 2.74616796e-005 -1.32165439e-002</_>
    <_>
      5.59732689e-005 -4.35770955e-004 -9.46789351e-006 -2.99598178e-005
      8.40277935e-004 -4.04132879e-005 1.59763360e-007 6.02338929e-003
      1.11210841e-006 -5.79164453e-006 -2.29026391e-005 -1.62657555e-002</_>
    <_>
      2.10968850e-004 -6.20637002e-005 4.62215721e-005 2.70730670e-005
      2.41915375e-004 3.95943352e-005 -4.30355200e-008 9.91674140e-003
      -6.86027079e-006 -5.53400014e-006 5.23863355e-006 -8.29486735e-003</_>
    <_>
      4.73867636e-004 -1.15143252e-003 -2.03776974e-004 -4.94982989e-004
      1.70139479e-003 -6.57142780e-004 1.06628863e-006 4.08774614e-003
      -1.21802113e-005 -2.08934453e-005 -7.84250078e-005
      -2.60888841e-002</_>
    <_>
      1.31886487e-003 -2.65315804e-003 -3.52226052e-004 -1.72746164e-004
      2.71216431e-003 3.83680337e-004 1.28874717e-006 1.07279690e-002
      -4.59210714e-005 -7.25535137e-005 -5.84183144e-005
      -3.12511101e-002</_>
    <_>
      1.15702231e-003 -3.78838391e-003 7.12308538e-005 -1.12239190e-003
      6.26480614e-004 9.40427417e-005 1.60239540e-006 8.09268560e-003
      -2.24178311e-005 -3.45887856e-005 -1.16929295e-004
      -3.04092783e-002</_>
    <_>
      8.34038481e-003 -7.96465669e-004 1.55640568e-003 -7.82962609e-003
      -3.54453718e-004 -7.53165805e-004 8.87274382e-007 -1.77768315e-003
      -6.24931927e-005 -7.62605850e-005 -5.82956818e-005
      -4.34317105e-002</_>
    <_>
      1.68698095e-003 -2.24381965e-003 -1.87745769e-004 -1.17548159e-003
      1.80787616e-003 -1.08305819e-003 1.58262969e-006 -7.04135222e-004
      -4.38611314e-005 -6.65565240e-005 -8.76829508e-005
      -3.38413566e-002</_>
    <_>
      -6.29184991e-002 -5.67078739e-002 3.82584194e-003 -1.97437167e-001
      3.54576111e-001 -2.14345023e-001 -4.12702910e-004 6.61398517e-003
      -1.54359022e-003 -2.76917988e-003 2.97752265e-002 -3.36477727e-001</_>
    <_>
      -3.52567583e-001 -1.14940368e-001 -6.69176038e-003 1.06359623e-001
      1.51638940e-001 -2.47302845e-001 -1.18799277e-001 1.38719275e-003
      7.98831999e-001 1.20247531e+000 4.82257605e+000 -2.05742866e-001</_>
    <_>
      -2.43359804e+000 -1.78903356e-001 -5.57470262e-001
      -1.20971572e+000 2.90053099e-001 -2.18639636e+000 7.11549632e-003
      5.68984821e-002 3.42115194e-001 2.89376616e-001 -1.02135396e+000
      -7.11529434e-001</_>
    <_>
      -2.71637380e-001 -1.50827184e-001 -1.71203017e-001
      -5.52213527e-002 2.35675335e-001 -3.77055146e-002 1.95522844e-005
      4.53486927e-002 3.53818364e-003 3.99773382e-003 -6.13022968e-003
      1.69790667e-002</_>
    <_>
      -1.68391434e-003 -1.15667609e-002 -7.94397667e-003
      -1.63465098e-003 1.32177128e-002 2.02633470e-004 -6.56665679e-006
      7.51822516e-002 9.48745510e-005 1.61402320e-004 3.69981251e-004
      -4.06979471e-002</_>
    <_>
      7.54179239e-001 -7.41941392e-001 -8.11747611e-001 -5.55882394e-001
      4.70293671e-001 -1.39801288e+000 7.64677487e-003 5.19130006e-003
      2.67225564e-001 2.90818244e-001 -7.50981271e-001 -1.32278597e+000</_>
    <_>
      1.50045066e-003 -9.54845082e-003 1.80159812e-003 -4.81974427e-003
      1.32532669e-002 -2.95223575e-003 -1.51091524e-006 1.24980863e-002
      -7.70910174e-006 -2.61933310e-005 2.67547235e-004 -7.81242400e-002</_>
    <_>
      -1.15552975e-004 -6.82691170e-005 1.12292379e-004 6.28711059e-005
      -1.01478574e-004 -4.24497339e-005 9.34192173e-008 -8.87363125e-003
      4.37157769e-006 4.87771104e-006 -1.67312410e-005 6.40900806e-004</_>
    <_>
      -6.63990438e-001 1.80463955e-001 -1.10538006e-001 4.77645934e-001
      1.11373924e-001 6.01889849e-001 8.37364292e-004 1.22220794e-004
      7.77703070e-004 7.62755284e-003 -6.04502261e-002 6.40510721e-003</_>
    <_>
      -1.27826262e+000 -1.22871503e-001 1.42192036e-001 1.01388013e+000
      6.20851934e-001 1.00307465e+000 -8.68502771e-004 6.70738751e-004
      -2.05344006e-001 -1.53839260e-001 2.15384051e-001 -2.23863438e-001</_>
    <_>
      -6.49691641e-001 4.86112274e-002 1.08843453e-001 5.40626466e-001
      5.46130478e-001 4.23762530e-001 2.90750694e-002 9.37318616e-003
      8.24536920e-001 9.93446290e-001 -3.39625406e+000 -6.61748424e-002</_>
    <_>
      -2.77906507e-001 2.79726014e-002 -2.82553351e-003 9.15752500e-002
      3.11308336e-002 1.44708186e-001 2.78792977e-005 -1.91746058e-003
      -4.22828738e-003 -3.33659025e-003 -3.84083251e-004
      -6.19203374e-002</_>
    <_>
      -2.55909061e+000 3.37285668e-001 2.84195602e-001 1.98324740e+000
      4.60549891e-001 3.85972762e+000 4.32921620e-003 1.45253295e-003
      -1.68406022e+000 -1.23511887e+000 1.77869427e+000 -2.87276902e-003</_>
    <_>
      -2.29859352e-001 2.70944268e-001 -9.81507450e-002 2.17650265e-001
      6.83128014e-002 2.34110817e-001 8.61131921e-005 -5.63251972e-003
      -2.95477198e-003 -2.60768994e-003 -2.94527807e-003
      -8.34549144e-002</_>
    <_>
      -3.74451971e+000 -1.15073495e-001 1.20316708e+000 3.23514032e+000
      2.97864342e+000 1.11960018e+000 7.13445945e-003 2.90362388e-002
      -7.03161836e-001 -8.39215338e-001 -3.22045624e-001
      -4.89567608e-001</_>
    <_>
      -7.78327525e-001 2.27011785e-001 -3.57871652e-001 1.07342839e+000
      6.67926371e-001 9.83052790e-001 5.01089264e-004 -4.48444812e-003
      -9.01750028e-002 -7.62992874e-002 2.98683606e-002 -2.01799259e-001</_>
    <_>
      1.00621335e-004 -5.51832200e-004 -1.74773486e-005 1.06471103e-004
      8.52337864e-004 3.71530914e-005 -8.77580590e-007 3.29218176e-003
      -2.35657353e-005 -2.09414866e-005 4.71516069e-005 -1.91970374e-002</_>
    <_>
      2.97328486e-004 -6.32988987e-004 -1.78638817e-004 -2.89226242e-004
      5.94502199e-004 -7.02343314e-005 -5.71936482e-007 6.14681840e-003
      -1.50733313e-005 -1.23603077e-005 4.07681073e-005 -1.47128366e-002</_>
    <_>
      3.03051456e-005 -2.57241220e-004 1.01706522e-004 -8.54008831e-005
      6.70864654e-004 -1.51874687e-004 -1.75818030e-007 5.22707123e-003
      -1.87797821e-006 -2.75719026e-006 5.83969609e-007 -1.70594994e-002</_>
    <_>
      1.24283397e-004 -1.72232030e-004 -4.77263238e-005 -3.29319082e-005
      4.39915224e-004 -5.53920763e-005 -4.73377924e-008 1.06185870e-002
      -7.79145830e-006 -7.19036871e-006 7.21195875e-006 -8.85832869e-003</_>
    <_>
      2.72978592e-004 -6.33676129e-004 2.01105504e-005 -5.12634288e-004
      1.33016089e-003 -8.41274101e-004 2.20145296e-007 3.98853887e-003
      -1.42527979e-005 -9.74374052e-006 -2.04838016e-005
      -2.54348293e-002</_>
    <_>
      1.12356187e-003 -2.17105285e-003 4.67746759e-005 -3.39112943e-004
      2.13818112e-003 1.02706574e-004 1.94379112e-007 1.50262099e-003
      -5.26737640e-005 -5.98269253e-005 1.48329209e-005 -3.40608098e-002</_>
    <_>
      7.93251849e-004 -4.26720269e-003 4.01128491e-004 -1.54514110e-003
      -9.59620593e-005 1.15338065e-004 5.60063029e-007 8.27787537e-003
      -2.14751617e-005 -1.23401987e-005 -6.38026104e-005
      -3.12034283e-002</_>
    <_>
      2.56854505e-003 -1.12047151e-003 -1.53385149e-003 -3.13154631e-003
      2.20471830e-003 -8.57386971e-004 1.87835440e-006 -1.76322029e-003
      -5.57992416e-006 -5.12642646e-006 -1.95456872e-004
      -4.17671353e-002</_>
    <_>
      8.58449028e-004 -1.84509601e-003 -3.40283703e-004 -9.74197232e-004
      2.61085178e-003 -2.87487288e-004 4.16098516e-007 -6.37400430e-004
      -3.76225034e-005 -2.58550190e-005 -2.23937204e-005
      -3.10073178e-002</_>
    <_>
      -7.38143129e-003 -9.53514595e-003 1.02918250e-002 -3.41022015e-002
      -5.16269729e-002 1.45468023e-002 3.48339742e-003 1.23288613e-004
      3.22808385e-001 4.96389359e-001 1.51646197e-001 2.02554669e-002</_>
    <_>
      2.42031794e-002 1.39403671e-001 1.77125111e-001 -2.09642187e-001
      -1.24143235e-001 3.78533602e-001 5.16468622e-002 7.76992831e-003
      2.88848591e+000 2.38652492e+000 -1.14190350e+001 -9.38668288e-003</_>
    <_>
      -2.34365249e+000 1.59840316e-001 -7.33026147e-001 -9.59734023e-001
      4.89132106e-001 1.60166633e+000 9.12076607e-003 4.47134115e-002
      1.93152517e-001 1.93729773e-001 -7.35679507e-001 1.16888002e-001</_>
    <_>
      -2.09449857e-001 4.39856470e-001 4.10386547e-002 -4.22023842e-003
      1.14514090e-001 4.70092714e-001 1.21048972e-001 3.80322449e-002
      2.31471896e+000 2.63942146e+000 -9.22762489e+000 -3.96993130e-001</_>
    <_>
      4.29257572e-001 -3.10915932e-002 -1.52972871e-002 2.00313270e-001
      2.22408995e-001 5.10602176e-001 9.41322669e-002 -8.03966913e-003
      5.04588890e+000 5.66516876e+000 -9.68498230e+000 7.26986229e-002</_>
    <_>
      -2.44890433e-002 3.18439275e-001 7.92702362e-002 1.51774823e-003
      1.13155767e-001 -1.45106807e-001 2.91774486e-004 2.82558016e-002
      1.09374395e-003 1.57854892e-003 -1.73963755e-002 -2.26046026e-001</_>
    <_>
      -4.44605212e-005 -5.78738036e-005 -4.21676077e-006
      -1.14826162e-005 2.21479004e-005 -1.45579506e-005 5.12647489e-008
      -3.88324889e-003 9.92151627e-007 9.16308295e-007 -5.11512508e-006
      2.56793690e-004</_>
    <_>
      -8.89197085e-003 -6.14946289e-003 5.34080761e-003 -1.06589741e-003
      8.28061660e-004 1.19696511e-002 1.36116614e-005 -8.54335539e-003
      -1.10197116e-005 3.36109915e-005 -8.05813004e-004 7.33828768e-002</_>
    <_>
      2.88258065e-002 -3.17109436e-001 -1.55009732e-001 -7.57252425e-002
      -2.72966921e-001 2.09253445e-001 4.71026811e-004 -1.74262933e-002
      -9.07609332e-003 -7.12737627e-003 -2.10538525e-002 2.87215441e-001</_>
    <_>
      -2.85508707e-002 -1.92368358e-001 -2.24260300e-001 3.44884582e-002
      -5.65868802e-002 3.33748981e-002 2.78320163e-004 -1.05724465e-002
      2.61065131e-003 2.58417428e-003 -2.32271366e-002 2.66081244e-001</_>
    <_>
      -6.32206397e-003 -7.44941598e-003 7.76966917e-004 9.58450604e-004
      3.29355896e-003 8.86534108e-004 2.96518647e-006 -3.55521850e-002
      -6.34728567e-005 -6.08387927e-005 -1.52441135e-004 9.08474904e-003</_>
    <_>
      -4.09919679e-001 -3.01345915e-001 -1.89722180e-001 7.76799470e-002
      -3.17519993e-001 5.13260186e-001 9.84197948e-004 -1.95190739e-002
      -1.64605267e-002 -4.22163896e-004 -4.73375581e-002 4.84291404e-001</_>
    <_>
      -2.41261994e-004 -1.91343337e-004 -6.88243716e-004
      -1.53928690e-004 5.18027693e-004 6.47515350e-004 7.00596047e-007
      -1.69251803e-002 -1.65621475e-006 -2.32049928e-007
      -3.92579495e-005 1.98896858e-003</_>
    <_>
      -3.67038518e-001 -2.42478207e-001 -2.86059916e-001 1.80389091e-001
      -1.76423758e-001 3.81206274e-001 9.53483686e-004 -1.46167316e-002
      -6.33919332e-003 1.47708959e-003 -6.15402013e-002 4.45953429e-001</_>
    <_>
      3.40256467e-002 -3.00236940e-001 -9.51374993e-002 -1.48955907e-003
      -5.29012829e-003 2.97703981e-001 2.22936374e-004 -2.22028904e-002
      -1.04140462e-002 -9.80940461e-003 -8.26769695e-003 3.18843335e-001</_>
    <_>
      6.83560138e-005 1.13153050e-003 4.51390428e-004 7.29138905e-004
      6.83210383e-004 -1.84334102e-004 3.30596066e-007 4.26840642e-003
      -3.14487006e-005 -3.12165248e-005 -3.05073572e-005
      -2.49954350e-002</_>
    <_>
      3.72893759e-004 4.92189778e-004 3.02765984e-004 -1.48016316e-005
      7.31403474e-004 -3.99473385e-004 8.36847278e-007 8.92932341e-003
      -2.14804841e-005 -2.75775856e-005 -3.44071304e-005
      -2.16621011e-002</_>
    <_>
      2.95602567e-005 1.35460251e-003 6.13319979e-004 4.21537115e-004
      5.46870462e-004 -5.49421529e-004 9.50057597e-007 7.39284605e-003
      -6.72141414e-006 -9.26230223e-006 -7.96271779e-005
      -2.41413526e-002</_>
    <_>
      3.74227748e-005 1.37583073e-003 -1.53798363e-004 2.78869993e-004
      6.78710872e-004 -3.76919430e-004 9.32218654e-007 1.01732798e-002
      -6.66407277e-006 -1.09206585e-005 -5.84603549e-005
      -2.09300499e-002</_>
    <_>
      -3.90502864e-005 2.74291146e-003 8.09657795e-004 4.80023737e-004
      1.68749434e-003 -2.16238946e-003 2.79006554e-006 5.59425214e-003
      -1.64358207e-005 -1.21743142e-005 -2.00250506e-004
      -3.58257405e-002</_>
    <_>
      9.01749299e-004 3.32480087e-003 1.71654590e-003 1.00206013e-003
      8.72022880e-004 -1.19610212e-003 4.07237894e-006 1.87036570e-003
      -6.49414069e-005 -6.87021602e-005 -2.51580437e-004
      -4.51611318e-002</_>
    <_>
      1.54051872e-004 -1.23251192e-002 3.94574553e-003 -3.76035692e-003
      -6.03754772e-003 1.84766448e-003 1.07745245e-005 1.60266776e-002
      5.33320144e-006 3.94122508e-005 -9.76115058e-004 -6.13316521e-002</_>
    <_>
      2.95378547e-003 -1.99712929e-003 3.02042509e-003 -2.37697363e-003
      4.79731098e-005 -3.20638902e-003 6.69988049e-006 -2.00942368e-003
      4.51625419e-005 5.48182361e-005 -5.60669228e-004 -4.75076064e-002</_>
    <_>
      2.27084151e-003 -1.20200601e-003 1.81538169e-003 -9.08586488e-004
      -1.80005317e-003 -9.89784254e-004 3.48470689e-006 -7.72909261e-004
      -4.09356799e-005 -3.74713782e-005 -2.16910412e-004
      -3.81416641e-002</_>
    <_>
      -1.69919208e-001 -1.09490715e-002 2.43814886e-002 -3.17073643e-001
      1.46544293e-001 -9.31411982e-002 8.05372968e-002 3.27457599e-002
      1.65822041e+000 9.40784693e-001 -8.86756134e+000 -6.76392391e-002</_>
    <_>
      -2.66768813e+000 -1.66925397e-002 -8.09397340e-001
      -8.47225264e-002 1.23361158e+000 2.09770814e-001 6.84038103e-002
      6.70773610e-002 9.55392241e-001 1.35278130e+000 -4.81121588e+000
      -4.14869875e-001</_>
    <_>
      -1.93840623e-001 1.74568444e-001 6.43334538e-002 2.69683748e-001
      8.08204990e-003 -6.15305938e-002 1.89926068e-004 2.84937881e-002
      3.69500020e-003 7.67691585e-004 -1.45804957e-002 -3.47179532e-001</_>
    <_>
      2.41947085e-001 6.73266873e-002 1.84187535e-002 2.53154933e-002
      1.71824887e-001 1.18577622e-001 6.38902858e-002 -4.30767192e-003
      2.11334801e+000 1.82592690e+000 -4.78134203e+000 8.50196648e-003</_>
    <_>
      -5.40733561e-002 1.53527662e-001 -5.15921088e-003 4.14284356e-002
      2.19505522e-002 -5.42083606e-002 8.66533373e-005 2.05805674e-002
      9.08238522e-004 1.02186354e-003 -6.21015718e-003 -1.58370182e-001</_>
    <_>
      -6.68005378e-005 -1.00489233e-004 -7.58641545e-005 1.16605806e-005
      2.63625293e-006 -3.80048950e-005 7.66803581e-008 -5.63701754e-003
      2.11929773e-006 2.12487498e-006 -8.81841970e-006 4.58128925e-004</_>
    <_>
      -1.01172462e-001 -1.02071479e-001 1.80438980e-002 -1.15421675e-002
      4.96443957e-002 6.32923320e-002 1.12658505e-004 -7.71447318e-003
      -1.25325823e-004 -1.23960635e-004 -6.21467503e-003 1.62789524e-001</_>
    <_>
      -1.44083190e+000 -4.17602867e-001 -3.31604958e-001 1.50778964e-001
      -3.73267084e-001 1.32051361e+000 6.62110075e-002 -1.52708413e-002
      -5.03947020e+000 -4.29662943e+000 -9.59149480e-001
      -1.00541785e-001</_>
    <_>
      -2.96141714e-001 -1.52169541e-001 -1.61554560e-001
      -2.50339895e-001 -4.84767593e-002 -5.29348850e-001 1.11264892e-001
      -2.59058806e-003 -1.58624165e-002 1.21962048e-001 -8.53777409e+000
      3.22559297e-001</_>
    <_>
      -1.39635026e-001 -9.66965109e-002 6.39586989e-003 3.69604677e-002
      1.27830831e-002 9.94450063e-004 3.53699397e-005 -5.10792108e-003
      -1.53451739e-003 -1.31605542e-003 -1.63670944e-003 8.29869732e-002</_>
    <_>
      -2.32287526e-001 -7.42433593e-002 -5.38601168e-003 1.13499910e-001
      -1.05713040e-001 4.78303760e-001 1.02622062e-001 -6.93641324e-003
      -2.68940210e+000 -2.24984241e+000 -3.64189959e+000 1.69572104e-002</_>
    <_>
      -5.91836311e-002 -4.62877825e-002 -1.54793620e-001 1.55843906e-002
      5.65175042e-002 8.25488493e-002 9.48926245e-005 -2.00003237e-002
      -4.87708923e-004 -1.01558733e-004 -4.83944267e-003 1.33984998e-001</_>
    <_>
      -4.76984940e-002 2.29526199e-002 2.66439244e-002 1.31660089e-001
      5.33029102e-002 -7.35277385e-002 9.35879126e-002 -5.36606601e-003
      -2.52646351e+000 -2.02803946e+000 -4.97616529e+000 3.47255468e-002</_>
    <_>
      -1.34299195e+000 -5.82954943e-001 -5.93186438e-001 2.25865436e+000
      6.81309760e-001 6.20794201e+000 5.20756319e-002 -5.01356795e-002
      -1.32383657e+000 -9.59918022e-001 -2.62464237e+000
      -2.45290622e-002</_>
    <_>
      -1.54991620e-004 1.82903092e-003 -5.50143668e-005 8.63698253e-004
      8.38386419e-004 -2.77248735e-004 7.52540927e-007 4.15593199e-003
      -2.10606522e-005 -1.98684593e-005 -5.12376537e-005
      -2.43767165e-002</_>
    <_>
      1.04334686e-004 1.66621839e-003 -4.22596531e-005 5.04835625e-004
      5.98911778e-004 -5.25630778e-004 8.95683911e-007 8.08367785e-003
      -1.88678496e-005 -2.24025880e-005 -4.49372455e-005
      -2.44345590e-002</_>
    <_>
      -1.61122138e-004 2.31450447e-003 6.14831079e-005 7.41294120e-004
      8.23843817e-004 -7.58525450e-004 1.17089212e-006 7.95160607e-003
      -8.10539404e-006 -6.61374588e-006 -9.22578693e-005
      -2.59762276e-002</_>
    <_>
      -2.30537829e-004 2.32680514e-003 -1.65577570e-004 3.75039817e-004
      6.92528498e-004 -5.11981605e-004 1.22563893e-006 1.20082675e-002
      -6.68293296e-006 -8.35450555e-006 -9.52203700e-005
      -2.47232132e-002</_>
    <_>
      -2.47147516e-004 2.38309894e-003 -3.62985273e-004 8.51943449e-004
      1.43005629e-003 -1.65212015e-003 2.02990418e-006 2.20454810e-003
      -1.96195197e-006 3.02820786e-006 -1.54483074e-004 -3.18313725e-002</_>
    <_>
      1.35480799e-003 3.14046658e-004 -6.76578784e-004 2.13262253e-003
      8.17182357e-004 4.87861980e-005 2.96035387e-006 2.65674968e-003
      -4.30782929e-005 -6.18471313e-005 -1.81703872e-004
      -3.99120115e-002</_>
    <_>
      -5.32940670e-004 -7.63606932e-003 -8.24007366e-005
      -1.24199432e-003 -3.74492584e-003 1.32327748e-003 6.92206595e-006
      3.34191322e-003 3.42415624e-005 6.22748194e-005 -6.59980404e-004
      -5.26668131e-002</_>
    <_>
      4.39313008e-003 -4.46043024e-003 -3.07033840e-003 -2.94594490e-003
      1.45392655e-003 -1.09135476e-003 4.47765888e-006 -1.95398880e-003
      8.67302788e-006 1.74224260e-005 -3.66019900e-004 -4.68808413e-002</_>
    <_>
      1.97834778e-003 -1.35742908e-003 1.47082692e-003 -2.52477854e-004
      6.95761642e-004 -1.04026310e-003 1.45656099e-006 -7.25319260e-004
      -3.42104286e-005 -3.77513352e-005 -9.86925224e-005
      -3.54191996e-002</_>
    <_>
      -1.47081780e+000 -7.86870360e-001 -2.96720862e-001 1.00868845e+000
      -4.06632334e-001 1.78057456e+000 -4.97609638e-002 1.52925896e-002
      -6.17148638e-001 -8.58517349e-001 8.12306881e+000 2.45431170e-001</_>
    <_>
      -2.43779257e-001 1.32793367e-001 -1.79734081e-001 6.52626336e-001
      -8.86292104e-003 2.63239909e-002 -4.61106538e-004 5.78085259e-002
      3.05942056e-004 -4.89608198e-003 4.71576899e-002 -5.43103278e-001</_>
    <_>
      5.22435963e-001 -2.52577692e-001 7.48084784e-002 3.08164239e-001
      1.69440314e-001 7.62327671e-001 6.55272231e-002 -1.89491082e-002
      3.46014810e+000 3.48147678e+000 3.72980386e-001 1.81773305e-003</_>
    <_>
      -1.39404729e-003 6.11409312e-003 1.60060655e-002 4.87434864e-002
      4.23462801e-002 -2.78466363e-002 -2.88939816e-007 3.07310689e-002
      -3.69983813e-004 -6.84288272e-004 1.21296791e-003 -1.98497757e-001</_>
    <_>
      -3.60195918e-005 -4.22088269e-005 3.76445519e-006 3.04878140e-005
      5.00036549e-006 -4.24587051e-005 1.69639929e-008 -4.31158161e-003
      8.84220924e-007 9.31641068e-007 -2.84769726e-006 1.89258135e-004</_>
    <_>
      -5.19204438e-002 -4.77219895e-002 4.96842116e-002 1.09208182e-001
      -1.83360577e-002 2.15137266e-002 -5.93244704e-006 -1.27621936e-002
      -1.01323216e-003 -4.57629008e-004 1.66642922e-003 1.58419296e-001</_>
    <_>
      -3.22380424e-001 -2.97573805e-001 1.39487699e-001 7.90990829e-001
      -1.55304939e-001 9.13389325e-001 -1.24760449e-003 -2.33456474e-002
      -1.18963800e-001 -8.06758329e-002 1.94655582e-001 3.70785780e-002</_>
    <_>
      1.91628575e+000 -1.35195386e+000 2.23317876e-001 7.21437573e-001
      6.23472273e-001 2.93823075e+000 -1.15559259e-002 -3.82161662e-002
      -2.40543008e+000 -1.79072309e+000 4.11963844e+000 8.28436017e-001</_>
    <_>
      -9.40309316e-002 -9.75217968e-002 2.30631363e-002 8.84961635e-002
      2.98958477e-002 -1.88568942e-002 -1.22163474e-005 -1.73712708e-002
      -1.73694384e-003 -1.47958845e-003 2.25409260e-003 -1.16372528e-002</_>
    <_>
      9.27193984e-002 -6.24964714e-001 2.96318293e-001 1.42731583e+000
      -3.23776692e-001 4.19654846e+000 -3.40037770e-003 -4.31121141e-002
      -7.35079408e-001 -7.44538248e-001 1.19239426e+000 1.71569929e-001</_>
    <_>
      1.57057715e-004 8.10819445e-004 -1.69632095e-003 1.68496568e-003
      5.25888405e-004 8.14037223e-004 -6.42111644e-008 -2.99233198e-002
      -2.13950043e-005 -1.01712121e-005 4.52855384e-005 2.57207630e-005</_>
    <_>
      -4.23204154e-001 -2.65225500e-001 -1.08536400e-001 7.34254837e-001
      2.46784985e-001 1.12308371e+000 -3.62713188e-002 -1.36665208e-002
      -5.42001057e+000 -4.14780283e+000 8.32925415e+000 1.10899366e-001</_>
    <_>
      -2.79024001e-002 -4.96925145e-001 -2.38346562e-001 6.63916945e-001
      4.74859439e-002 8.93954158e-001 -4.13060770e-004 -2.23455224e-002
      -7.07654357e-002 -6.13519512e-002 1.19331509e-001 8.04762393e-002</_>
    <_>
      3.64923588e-004 -9.81873964e-005 4.07626212e-005 9.34548560e-004
      9.35861666e-004 6.02479704e-005 -4.16566508e-007 3.92962759e-003
      -3.41330197e-005 -3.68307119e-005 3.97998192e-005 -2.29513738e-002</_>
    <_>
      6.27738365e-004 -5.09247475e-004 4.07831103e-005 3.92982678e-004
      8.61806562e-004 -1.48017702e-004 -1.01201408e-007 7.24633923e-003
      -2.95719638e-005 -3.69248482e-005 3.84612649e-005 -2.16660071e-002</_>
    <_>
      3.88718589e-004 4.47891325e-005 1.72240922e-004 7.54890207e-004
      8.81602522e-004 -2.70920369e-004 -5.19766097e-008 7.10512046e-003
      -1.87847018e-005 -2.30104142e-005 7.97338816e-006 -2.32052933e-002</_>
    <_>
      4.36570786e-004 -2.15964264e-005 -6.37940175e-005 5.47897536e-004
      7.53313303e-004 -1.03057842e-004 -4.73850683e-008 1.01624271e-002
      -2.27308356e-005 -2.68486128e-005 1.69982850e-005 -2.08697375e-002</_>
    <_>
      4.30292333e-004 7.40111209e-005 -1.68143277e-004 9.05892113e-004
      1.66474772e-003 -1.11122720e-003 4.28943679e-007 3.52537842e-003
      -2.61722926e-005 -2.68534513e-005 -1.67001763e-005
      -3.13387476e-002</_>
    <_>
      1.67665409e-003 -1.28127937e-003 -8.43407819e-004 1.69921224e-003
      3.09801137e-004 1.12078234e-003 5.89314254e-007 4.66090254e-003
      -7.83595387e-005 -1.00854275e-004 1.21604089e-005 -4.18647155e-002</_>
    <_>
      1.27781136e-003 -1.26854749e-002 4.21435980e-004 -8.88837618e-004
      -2.60701939e-003 2.43745302e-003 2.24803512e-006 5.43453591e-003
      -3.20938962e-005 -2.13661169e-005 -2.49114004e-004
      -4.86208536e-002</_>
    <_>
      2.28451472e-003 8.78253835e-004 -7.65460834e-004 -6.37240650e-004
      5.02530427e-004 -3.13381641e-003 2.33396281e-006 -1.94213435e-003
      3.38418722e-005 4.95378372e-005 -2.51232093e-004 -4.49923426e-002</_>
    <_>
      1.76750182e-003 -3.01679538e-004 -5.25006501e-004 -4.04518432e-005
      -1.31179264e-003 -1.00336527e-003 4.56909902e-007 -7.38254108e-004
      -5.61201850e-005 -6.67019340e-005 -8.44831993e-006
      -3.73973250e-002</_>
    <_>
      5.62484451e-002 1.60559326e-001 1.60125360e-001 1.95214018e-001
      2.34901905e-002 -1.74363166e-001 2.01387302e-005 2.32092291e-002
      8.71445693e-004 -1.02027378e-003 -1.24398925e-004 -3.41814160e-001</_>
    <_>
      1.19703019e+000 9.40894783e-001 -1.39877349e-001 -1.74377814e-001
      9.71315861e-001 -8.39046240e-001 -3.17136291e-004 -1.55464336e-002
      2.49360921e-003 -2.44631153e-002 4.83694337e-002 -1.64176434e-001</_>
    <_>
      7.95314275e-003 1.78527571e-002 3.15220207e-002 9.89271421e-003
      1.67233068e-002 -2.29177512e-002 1.35238688e-005 2.25592554e-002
      -7.97470275e-005 -3.26393230e-004 -5.96703845e-004
      -1.46018252e-001</_>
    <_>
      -1.79546460e-005 -1.14731656e-005 1.34417432e-005 -5.53030122e-006
      -6.16542138e-006 -2.16109020e-005 7.54824026e-009 -3.17171356e-003
      5.42805367e-007 4.86428860e-007 -1.44215426e-006 1.04472536e-004</_>
    <_>
      -5.39963716e-004 1.53494917e-003 3.49691021e-004 3.17501654e-005
      -3.74553085e-004 1.41372962e-004 -2.83989635e-007 -2.34848037e-002
      -1.09551238e-005 -3.36548442e-006 3.83022307e-005 5.06351981e-003</_>
    <_>
      1.74046576e-001 -4.17387515e-001 8.31512138e-002 3.83308455e-002
      -1.95613652e-001 1.66153610e-001 -2.86824943e-004 -2.59547327e-002
      -1.78097785e-002 -1.72873475e-002 3.75861824e-002 2.04303667e-001</_>
    <_>
      2.99961042e+000 -1.51572359e+000 6.98648632e-001 2.46528476e-001
      7.39165425e-001 -5.62926888e-001 2.07797554e-003 -9.74817500e-002
      -9.24678519e-002 -1.62986740e-001 -1.25145033e-001 9.01434898e-001</_>
    <_>
      -4.61449352e-004 -3.52473318e-004 3.10262956e-004 1.25360719e-004
      2.73889436e-005 -8.31894795e-005 -8.61702460e-008 -1.20025761e-002
      -7.97863777e-006 -7.80256414e-006 1.29557002e-005 -4.80054259e-005</_>
    <_>
      2.00703120e+000 -9.72974777e-001 1.75132319e-001 6.05581999e-001
      -4.79403615e-001 2.81818247e+000 9.81758931e-004 -8.06539655e-002
      -2.80762434e+000 -2.73508310e+000 2.56268239e+000 3.91293228e-001</_>
    <_>
      2.38475623e-005 1.48737920e-004 -5.48479329e-005 -2.34322579e-005
      -2.18920231e-005 7.60360635e-005 -1.70590280e-008 -8.56946502e-003
      -1.26846703e-006 -9.53253220e-007 4.39502992e-006 1.78677019e-005</_>
    <_>
      -9.05023068e-002 -3.17603767e-001 -6.34032264e-002 2.33754680e-001
      -3.99198942e-002 4.66368586e-001 1.27685061e-002 -2.60733832e-002
      -8.92644882e+000 -8.00022697e+000 7.32991934e+000 1.71377733e-001</_>
    <_>
      2.32798100e-001 -3.76699984e-001 2.86393352e-002 8.38037953e-002
      -1.84734222e-002 1.31028876e-001 -8.39128261e-005 -3.77698280e-002
      -1.04580233e-002 -9.77452286e-003 1.93864424e-002 -1.33969069e-001</_>
    <_>
      1.40101416e-004 7.13154732e-004 7.04019330e-004 6.48786896e-004
      4.54157969e-004 -1.61160220e-004 -4.36398892e-007 3.74732958e-003
      -3.01142663e-005 -3.25013207e-005 2.07159628e-005 -2.19273474e-002</_>
    <_>
      1.37791375e-003 -6.58473582e-004 1.64965662e-004 6.27989299e-004
      4.60691081e-004 -7.41330441e-004 -3.12196704e-007 6.70080725e-003
      -2.85397782e-005 -2.82148394e-005 5.04841955e-005 -2.00306121e-002</_>
    <_>
      1.25300756e-003 -1.53772082e-004 3.01801570e-004 1.00846821e-003
      3.94296338e-004 -9.14802600e-004 -3.12926431e-007 6.55341940e-003
      -1.86672114e-005 -1.48767940e-005 2.59546232e-005 -2.14090180e-002</_>
    <_>
      1.22006598e-003 -1.96967201e-004 7.38255185e-005 8.12177372e-004
      3.21030209e-004 -7.08494452e-004 -2.83525907e-007 9.31545906e-003
      -2.28081026e-005 -1.92173375e-005 3.34844844e-005 -1.90896802e-002</_>
    <_>
      2.41118993e-004 1.70154904e-003 1.30235590e-003 3.98979930e-004
      8.83562432e-004 -1.56346313e-003 1.04906394e-006 4.71140072e-003
      -2.11541537e-005 -2.40899481e-005 -7.65325967e-005
      -3.00770756e-002</_>
    <_>
      1.15144823e-003 1.81066943e-003 2.32818350e-003 1.05289207e-003
      5.55395905e-004 -7.69041537e-004 1.49474749e-006 1.62577291e-003
      -6.61230515e-005 -8.32835794e-005 -7.21771867e-005
      -3.87925915e-002</_>
    <_>
      1.60368893e-003 -8.19657929e-003 3.38726968e-004 -8.48505355e-004
      -3.19792819e-003 7.36853923e-004 2.31485774e-006 9.55450069e-003
      -2.61338209e-005 -1.86553134e-005 -2.83968577e-004
      -4.51440066e-002</_>
    <_>
      2.66473833e-003 1.20678835e-003 -9.74941941e-004 4.30064829e-004
      1.14640943e-003 -3.23158270e-003 1.59522233e-006 -7.86783453e-003
      1.30447388e-005 7.36373158e-006 -1.76678092e-004 -3.47737968e-002</_>
    <_>
      2.65693991e-003 -2.95668851e-005 -7.84185249e-004 -1.78157770e-005
      -3.94205534e-004 -2.18546414e-003 5.19247351e-007 -6.40947837e-004
      -4.53954817e-005 -6.20586434e-005 -2.86109225e-005
      -3.18220966e-002</_>
    <_>
      3.24997872e-001 -5.83042562e-001 5.44311821e-001 -2.24116921e+000
      1.25368536e+000 3.38136935e+000 4.16655205e-002 -1.30097732e-001
      5.45232594e-001 3.69113058e-001 -3.22323990e+000 1.33627570e+000</_>
    <_>
      6.24127269e-001 3.14959645e-001 -1.30492702e-001 -1.03544617e+000
      -2.05672979e-001 -2.48757291e+000 1.56019345e-001 4.83669862e-002
      -3.54692280e-001 -6.83301270e-001 -7.45945406e+000
      -2.52541840e-001</_>
    <_>
      -2.62149260e-005 -1.37202951e-005 6.48698233e-007 -7.44465024e-006
      -6.33369427e-006 -2.26988068e-005 1.73107644e-008 -2.96584074e-003
      4.55624019e-007 3.31446614e-007 -2.16264857e-006 1.55235364e-004</_>
    <_>
      -5.19482710e-004 5.46460331e-004 -1.61315213e-004 -5.88349212e-005
      -1.84162840e-004 -4.50095758e-005 1.77253966e-007 -1.51376948e-002
      -5.17838680e-006 -4.04999719e-006 -8.80663811e-006 3.90948169e-003</_>
    <_>
      1.34705438e-003 -1.15343794e-001 2.97032576e-003 -4.01184848e-003
      -3.16496305e-002 1.33931981e-002 7.11261328e-006 -1.36922626e-002
      -1.61196839e-003 -1.74276426e-003 8.70374031e-004 1.17392972e-001</_>
    <_>
      1.19036399e-002 -1.11241482e-001 -4.12687771e-002 -9.90913436e-003
      -3.53588648e-002 1.02687860e-002 2.57121410e-005 -9.33239795e-003
      -6.98135467e-004 -6.54232921e-004 -2.88761663e-003 1.47848010e-001</_>
    <_>
      -3.99696117e-004 -2.60423258e-004 8.07967153e-005 5.22309929e-005
      7.63464413e-006 -9.14873817e-005 5.62420084e-008 -9.51707177e-003
      -5.24059942e-006 -5.90286209e-006 -1.12340524e-006 6.28645881e-004</_>
    <_>
      2.10420117e-002 -1.55103266e-001 -4.06948142e-002 -4.13347259e-002
      -8.26383308e-002 8.93410966e-002 2.39113706e-005 -9.64305922e-003
      -3.07576219e-003 -3.10955849e-003 -5.52140002e-004 1.87293276e-001</_>
    <_>
      -4.52828026e-005 8.42611335e-005 -1.05176361e-004 -3.21538173e-005
      -2.11543938e-005 3.18307939e-005 5.13746521e-008 -7.22587854e-003
      -1.02217552e-006 -1.24159658e-006 -2.20765673e-006 3.91203270e-004</_>
    <_>
      -5.94337564e-003 -1.52900755e-001 -4.48167138e-002
      -1.48369875e-002 -4.37454209e-002 3.18457782e-002 5.20064896e-005
      -1.46833425e-002 -2.21123709e-003 -1.97485625e-003
      -2.63292901e-003 1.70686483e-001</_>
    <_>
      -1.37642138e-002 -7.68774450e-002 -1.76590681e-002 1.04586324e-002
      -1.25851734e-002 -2.27745622e-003 1.05211384e-005 -1.68415848e-002
      -9.83532052e-004 -9.97316558e-004 1.29683904e-004 1.03411205e-001</_>
    <_>
      2.03674092e-004 6.86313899e-004 4.50792635e-004 8.46772862e-004
      -3.36589096e-006 7.09614178e-005 1.46792206e-006 5.44140209e-003
      -3.15150137e-005 -3.09774841e-005 -8.94195255e-005
      -3.17949168e-002</_>
    <_>
      6.83538383e-004 3.61568673e-004 5.66832779e-004 3.46155313e-004
      -7.41996744e-004 -3.11289914e-004 1.63684672e-006 1.10090729e-002
      -3.01402270e-005 -3.74562806e-005 -7.74291111e-005
      -3.31617780e-002</_>
    <_>
      3.49082111e-004 1.05499674e-003 8.30721925e-004 5.92530763e-004
      -3.87517532e-004 -7.11732428e-004 2.28273120e-006 1.10218506e-002
      -1.39037593e-005 -1.18037442e-005 -1.67938764e-004
      -3.59740332e-002</_>
    <_>
      1.37402167e-004 1.08977442e-003 4.88455407e-004 -2.36280248e-004
      -7.74045184e-004 -2.12773259e-004 2.54050792e-006 1.71556100e-002
      -5.83613655e-006 -1.17405634e-005 -1.92792315e-004
      -3.53295319e-002</_>
    <_>
      -2.01186820e-004 1.90671545e-003 -2.51983467e-004 5.99769759e-004
      1.08949072e-003 -2.13646353e-003 3.06552170e-006 2.96250405e-003
      -1.35052669e-005 -6.30948534e-006 -2.40570502e-004
      -4.40505743e-002</_>
    <_>
      1.49590441e-003 1.62622449e-003 -5.41891262e-004 2.05467059e-003
      -3.15083671e-005 5.81093482e-004 4.24594009e-006 2.49958900e-003
      -1.12388771e-004 -1.32377871e-004 -2.75255123e-004
      -5.86615950e-002</_>
    <_>
      -3.41799197e-004 -3.29098217e-002 1.61680928e-003 -7.78267579e-003
      -1.75459683e-002 7.99171906e-003 1.64693629e-005 6.17771083e-003
      5.78150284e-005 1.27974199e-004 -1.66189508e-003 -8.12327415e-002</_>
    <_>
      1.47735409e-003 1.82032364e-003 -4.43774188e-004 -3.46842193e-004
      5.19530557e-004 -2.04706378e-003 2.94927281e-006 -1.48979602e-002
      2.12043506e-005 1.76482808e-005 -2.94787576e-004 -3.57314423e-002</_>
    <_>
      1.85043050e-003 4.18516807e-004 -6.41963283e-008 -6.66094187e-004
      -1.44669879e-003 -2.08507827e-003 1.77297977e-006 -1.54790506e-002
      -5.47931959e-005 -6.94697228e-005 -1.35542548e-004
      -3.71805094e-002</_>
    <_>
      -6.44777436e-003 1.65370964e-002 1.52687505e-002 2.47054221e-003
      1.96793769e-002 -1.37690417e-002 3.49556899e-006 3.39431949e-002
      -5.16103930e-004 -5.80459659e-004 5.90838667e-004 -2.19053805e-001</_>
    <_>
      -6.58260760e-005 -5.36888838e-005 -1.77505190e-005 1.05401550e-005
      -9.13617077e-006 -4.38572752e-005 3.49681564e-008 -4.84271115e-003
      8.33493459e-007 7.72432031e-007 -5.03836145e-006 2.81821645e-004</_>
    <_>
      -1.01188622e-001 -7.66900852e-002 2.61684787e-002 5.38549758e-002
      -2.89090760e-002 4.42953780e-002 2.23079642e-005 -9.60761122e-003
      -1.64184743e-003 -1.39876315e-003 -1.53029850e-003 1.54726103e-001</_>
    <_>
      -1.00394189e+000 -6.77767396e-001 -1.44825742e-001 3.06375206e-001
      -1.03981510e-001 2.11637855e-001 -4.72204789e-004 -3.63330171e-003
      -1.03126749e-001 -1.02352016e-001 1.07987635e-001 1.81449026e-001</_>
    <_>
      -1.30069733e+000 -3.24154943e-001 -5.61371565e-001
      -6.80347010e-002 -2.42547005e-001 -1.59592275e-002
      -1.16915420e-004 -2.61454983e-003 -5.41021824e-002
      -3.49047594e-002 1.20132081e-002 4.84650552e-001</_>
    <_>
      -1.44892573e-001 -9.80728120e-002 -1.24529274e-002 4.68531288e-002
      8.03651474e-003 1.53379226e-002 9.02568991e-006 -3.74630047e-003
      -2.47684470e-003 -1.96241657e-003 -2.15423061e-005 4.98878248e-002</_>
    <_>
      -2.05969214e+000 -8.56646597e-001 -3.47813129e-001 5.07472515e-001
      -6.15175605e-001 7.90377021e-001 -2.37004808e-003 -4.11970355e-003
      -3.66797686e-001 -3.72712791e-001 4.47941542e-001 5.01500547e-001</_>
    <_>
      -9.79346409e-003 1.25510395e-002 -4.02999185e-002 9.63558909e-003
      -1.05088868e-003 1.87287945e-002 7.16095019e-006 -1.05855256e-001
      -5.08199621e-004 -4.04519524e-004 -1.56597031e-004 2.61832085e-002</_>
    <_>
      -1.34545612e+000 -1.94361702e-001 -2.93826640e-001 6.26803100e-001
      -1.66641086e-001 1.29420176e-001 -5.22935763e-004 -1.46014022e-003
      -9.96368676e-002 -1.05426520e-001 9.30164605e-002 3.87654364e-001</_>
    <_>
      -1.23484695e+000 -6.86078370e-001 -7.14790761e-001 7.95888841e-001
      -2.16186330e-001 4.64545429e-001 -6.28584821e-004 -4.11880855e-003
      -2.05183938e-001 -2.22170934e-001 1.88516408e-001 2.78413504e-001</_>
    <_>
      6.74791590e-005 1.21247263e-004 -1.18354637e-006 5.02261391e-004
      4.26313141e-004 1.76196510e-004 -8.38906772e-007 3.89406108e-003
      -3.67657303e-005 -3.36353296e-005 4.41782031e-005 -2.27389801e-002</_>
    <_>
      3.07304465e-004 -3.72296839e-004 3.24373308e-004 2.14118791e-005
      1.78108254e-004 -9.83296559e-005 -2.74228768e-007 7.87195750e-003
      -2.70495620e-005 -3.41840569e-005 4.14080932e-005 -1.88831892e-002</_>
    <_>
      1.29236732e-005 2.25693409e-004 5.39031578e-004 3.72041453e-004
      2.58416785e-005 -1.88746766e-004 -2.26958107e-007 6.43673027e-003
      -1.52305283e-005 -2.14203465e-005 1.25723909e-005 -2.10065432e-002</_>
    <_>
      1.77666981e-004 1.11670728e-004 2.33482162e-004 3.11010925e-004
      2.67879259e-005 -8.46627663e-005 -2.05940154e-007 8.75812117e-003
      -2.23434290e-005 -2.59952467e-005 2.63111997e-005 -1.80081222e-002</_>
    <_>
      1.49670319e-004 6.64940977e-004 -2.24928090e-006 2.22013150e-005
      7.93359533e-004 -1.05969689e-003 6.06127003e-007 4.98877699e-003
      -3.15488069e-005 -2.41734142e-005 -5.02066432e-005
      -3.18065509e-002</_>
    <_>
      1.70635188e-003 -4.69939667e-004 8.49495700e-005 3.78418714e-004
      1.46172533e-003 -4.74454457e-004 6.58082371e-008 1.88358605e-003
      -1.14769238e-004 -1.12078858e-004 5.56499726e-005 -4.36017402e-002</_>
    <_>
      7.99416041e-004 -7.26678595e-003 7.41040159e-004 -2.03352002e-003
      -3.54684843e-003 1.46272592e-003 1.97438385e-006 1.17941732e-002
      -5.23196977e-005 -2.95482205e-005 -2.22302886e-004
      -4.47815135e-002</_>
    <_>
      3.13559687e-003 1.12682080e-003 9.09649360e-004 -1.79467874e-003
      7.30474494e-005 -3.48574924e-003 1.76109052e-006 -1.96461403e-003
      -1.32566138e-005 9.66959647e-007 -2.02085532e-004 -4.57674190e-002</_>
    <_>
      2.50718347e-003 5.41367219e-004 5.16345783e-004 -8.19845649e-004
